%YAML:1.0
arbre: !!opencv-ml-random-trees
   nclasses: 6
   nsamples: 720
   nactive_vars: 4
   oob_error: 4.8979591836734691e-002
   var_importance: !!opencv-matrix
      rows: 1
      cols: 15000
      dt: f
      data: [ 6.25398679e-005, 6.25398679e-005, 1.00063793e-004,
          6.25398679e-005, 6.25398679e-005, 6.25398679e-005,
          6.25398679e-005, 6.25398679e-005, 6.25398679e-005,
          6.25398679e-005, 6.25398679e-005, 6.25398679e-005,
          6.25398679e-005, 6.25398679e-005, 6.25398679e-005,
          6.25398679e-005, 6.25398679e-005, 6.25398679e-005,
          6.25398679e-005, 6.25398679e-005, 6.25398679e-005,
          6.25398679e-005, 6.25398679e-005, 6.25398679e-005,
          6.25398679e-005, 6.25398679e-005, 6.25398679e-005,
          6.25398679e-005, 6.25398679e-005, 6.25398679e-005,
          6.25398679e-005, 6.25398679e-005, 6.25398679e-005,
          6.25398679e-005, 6.25398679e-005, 6.25398679e-005,
          6.25398679e-005, 6.25398679e-005, 6.25398679e-005,
          6.25398679e-005, 6.25398679e-005, 6.25398679e-005,
          6.25398679e-005, 6.25398679e-005, 6.25398679e-005,
          6.25398679e-005, 6.25398679e-005, 6.25398679e-005,
          6.25398679e-005, 6.25398679e-005, 6.25398679e-005,
          6.25398679e-005, 6.25398679e-005, 6.25398679e-005,
          6.25398679e-005, 6.25398679e-005, 6.25398679e-005,
          6.25398679e-005, 6.25398679e-005, 6.25398679e-005,
          6.25398679e-005, 6.25398679e-005, 6.25398679e-005,
          6.25398679e-005, 6.25398679e-005, 6.25398679e-005,
          6.25398679e-005, 6.25398679e-005, 6.25398679e-005,
          6.25398679e-005, 6.25398679e-005, 6.25398679e-005,
          6.25398679e-005, 6.25398679e-005, 6.25398679e-005,
          6.25398679e-005, 6.25398679e-005, 6.25398679e-005,
          6.25398679e-005, 6.25398679e-005, 6.25398679e-005,
          6.25398679e-005, 6.25398679e-005, 6.25398679e-005,
          6.25398679e-005, 6.25398679e-005, 6.25398679e-005,
          6.25398679e-005, 6.25398679e-005, 6.25398679e-005,
          6.25398679e-005, 6.25398679e-005, 6.25398679e-005,
          6.25398679e-005, 6.25398679e-005, 6.25398679e-005,
          6.25398679e-005, 6.25398679e-005, 6.25398679e-005,
          6.25398679e-005, 6.25398679e-005, 6.25398679e-005,
          6.25398679e-005, 6.25398679e-005, 6.25398679e-005,
          6.25398679e-005, 6.25398679e-005, 6.25398679e-005,
          6.25398679e-005, 6.25398679e-005, 6.25398679e-005,
          6.25398679e-005, 6.25398679e-005, 6.25398679e-005,
          6.25398679e-005, 6.25398679e-005, 6.25398679e-005,
          6.25398679e-005, 6.25398679e-005, 6.25398679e-005,
          6.25398679e-005, 6.25398679e-005, 7.50478430e-005,
          6.25398679e-005, 6.25398679e-005, 6.25398679e-005,
          6.25398679e-005, 6.25398679e-005, 6.25398679e-005,
          6.25398679e-005, 6.25398679e-005, 6.25398679e-005,
          6.25398679e-005, 6.25398679e-005, 6.25398679e-005,
          6.25398679e-005, 6.25398679e-005, 6.25398679e-005,
          6.25398679e-005, 7.50478430e-005, 6.25398679e-005,
          6.25398679e-005, 6.25398679e-005, 6.25398679e-005,
          6.25398679e-005, 6.25398679e-005, 6.25398679e-005,
          6.25398679e-005, 6.25398679e-005, 6.25398679e-005,
          6.25398679e-005, 6.25398679e-005, 6.25398679e-005,
          6.25398679e-005, 6.25398679e-005, 6.25398679e-005,
          6.25398679e-005, 6.25398679e-005, 6.25398679e-005,
          6.25398679e-005, 6.25398679e-005, 6.25398679e-005,
          6.25398679e-005, 6.25398679e-005, 6.25398679e-005,
          6.25398679e-005, 6.25398679e-005, 6.25398679e-005,
          6.25398679e-005, 6.25398679e-005, 6.25398679e-005,
          6.25398679e-005, 6.25398679e-005, 6.25398679e-005,
          6.25398679e-005, 6.25398679e-005, 6.25398679e-005,
          6.25398679e-005, 6.25398679e-005, 6.25398679e-005,
          6.25398679e-005, 6.25398679e-005, 6.25398679e-005,
          6.25398679e-005, 6.25398679e-005, 6.25398679e-005,
          6.25398679e-005, 6.25398679e-005, 6.25398679e-005,
          6.25398679e-005, 6.25398679e-005, 6.25398679e-005,
          6.25398679e-005, 6.25398679e-005, 6.25398679e-005,
          6.25398679e-005, 6.25398679e-005, 6.25398679e-005,
          6.25398679e-005, 6.25398679e-005, 6.25398679e-005,
          6.25398679e-005, 6.25398679e-005, 6.25398679e-005,
          6.25398679e-005, 6.25398679e-005, 6.25398679e-005,
          6.25398679e-005, 6.25398679e-005, 6.25398679e-005,
          6.25398679e-005, 6.25398679e-005, 6.25398679e-005,
          6.25398679e-005, 6.25398679e-005, 6.25398679e-005,
          6.25398679e-005, 6.25398679e-005, 6.25398679e-005,
          6.25398679e-005, 6.25398679e-005, 6.25398679e-005,
          6.25398679e-005, 6.25398679e-005, 6.25398679e-005,
          6.25398679e-005, 6.25398679e-005, 6.25398679e-005,
          6.25398679e-005, 6.25398679e-005, 6.25398679e-005,
          6.25398679e-005, 6.25398679e-005, 6.25398679e-005,
          6.25398679e-005, 6.25398679e-005, 6.25398679e-005,
          6.25398679e-005, 6.25398679e-005, 6.25398679e-005,
          6.25398679e-005, 6.25398679e-005, 6.25398679e-005,
          6.25398679e-005, 6.25398679e-005, 6.25398679e-005,
          6.25398679e-005, 6.25398679e-005, 6.25398679e-005,
          6.25398679e-005, 6.25398679e-005, 6.25398679e-005,
          6.25398679e-005, 6.25398679e-005, 6.25398679e-005,
          6.25398679e-005, 6.25398679e-005, 6.25398679e-005,
          6.25398679e-005, 6.25398679e-005, 6.25398679e-005,
          6.25398679e-005, 6.25398679e-005, 6.25398679e-005,
          6.25398679e-005, 6.25398679e-005, 6.25398679e-005,
          6.25398679e-005, 6.25398679e-005, 6.25398679e-005,
          6.25398679e-005, 6.25398679e-005, 6.25398679e-005,
          6.25398679e-005, 6.25398679e-005, 6.25398679e-005,
          6.25398679e-005, 6.25398679e-005, 6.25398679e-005,
          6.25398679e-005, 6.25398679e-005, 6.25398679e-005,
          6.25398679e-005, 6.25398679e-005, 6.25398679e-005,
          6.25398679e-005, 6.25398679e-005, 6.25398679e-005,
          6.25398679e-005, 6.25398679e-005, 6.25398679e-005,
          7.50478430e-005, 6.25398679e-005, 6.25398679e-005,
          6.25398679e-005, 6.25398679e-005, 6.25398679e-005,
          6.25398679e-005, 6.25398679e-005, 6.25398679e-005,
          6.25398679e-005, 6.25398679e-005, 6.25398679e-005,
          6.25398679e-005, 6.25398679e-005, 6.25398679e-005,
          6.25398679e-005, 6.25398679e-005, 6.25398679e-005,
          6.25398679e-005, 6.25398679e-005, 6.25398679e-005,
          6.25398679e-005, 6.25398679e-005, 6.25398679e-005,
          6.25398679e-005, 6.25398679e-005, 6.25398679e-005,
          6.25398679e-005, 6.25398679e-005, 6.25398679e-005,
          6.25398679e-005, 6.25398679e-005, 6.25398679e-005,
          6.25398679e-005, 6.25398679e-005, 6.25398679e-005,
          6.25398679e-005, 6.25398679e-005, 6.25398679e-005,
          6.25398679e-005, 6.25398679e-005, 6.25398679e-005,
          6.25398679e-005, 6.25398679e-005, 6.25398679e-005,
          6.25398679e-005, 6.25398679e-005, 6.25398679e-005,
          6.25398679e-005, 6.25398679e-005, 6.25398679e-005,
          6.25398679e-005, 6.25398679e-005, 6.25398679e-005,
          6.25398679e-005, 6.25398679e-005, 6.25398679e-005,
          6.25398679e-005, 6.25398679e-005, 6.25398679e-005,
          6.25398679e-005, 6.25398679e-005, 6.25398679e-005,
          6.25398679e-005, 6.25398679e-005, 6.25398679e-005,
          6.25398679e-005, 6.25398679e-005, 6.25398679e-005,
          6.25398679e-005, 6.25398679e-005, 6.25398679e-005,
          6.25398679e-005, 6.25398679e-005, 6.25398679e-005,
          6.25398679e-005, 6.25398679e-005, 6.25398679e-005,
          6.25398679e-005, 6.25398679e-005, 6.25398679e-005,
          6.25398679e-005, 6.25398679e-005, 6.25398679e-005,
          6.25398679e-005, 6.25398679e-005, 6.25398679e-005,
          6.25398679e-005, 6.25398679e-005, 6.25398679e-005,
          6.25398679e-005, 6.25398679e-005, 6.25398679e-005,
          6.25398679e-005, 6.25398679e-005, 6.25398679e-005,
          6.25398679e-005, 6.25398679e-005, 6.25398679e-005,
          6.25398679e-005, 6.25398679e-005, 6.25398679e-005,
          6.25398679e-005, 6.25398679e-005, 6.25398679e-005,
          6.25398679e-005, 6.25398679e-005, 6.25398679e-005,
          6.25398679e-005, 6.25398679e-005, 6.25398679e-005,
          6.25398679e-005, 6.25398679e-005, 6.25398679e-005,
          6.25398679e-005, 6.25398679e-005, 6.25398679e-005,
          6.25398679e-005, 6.25398679e-005, 6.25398679e-005,
          6.25398679e-005, 6.25398679e-005, 6.25398679e-005,
          6.25398679e-005, 6.25398679e-005, 6.25398679e-005,
          6.25398679e-005, 6.25398679e-005, 6.25398679e-005,
          6.25398679e-005, 6.25398679e-005, 6.25398679e-005,
          6.25398679e-005, 6.25398679e-005, 6.25398679e-005,
          6.25398679e-005, 6.25398679e-005, 6.25398679e-005,
          6.25398679e-005, 6.25398679e-005, 6.25398679e-005,
          6.25398679e-005, 6.25398679e-005, 6.25398679e-005,
          6.25398679e-005, 6.25398679e-005, 6.25398679e-005,
          6.25398679e-005, 6.25398679e-005, 6.25398679e-005,
          6.25398679e-005, 6.25398679e-005, 6.25398679e-005,
          6.25398679e-005, 6.25398679e-005, 6.25398679e-005,
          6.25398679e-005, 6.25398679e-005, 6.25398679e-005,
          6.25398679e-005, 8.75558180e-005, 6.25398679e-005,
          6.25398679e-005, 6.25398679e-005, 6.25398679e-005,
          6.25398679e-005, 6.25398679e-005, 6.25398679e-005,
          6.25398679e-005, 6.25398679e-005, 6.25398679e-005,
          6.25398679e-005, 6.25398679e-005, 6.25398679e-005,
          6.25398679e-005, 6.25398679e-005, 6.25398679e-005,
          6.25398679e-005, 6.25398679e-005, 6.25398679e-005,
          6.25398679e-005, 6.25398679e-005, 6.25398679e-005,
          6.25398679e-005, 6.25398679e-005, 6.25398679e-005,
          6.25398679e-005, 6.25398679e-005, 6.25398679e-005,
          6.25398679e-005, 6.25398679e-005, 6.25398679e-005,
          6.25398679e-005, 6.25398679e-005, 6.25398679e-005,
          6.25398679e-005, 6.25398679e-005, 6.25398679e-005,
          6.25398679e-005, 6.25398679e-005, 6.25398679e-005,
          6.25398679e-005, 6.25398679e-005, 6.25398679e-005,
          6.25398679e-005, 6.25398679e-005, 6.25398679e-005,
          6.25398679e-005, 6.25398679e-005, 6.25398679e-005,
          6.25398679e-005, 6.25398679e-005, 6.25398679e-005,
          6.25398679e-005, 6.25398679e-005, 6.25398679e-005,
          6.25398679e-005, 6.25398679e-005, 6.25398679e-005,
          6.25398679e-005, 6.25398679e-005, 6.25398679e-005,
          6.25398679e-005, 6.25398679e-005, 6.25398679e-005,
          6.25398679e-005, 6.25398679e-005, 6.25398679e-005,
          6.25398679e-005, 6.25398679e-005, 6.25398679e-005,
          6.25398679e-005, 6.25398679e-005, 6.25398679e-005,
          6.25398679e-005, 6.25398679e-005, 6.25398679e-005,
          6.25398679e-005, 6.25398679e-005, 6.25398679e-005,
          6.25398679e-005, 6.25398679e-005, 6.25398679e-005,
          6.25398679e-005, 6.25398679e-005, 6.25398679e-005,
          6.25398679e-005, 6.25398679e-005, 6.25398679e-005,
          6.25398679e-005, 6.25398679e-005, 6.25398679e-005,
          6.25398679e-005, 6.25398679e-005, 6.25398679e-005,
          6.25398679e-005, 6.25398679e-005, 6.25398679e-005,
          6.25398679e-005, 6.25398679e-005, 6.25398679e-005,
          6.25398679e-005, 6.25398679e-005, 6.25398679e-005,
          6.25398679e-005, 6.25398679e-005, 6.25398679e-005,
          6.25398679e-005, 6.25398679e-005, 6.25398679e-005,
          6.25398679e-005, 6.25398679e-005, 6.25398679e-005,
          6.25398679e-005, 6.25398679e-005, 6.25398679e-005,
          6.25398679e-005, 6.25398679e-005, 6.25398679e-005,
          6.25398679e-005, 6.25398679e-005, 6.25398679e-005,
          6.25398679e-005, 6.25398679e-005, 6.25398679e-005,
          6.25398679e-005, 6.25398679e-005, 6.25398679e-005,
          6.25398679e-005, 6.25398679e-005, 6.25398679e-005,
          6.25398679e-005, 6.25398679e-005, 6.25398679e-005,
          6.25398679e-005, 6.25398679e-005, 6.25398679e-005,
          6.25398679e-005, 6.25398679e-005, 6.25398679e-005,
          6.25398679e-005, 6.25398679e-005, 6.25398679e-005,
          6.25398679e-005, 6.25398679e-005, 6.25398679e-005,
          6.25398679e-005, 6.25398679e-005, 6.25398679e-005,
          6.25398679e-005, 6.25398679e-005, 6.25398679e-005,
          6.25398679e-005, 6.25398679e-005, 6.25398679e-005,
          6.25398679e-005, 6.25398679e-005, 6.25398679e-005,
          6.25398679e-005, 6.25398679e-005, 6.25398679e-005,
          6.25398679e-005, 6.25398679e-005, 6.25398679e-005,
          6.25398679e-005, 6.25398679e-005, 6.25398679e-005,
          6.25398679e-005, 6.25398679e-005, 6.25398679e-005,
          6.25398679e-005, 6.25398679e-005, 6.25398679e-005,
          6.25398679e-005, 6.25398679e-005, 6.25398679e-005,
          6.25398679e-005, 6.25398679e-005, 6.25398679e-005,
          6.25398679e-005, 6.25398679e-005, 6.25398679e-005,
          6.25398679e-005, 6.25398679e-005, 6.25398679e-005,
          6.25398679e-005, 6.25398679e-005, 6.25398679e-005,
          6.25398679e-005, 6.25398679e-005, 6.25398679e-005,
          6.25398679e-005, 6.25398679e-005, 6.25398679e-005,
          6.25398679e-005, 6.25398679e-005, 6.25398679e-005,
          6.25398679e-005, 6.25398679e-005, 6.25398679e-005,
          6.25398679e-005, 6.25398679e-005, 6.25398679e-005,
          6.25398679e-005, 6.25398679e-005, 6.25398679e-005,
          6.25398679e-005, 6.25398679e-005, 6.25398679e-005,
          6.25398679e-005, 6.25398679e-005, 6.25398679e-005,
          6.25398679e-005, 6.25398679e-005, 6.25398679e-005,
          6.25398679e-005, 6.25398679e-005, 6.25398679e-005,
          6.25398679e-005, 6.25398679e-005, 6.25398679e-005,
          6.25398679e-005, 6.25398679e-005, 6.25398679e-005,
          6.25398679e-005, 6.25398679e-005, 6.25398679e-005,
          6.25398679e-005, 7.50478430e-005, 6.25398679e-005,
          6.25398679e-005, 6.25398679e-005, 6.25398679e-005,
          6.25398679e-005, 6.25398679e-005, 6.25398679e-005,
          6.25398679e-005, 6.25398679e-005, 6.25398679e-005,
          6.25398679e-005, 6.25398679e-005, 6.25398679e-005,
          6.25398679e-005, 6.25398679e-005, 6.25398679e-005,
          6.25398679e-005, 6.25398679e-005, 6.25398679e-005,
          6.25398679e-005, 6.25398679e-005, 6.25398679e-005,
          6.25398679e-005, 6.25398679e-005, 6.25398679e-005,
          6.25398679e-005, 6.25398679e-005, 6.25398679e-005,
          6.25398679e-005, 6.25398679e-005, 6.25398679e-005,
          6.25398679e-005, 6.25398679e-005, 6.25398679e-005,
          6.25398679e-005, 6.25398679e-005, 6.25398679e-005,
          6.25398679e-005, 6.25398679e-005, 6.25398679e-005,
          6.25398679e-005, 6.25398679e-005, 6.25398679e-005,
          6.25398679e-005, 6.25398679e-005, 6.25398679e-005,
          6.25398679e-005, 6.25398679e-005, 6.25398679e-005,
          6.25398679e-005, 6.25398679e-005, 6.25398679e-005,
          6.25398679e-005, 6.25398679e-005, 6.25398679e-005,
          6.25398679e-005, 6.25398679e-005, 6.25398679e-005,
          6.25398679e-005, 6.25398679e-005, 6.25398679e-005,
          6.25398679e-005, 6.25398679e-005, 6.25398679e-005,
          6.25398679e-005, 6.25398679e-005, 6.25398679e-005,
          6.25398679e-005, 6.25398679e-005, 6.25398679e-005,
          6.25398679e-005, 6.25398679e-005, 6.25398679e-005,
          6.25398679e-005, 6.25398679e-005, 6.25398679e-005,
          6.25398679e-005, 6.25398679e-005, 6.25398679e-005,
          6.25398679e-005, 6.25398679e-005, 6.25398679e-005,
          6.25398679e-005, 6.25398679e-005, 6.25398679e-005,
          6.25398679e-005, 6.25398679e-005, 6.25398679e-005,
          6.25398679e-005, 6.25398679e-005, 6.25398679e-005,
          6.25398679e-005, 6.25398679e-005, 6.25398679e-005,
          6.25398679e-005, 6.25398679e-005, 6.25398679e-005,
          6.25398679e-005, 6.25398679e-005, 6.25398679e-005,
          6.25398679e-005, 6.25398679e-005, 6.25398679e-005,
          6.25398679e-005, 6.25398679e-005, 6.25398679e-005,
          6.25398679e-005, 6.25398679e-005, 6.25398679e-005,
          6.25398679e-005, 6.25398679e-005, 6.25398679e-005,
          6.25398679e-005, 6.25398679e-005, 6.25398679e-005,
          6.25398679e-005, 6.25398679e-005, 6.25398679e-005,
          6.25398679e-005, 6.25398679e-005, 6.25398679e-005,
          6.25398679e-005, 6.25398679e-005, 6.25398679e-005,
          6.25398679e-005, 6.25398679e-005, 6.25398679e-005,
          6.25398679e-005, 6.25398679e-005, 6.25398679e-005,
          6.25398679e-005, 6.25398679e-005, 6.25398679e-005,
          6.25398679e-005, 6.25398679e-005, 6.25398679e-005,
          6.25398679e-005, 6.25398679e-005, 6.25398679e-005,
          6.25398679e-005, 6.25398679e-005, 6.25398679e-005,
          6.25398679e-005, 7.50478430e-005, 6.25398679e-005,
          6.25398679e-005, 6.25398679e-005, 6.25398679e-005,
          6.25398679e-005, 6.25398679e-005, 6.25398679e-005,
          6.25398679e-005, 6.25398679e-005, 6.25398679e-005,
          6.25398679e-005, 6.25398679e-005, 7.50478430e-005,
          6.25398679e-005, 6.25398679e-005, 6.25398679e-005,
          7.50478430e-005, 6.25398679e-005, 6.25398679e-005,
          8.75558180e-005, 6.25398679e-005, 6.25398679e-005,
          6.25398679e-005, 6.25398679e-005, 6.25398679e-005,
          6.25398679e-005, 6.25398679e-005, 6.25398679e-005,
          6.25398679e-005, 6.25398679e-005, 6.25398679e-005,
          6.25398679e-005, 6.25398679e-005, 6.25398679e-005,
          6.25398679e-005, 6.25398679e-005, 6.25398679e-005,
          6.25398679e-005, 6.25398679e-005, 6.25398679e-005,
          6.25398679e-005, 6.25398679e-005, 6.25398679e-005,
          6.25398679e-005, 6.25398679e-005, 6.25398679e-005,
          6.25398679e-005, 6.25398679e-005, 6.25398679e-005,
          6.25398679e-005, 6.25398679e-005, 6.25398679e-005,
          6.25398679e-005, 6.25398679e-005, 6.25398679e-005,
          6.25398679e-005, 6.25398679e-005, 6.25398679e-005,
          6.25398679e-005, 6.25398679e-005, 6.25398679e-005,
          6.25398679e-005, 6.25398679e-005, 6.25398679e-005,
          6.25398679e-005, 6.25398679e-005, 6.25398679e-005,
          6.25398679e-005, 6.25398679e-005, 6.25398679e-005,
          6.25398679e-005, 6.25398679e-005, 6.25398679e-005,
          6.25398679e-005, 6.25398679e-005, 6.25398679e-005,
          6.25398679e-005, 6.25398679e-005, 6.25398679e-005,
          6.25398679e-005, 6.25398679e-005, 6.25398679e-005,
          6.25398679e-005, 6.25398679e-005, 6.25398679e-005,
          6.25398679e-005, 6.25398679e-005, 6.25398679e-005,
          6.25398679e-005, 6.25398679e-005, 6.25398679e-005,
          6.25398679e-005, 6.25398679e-005, 6.25398679e-005,
          6.25398679e-005, 6.25398679e-005, 6.25398679e-005,
          6.25398679e-005, 6.25398679e-005, 6.25398679e-005,
          6.25398679e-005, 6.25398679e-005, 6.25398679e-005,
          6.25398679e-005, 6.25398679e-005, 6.25398679e-005,
          6.25398679e-005, 6.25398679e-005, 6.25398679e-005,
          6.25398679e-005, 6.25398679e-005, 6.25398679e-005,
          6.25398679e-005, 6.25398679e-005, 6.25398679e-005,
          6.25398679e-005, 6.25398679e-005, 6.25398679e-005,
          6.25398679e-005, 6.25398679e-005, 6.25398679e-005,
          6.25398679e-005, 6.25398679e-005, 6.25398679e-005,
          6.25398679e-005, 6.25398679e-005, 6.25398679e-005,
          6.25398679e-005, 6.25398679e-005, 6.25398679e-005,
          6.25398679e-005, 6.25398679e-005, 6.25398679e-005,
          6.25398679e-005, 6.25398679e-005, 6.25398679e-005,
          6.25398679e-005, 6.25398679e-005, 6.25398679e-005,
          6.25398679e-005, 6.25398679e-005, 6.25398679e-005,
          6.25398679e-005, 6.25398679e-005, 6.25398679e-005,
          6.25398679e-005, 6.25398679e-005, 6.25398679e-005,
          6.25398679e-005, 6.25398679e-005, 6.25398679e-005,
          7.50478430e-005, 6.25398679e-005, 6.25398679e-005,
          6.25398679e-005, 6.25398679e-005, 6.25398679e-005,
          6.25398679e-005, 6.25398679e-005, 6.25398679e-005,
          6.25398679e-005, 6.25398679e-005, 6.25398679e-005,
          6.25398679e-005, 6.25398679e-005, 6.25398679e-005,
          6.25398679e-005, 6.25398679e-005, 6.25398679e-005,
          6.25398679e-005, 6.25398679e-005, 6.25398679e-005,
          6.25398679e-005, 6.25398679e-005, 6.25398679e-005,
          6.25398679e-005, 6.25398679e-005, 6.25398679e-005,
          6.25398679e-005, 6.25398679e-005, 6.25398679e-005,
          6.25398679e-005, 6.25398679e-005, 6.25398679e-005,
          6.25398679e-005, 6.25398679e-005, 6.25398679e-005,
          6.25398679e-005, 6.25398679e-005, 6.25398679e-005,
          6.25398679e-005, 6.25398679e-005, 6.25398679e-005,
          6.25398679e-005, 6.25398679e-005, 6.25398679e-005,
          6.25398679e-005, 6.25398679e-005, 6.25398679e-005,
          6.25398679e-005, 6.25398679e-005, 6.25398679e-005,
          6.25398679e-005, 6.25398679e-005, 6.25398679e-005,
          6.25398679e-005, 6.25398679e-005, 6.25398679e-005,
          6.25398679e-005, 6.25398679e-005, 6.25398679e-005,
          6.25398679e-005, 6.25398679e-005, 6.25398679e-005,
          6.25398679e-005, 6.25398679e-005, 6.25398679e-005,
          6.25398679e-005, 6.25398679e-005, 6.25398679e-005,
          6.25398679e-005, 6.25398679e-005, 6.25398679e-005,
          6.25398679e-005, 6.25398679e-005, 6.25398679e-005,
          6.25398679e-005, 6.25398679e-005, 6.25398679e-005,
          6.25398679e-005, 6.25398679e-005, 6.25398679e-005,
          6.25398679e-005, 6.25398679e-005, 6.25398679e-005,
          6.25398679e-005, 6.25398679e-005, 6.25398679e-005,
          6.25398679e-005, 6.25398679e-005, 6.25398679e-005,
          6.25398679e-005, 6.25398679e-005, 6.25398679e-005,
          6.25398679e-005, 6.25398679e-005, 6.25398679e-005,
          6.25398679e-005, 6.25398679e-005, 6.25398679e-005,
          6.25398679e-005, 6.25398679e-005, 6.25398679e-005,
          6.25398679e-005, 6.25398679e-005, 6.25398679e-005,
          6.25398679e-005, 6.25398679e-005, 6.25398679e-005,
          6.25398679e-005, 6.25398679e-005, 6.25398679e-005,
          6.25398679e-005, 6.25398679e-005, 6.25398679e-005,
          6.25398679e-005, 6.25398679e-005, 6.25398679e-005,
          6.25398679e-005, 6.25398679e-005, 6.25398679e-005,
          6.25398679e-005, 6.25398679e-005, 6.25398679e-005,
          6.25398679e-005, 6.25398679e-005, 6.25398679e-005,
          6.25398679e-005, 6.25398679e-005, 6.25398679e-005,
          6.25398679e-005, 6.25398679e-005, 6.25398679e-005,
          6.25398679e-005, 6.25398679e-005, 6.25398679e-005,
          6.25398679e-005, 6.25398679e-005, 6.25398679e-005,
          6.25398679e-005, 6.25398679e-005, 6.25398679e-005,
          6.25398679e-005, 6.25398679e-005, 6.25398679e-005,
          6.25398679e-005, 6.25398679e-005, 6.25398679e-005,
          6.25398679e-005, 6.25398679e-005, 6.25398679e-005,
          6.25398679e-005, 6.25398679e-005, 6.25398679e-005,
          6.25398679e-005, 6.25398679e-005, 6.25398679e-005,
          6.25398679e-005, 6.25398679e-005, 6.25398679e-005,
          6.25398679e-005, 6.25398679e-005, 6.25398679e-005,
          6.25398679e-005, 6.25398679e-005, 6.25398679e-005,
          6.25398679e-005, 6.25398679e-005, 6.25398679e-005,
          6.25398679e-005, 6.25398679e-005, 6.25398679e-005,
          6.25398679e-005, 7.50478430e-005, 6.25398679e-005,
          6.25398679e-005, 6.25398679e-005, 6.25398679e-005,
          6.25398679e-005, 6.25398679e-005, 6.25398679e-005,
          6.25398679e-005, 6.25398679e-005, 6.25398679e-005,
          6.25398679e-005, 6.25398679e-005, 6.25398679e-005,
          6.25398679e-005, 6.25398679e-005, 6.25398679e-005,
          6.25398679e-005, 6.25398679e-005, 6.25398679e-005,
          6.25398679e-005, 6.25398679e-005, 6.25398679e-005,
          6.25398679e-005, 6.25398679e-005, 6.25398679e-005,
          6.25398679e-005, 6.25398679e-005, 6.25398679e-005,
          6.25398679e-005, 6.25398679e-005, 6.25398679e-005,
          6.25398679e-005, 6.25398679e-005, 6.25398679e-005,
          6.25398679e-005, 6.25398679e-005, 6.25398679e-005,
          6.25398679e-005, 6.25398679e-005, 6.25398679e-005,
          6.25398679e-005, 6.25398679e-005, 6.25398679e-005,
          6.25398679e-005, 6.25398679e-005, 6.25398679e-005,
          6.25398679e-005, 6.25398679e-005, 6.25398679e-005,
          6.25398679e-005, 6.25398679e-005, 6.25398679e-005,
          6.25398679e-005, 6.25398679e-005, 6.25398679e-005,
          6.25398679e-005, 6.25398679e-005, 6.25398679e-005,
          6.25398679e-005, 6.25398679e-005, 6.25398679e-005,
          6.25398679e-005, 6.25398679e-005, 6.25398679e-005,
          6.25398679e-005, 6.25398679e-005, 6.25398679e-005,
          6.25398679e-005, 6.25398679e-005, 6.25398679e-005,
          6.25398679e-005, 6.25398679e-005, 6.25398679e-005,
          6.25398679e-005, 6.25398679e-005, 6.25398679e-005,
          6.25398679e-005, 6.25398679e-005, 6.25398679e-005,
          6.25398679e-005, 6.25398679e-005, 6.25398679e-005,
          6.25398679e-005, 6.25398679e-005, 6.25398679e-005,
          6.25398679e-005, 6.25398679e-005, 6.25398679e-005,
          6.25398679e-005, 6.25398679e-005, 6.25398679e-005,
          6.25398679e-005, 6.25398679e-005, 6.25398679e-005,
          6.25398679e-005, 6.25398679e-005, 6.25398679e-005,
          6.25398679e-005, 6.25398679e-005, 6.25398679e-005,
          6.25398679e-005, 6.25398679e-005, 6.25398679e-005,
          6.25398679e-005, 6.25398679e-005, 6.25398679e-005,
          6.25398679e-005, 6.25398679e-005, 6.25398679e-005,
          6.25398679e-005, 6.25398679e-005, 6.25398679e-005,
          6.25398679e-005, 6.25398679e-005, 6.25398679e-005,
          6.25398679e-005, 6.25398679e-005, 6.25398679e-005,
          6.25398679e-005, 6.25398679e-005, 6.25398679e-005,
          6.25398679e-005, 6.25398679e-005, 6.25398679e-005,
          6.25398679e-005, 6.25398679e-005, 6.25398679e-005,
          6.25398679e-005, 8.75558180e-005, 6.25398679e-005,
          6.25398679e-005, 6.25398679e-005, 6.25398679e-005,
          6.25398679e-005, 6.25398679e-005, 6.25398679e-005,
          6.25398679e-005, 6.25398679e-005, 6.25398679e-005,
          6.25398679e-005, 6.25398679e-005, 1.00063793e-004,
          6.25398679e-005, 6.25398679e-005, 6.25398679e-005,
          6.25398679e-005, 6.25398679e-005, 6.25398679e-005,
          6.25398679e-005, 6.25398679e-005, 6.25398679e-005,
          6.25398679e-005, 6.25398679e-005, 6.25398679e-005,
          6.25398679e-005, 6.25398679e-005, 6.25398679e-005,
          7.50478430e-005, 6.25398679e-005, 6.25398679e-005,
          6.25398679e-005, 6.25398679e-005, 6.25398679e-005,
          6.25398679e-005, 6.25398679e-005, 6.25398679e-005,
          6.25398679e-005, 6.25398679e-005, 6.25398679e-005,
          6.25398679e-005, 6.25398679e-005, 6.25398679e-005,
          6.25398679e-005, 6.25398679e-005, 6.25398679e-005,
          6.25398679e-005, 6.25398679e-005, 6.25398679e-005,
          6.25398679e-005, 6.25398679e-005, 6.25398679e-005,
          6.25398679e-005, 6.25398679e-005, 6.25398679e-005,
          6.25398679e-005, 6.25398679e-005, 6.25398679e-005,
          6.25398679e-005, 6.25398679e-005, 6.25398679e-005,
          6.25398679e-005, 6.25398679e-005, 6.25398679e-005,
          6.25398679e-005, 6.25398679e-005, 6.25398679e-005,
          6.25398679e-005, 6.25398679e-005, 6.25398679e-005,
          6.25398679e-005, 6.25398679e-005, 6.25398679e-005,
          6.25398679e-005, 6.25398679e-005, 6.25398679e-005,
          6.25398679e-005, 6.25398679e-005, 6.25398679e-005,
          6.25398679e-005, 6.25398679e-005, 6.25398679e-005,
          6.25398679e-005, 6.25398679e-005, 6.25398679e-005,
          6.25398679e-005, 6.25398679e-005, 6.25398679e-005,
          6.25398679e-005, 6.25398679e-005, 6.25398679e-005,
          6.25398679e-005, 6.25398679e-005, 6.25398679e-005,
          6.25398679e-005, 6.25398679e-005, 6.25398679e-005,
          6.25398679e-005, 6.25398679e-005, 6.25398679e-005,
          6.25398679e-005, 6.25398679e-005, 6.25398679e-005,
          6.25398679e-005, 6.25398679e-005, 6.25398679e-005,
          6.25398679e-005, 6.25398679e-005, 6.25398679e-005,
          6.25398679e-005, 6.25398679e-005, 6.25398679e-005,
          6.25398679e-005, 6.25398679e-005, 6.25398679e-005,
          6.25398679e-005, 6.25398679e-005, 6.25398679e-005,
          6.25398679e-005, 6.25398679e-005, 6.25398679e-005,
          6.25398679e-005, 6.25398679e-005, 6.25398679e-005,
          6.25398679e-005, 6.25398679e-005, 6.25398679e-005,
          6.25398679e-005, 6.25398679e-005, 6.25398679e-005,
          6.25398679e-005, 6.25398679e-005, 6.25398679e-005,
          6.25398679e-005, 6.25398679e-005, 6.25398679e-005,
          6.25398679e-005, 6.25398679e-005, 6.25398679e-005,
          6.25398679e-005, 6.25398679e-005, 6.25398679e-005,
          6.25398679e-005, 6.25398679e-005, 6.25398679e-005,
          6.25398679e-005, 6.25398679e-005, 6.25398679e-005,
          6.25398679e-005, 8.75558180e-005, 6.25398679e-005,
          6.25398679e-005, 6.25398679e-005, 1.25079736e-004,
          6.25398679e-005, 6.25398679e-005, 6.25398679e-005,
          6.25398679e-005, 6.25398679e-005, 1.25079736e-004,
          6.25398679e-005, 6.25398679e-005, 1.50095686e-004,
          6.25398679e-005, 6.25398679e-005, 6.25398679e-005,
          6.25398679e-005, 6.25398679e-005, 6.25398679e-005,
          6.25398679e-005, 1.12571768e-004, 1.00063793e-004,
          6.25398679e-005, 6.25398679e-005, 6.25398679e-005,
          6.25398679e-005, 6.25398679e-005, 6.25398679e-005,
          6.25398679e-005, 7.50478430e-005, 6.25398679e-005,
          6.25398679e-005, 6.25398679e-005, 6.25398679e-005,
          6.25398679e-005, 6.25398679e-005, 6.25398679e-005,
          6.25398679e-005, 6.25398679e-005, 6.25398679e-005,
          6.25398679e-005, 6.25398679e-005, 6.25398679e-005,
          6.25398679e-005, 6.25398679e-005, 6.25398679e-005,
          6.25398679e-005, 6.25398679e-005, 6.25398679e-005,
          6.25398679e-005, 6.25398679e-005, 6.25398679e-005,
          6.25398679e-005, 6.25398679e-005, 6.25398679e-005,
          6.25398679e-005, 6.25398679e-005, 6.25398679e-005,
          6.25398679e-005, 6.25398679e-005, 6.25398679e-005,
          6.25398679e-005, 6.25398679e-005, 6.25398679e-005,
          6.25398679e-005, 6.25398679e-005, 6.25398679e-005,
          6.25398679e-005, 6.25398679e-005, 6.25398679e-005,
          6.25398679e-005, 6.25398679e-005, 6.25398679e-005,
          6.25398679e-005, 6.25398679e-005, 6.25398679e-005,
          6.25398679e-005, 6.25398679e-005, 6.25398679e-005,
          6.25398679e-005, 6.25398679e-005, 6.25398679e-005,
          6.25398679e-005, 6.25398679e-005, 6.25398679e-005,
          6.25398679e-005, 6.25398679e-005, 6.25398679e-005,
          6.25398679e-005, 6.25398679e-005, 6.25398679e-005,
          6.25398679e-005, 6.25398679e-005, 6.25398679e-005,
          6.25398679e-005, 6.25398679e-005, 6.25398679e-005,
          6.25398679e-005, 6.25398679e-005, 6.25398679e-005,
          6.25398679e-005, 6.25398679e-005, 6.25398679e-005,
          6.25398679e-005, 6.25398679e-005, 6.25398679e-005,
          6.25398679e-005, 6.25398679e-005, 6.25398679e-005,
          6.25398679e-005, 6.25398679e-005, 6.25398679e-005,
          6.25398679e-005, 6.25398679e-005, 6.25398679e-005,
          6.25398679e-005, 6.25398679e-005, 6.25398679e-005,
          6.25398679e-005, 6.25398679e-005, 6.25398679e-005,
          6.25398679e-005, 6.25398679e-005, 6.25398679e-005,
          6.25398679e-005, 6.25398679e-005, 6.25398679e-005,
          6.25398679e-005, 6.25398679e-005, 6.25398679e-005,
          6.25398679e-005, 6.25398679e-005, 6.25398679e-005,
          6.25398679e-005, 6.25398679e-005, 6.25398679e-005,
          6.25398679e-005, 6.25398679e-005, 6.25398679e-005,
          6.25398679e-005, 6.25398679e-005, 6.25398679e-005,
          6.25398679e-005, 6.25398679e-005, 7.50478430e-005,
          6.25398679e-005, 6.25398679e-005, 6.25398679e-005,
          6.25398679e-005, 8.75558180e-005, 6.25398679e-005,
          6.25398679e-005, 6.25398679e-005, 6.25398679e-005,
          6.25398679e-005, 6.25398679e-005, 6.25398679e-005,
          6.25398679e-005, 1.25079736e-004, 6.25398679e-005,
          2.25143536e-004, 6.25398679e-005, 6.25398679e-005,
          6.25398679e-005, 6.25398679e-005, 6.25398679e-005,
          6.25398679e-005, 6.25398679e-005, 6.25398679e-005,
          6.25398679e-005, 6.25398679e-005, 6.25398679e-005,
          6.25398679e-005, 6.25398679e-005, 6.25398679e-005,
          6.25398679e-005, 6.25398679e-005, 6.25398679e-005,
          6.25398679e-005, 6.25398679e-005, 6.25398679e-005,
          6.25398679e-005, 6.25398679e-005, 8.75558180e-005,
          6.25398679e-005, 7.50478430e-005, 6.25398679e-005,
          6.25398679e-005, 6.25398679e-005, 6.25398679e-005,
          6.25398679e-005, 6.25398679e-005, 6.25398679e-005,
          6.25398679e-005, 6.25398679e-005, 6.25398679e-005,
          6.25398679e-005, 6.25398679e-005, 6.25398679e-005,
          6.25398679e-005, 6.25398679e-005, 6.25398679e-005,
          6.25398679e-005, 6.25398679e-005, 6.25398679e-005,
          6.25398679e-005, 6.25398679e-005, 6.25398679e-005,
          6.25398679e-005, 6.25398679e-005, 6.25398679e-005,
          6.25398679e-005, 6.25398679e-005, 6.25398679e-005,
          6.25398679e-005, 6.25398679e-005, 6.25398679e-005,
          6.25398679e-005, 6.25398679e-005, 6.25398679e-005,
          6.25398679e-005, 6.25398679e-005, 6.25398679e-005,
          6.25398679e-005, 6.25398679e-005, 6.25398679e-005,
          6.25398679e-005, 6.25398679e-005, 6.25398679e-005,
          6.25398679e-005, 6.25398679e-005, 6.25398679e-005,
          6.25398679e-005, 6.25398679e-005, 6.25398679e-005,
          6.25398679e-005, 6.25398679e-005, 6.25398679e-005,
          6.25398679e-005, 6.25398679e-005, 6.25398679e-005,
          6.25398679e-005, 6.25398679e-005, 6.25398679e-005,
          6.25398679e-005, 6.25398679e-005, 6.25398679e-005,
          6.25398679e-005, 6.25398679e-005, 6.25398679e-005,
          6.25398679e-005, 6.25398679e-005, 6.25398679e-005,
          6.25398679e-005, 6.25398679e-005, 6.25398679e-005,
          6.25398679e-005, 6.25398679e-005, 6.25398679e-005,
          6.25398679e-005, 6.25398679e-005, 6.25398679e-005,
          6.25398679e-005, 6.25398679e-005, 6.25398679e-005,
          6.25398679e-005, 6.25398679e-005, 6.25398679e-005,
          6.25398679e-005, 6.25398679e-005, 6.25398679e-005,
          6.25398679e-005, 6.25398679e-005, 5.00318965e-005,
          6.25398679e-005, 6.25398679e-005, 6.25398679e-005,
          6.25398679e-005, 6.25398679e-005, 6.25398679e-005,
          6.25398679e-005, 6.25398679e-005, 6.25398679e-005,
          6.25398679e-005, 6.25398679e-005, 6.25398679e-005,
          6.25398679e-005, 6.25398679e-005, 6.25398679e-005,
          6.25398679e-005, 6.25398679e-005, 6.25398679e-005,
          6.25398679e-005, 6.25398679e-005, 7.50478430e-005,
          6.25398679e-005, 6.25398679e-005, 6.25398679e-005,
          1.37587718e-004, 6.25398679e-005, 6.25398679e-005,
          1.00063793e-004, 1.75111636e-004, 6.25398679e-005,
          6.25398679e-005, 6.25398679e-005, 6.25398679e-005,
          6.25398679e-005, 6.25398679e-005, 6.25398679e-005,
          6.25398679e-005, 6.25398679e-005, 6.25398679e-005,
          6.25398679e-005, 6.25398679e-005, 6.25398679e-005,
          1.12571768e-004, 6.25398679e-005, 6.25398679e-005,
          1.00063793e-004, 6.25398679e-005, 6.25398679e-005,
          6.25398679e-005, 6.25398679e-005, 6.25398679e-005,
          1.00063793e-004, 6.25398679e-005, 6.25398679e-005,
          6.25398679e-005, 6.25398679e-005, 6.25398679e-005,
          6.25398679e-005, 6.25398679e-005, 6.25398679e-005,
          6.25398679e-005, 6.25398679e-005, 6.25398679e-005,
          6.25398679e-005, 6.25398679e-005, 6.25398679e-005,
          6.25398679e-005, 6.25398679e-005, 6.25398679e-005,
          6.25398679e-005, 6.25398679e-005, 6.25398679e-005,
          6.25398679e-005, 6.25398679e-005, 6.25398679e-005,
          6.25398679e-005, 6.25398679e-005, 6.25398679e-005,
          6.25398679e-005, 6.25398679e-005, 6.25398679e-005,
          6.25398679e-005, 6.25398679e-005, 6.25398679e-005,
          6.25398679e-005, 6.25398679e-005, 6.25398679e-005,
          6.25398679e-005, 6.25398679e-005, 6.25398679e-005,
          6.25398679e-005, 6.25398679e-005, 6.25398679e-005,
          6.25398679e-005, 6.25398679e-005, 6.25398679e-005,
          6.25398679e-005, 6.25398679e-005, 6.25398679e-005,
          6.25398679e-005, 6.25398679e-005, 6.25398679e-005,
          6.25398679e-005, 6.25398679e-005, 6.25398679e-005,
          6.25398679e-005, 6.25398679e-005, 6.25398679e-005,
          6.25398679e-005, 6.25398679e-005, 6.25398679e-005,
          6.25398679e-005, 6.25398679e-005, 6.25398679e-005,
          6.25398679e-005, 6.25398679e-005, 6.25398679e-005,
          6.25398679e-005, 6.25398679e-005, 6.25398679e-005,
          6.25398679e-005, 6.25398679e-005, 6.25398679e-005,
          6.25398679e-005, 6.25398679e-005, 6.25398679e-005,
          6.25398679e-005, 6.25398679e-005, 6.25398679e-005,
          6.25398679e-005, 6.25398679e-005, 6.25398679e-005,
          6.25398679e-005, 6.25398679e-005, 6.25398679e-005,
          6.25398679e-005, 6.25398679e-005, 6.25398679e-005,
          6.25398679e-005, 6.25398679e-005, 6.25398679e-005,
          6.25398679e-005, 6.25398679e-005, 6.25398679e-005,
          6.25398679e-005, 6.25398679e-005, 6.25398679e-005,
          6.25398679e-005, 6.25398679e-005, 6.25398679e-005,
          6.25398679e-005, 6.25398679e-005, 6.25398679e-005,
          6.25398679e-005, 6.25398679e-005, 6.25398679e-005,
          6.25398679e-005, 6.25398679e-005, 6.25398679e-005,
          6.25398679e-005, 6.25398679e-005, 6.25398679e-005,
          6.25398679e-005, 6.25398679e-005, 6.25398679e-005,
          6.25398679e-005, 1.12571768e-004, 6.25398679e-005,
          6.25398679e-005, 6.25398679e-005, 6.25398679e-005,
          6.25398679e-005, 6.25398679e-005, 6.25398679e-005,
          6.25398679e-005, 6.25398679e-005, 6.25398679e-005,
          6.25398679e-005, 2.50159472e-004, 6.25398679e-005,
          6.25398679e-005, 6.25398679e-005, 6.25398679e-005,
          6.25398679e-005, 1.12571768e-004, 6.25398679e-005,
          6.25398679e-005, 6.25398679e-005, 1.87619618e-004,
          7.50478430e-005, 6.25398679e-005, 6.25398679e-005,
          6.25398679e-005, 6.25398679e-005, 6.25398679e-005,
          5.00318965e-005, 6.25398679e-005, 6.25398679e-005,
          6.25398679e-005, 6.25398679e-005, 6.25398679e-005,
          6.25398679e-005, 1.62603668e-004, 6.25398679e-005,
          6.25398679e-005, 6.25398679e-005, 6.25398679e-005,
          6.25398679e-005, 6.25398679e-005, 1.50095686e-004,
          6.25398679e-005, 6.25398679e-005, 6.25398679e-005,
          6.25398679e-005, 6.25398679e-005, 6.25398679e-005,
          6.25398679e-005, 6.25398679e-005, 6.25398679e-005,
          6.25398679e-005, 6.25398679e-005, 6.25398679e-005,
          6.25398679e-005, 6.25398679e-005, 6.25398679e-005,
          6.25398679e-005, 6.25398679e-005, 6.25398679e-005,
          6.25398679e-005, 6.25398679e-005, 6.25398679e-005,
          6.25398679e-005, 6.25398679e-005, 6.25398679e-005,
          6.25398679e-005, 6.25398679e-005, 6.25398679e-005,
          6.25398679e-005, 6.25398679e-005, 6.25398679e-005,
          6.25398679e-005, 6.25398679e-005, 6.25398679e-005,
          6.25398679e-005, 6.25398679e-005, 6.25398679e-005,
          6.25398679e-005, 6.25398679e-005, 6.25398679e-005,
          6.25398679e-005, 6.25398679e-005, 6.25398679e-005,
          6.25398679e-005, 6.25398679e-005, 6.25398679e-005,
          6.25398679e-005, 6.25398679e-005, 6.25398679e-005,
          6.25398679e-005, 6.25398679e-005, 6.25398679e-005,
          6.25398679e-005, 6.25398679e-005, 6.25398679e-005,
          6.25398679e-005, 6.25398679e-005, 6.25398679e-005,
          6.25398679e-005, 6.25398679e-005, 6.25398679e-005,
          6.25398679e-005, 6.25398679e-005, 6.25398679e-005,
          6.25398679e-005, 6.25398679e-005, 6.25398679e-005,
          6.25398679e-005, 6.25398679e-005, 6.25398679e-005,
          6.25398679e-005, 6.25398679e-005, 6.25398679e-005,
          6.25398679e-005, 6.25398679e-005, 6.25398679e-005,
          6.25398679e-005, 6.25398679e-005, 6.25398679e-005,
          6.25398679e-005, 6.25398679e-005, 6.25398679e-005,
          6.25398679e-005, 6.25398679e-005, 6.25398679e-005,
          6.25398679e-005, 6.25398679e-005, 6.25398679e-005,
          6.25398679e-005, 6.25398679e-005, 6.25398679e-005,
          6.25398679e-005, 6.25398679e-005, 6.25398679e-005,
          6.25398679e-005, 6.25398679e-005, 6.25398679e-005,
          6.25398679e-005, 6.25398679e-005, 6.25398679e-005,
          6.25398679e-005, 6.25398679e-005, 6.25398679e-005,
          6.25398679e-005, 6.25398679e-005, 6.25398679e-005,
          6.25398679e-005, 6.25398679e-005, 6.25398679e-005,
          6.25398679e-005, 6.25398679e-005, 6.25398679e-005,
          6.25398679e-005, 6.25398679e-005, 6.25398679e-005,
          6.25398679e-005, 6.25398679e-005, 6.25398679e-005,
          6.25398679e-005, 6.25398679e-005, 6.25398679e-005,
          6.25398679e-005, 6.25398679e-005, 2.00127586e-004,
          6.25398679e-005, 6.25398679e-005, 6.25398679e-005,
          1.37587718e-004, 6.25398679e-005, 6.25398679e-005,
          6.25398679e-005, 6.25398679e-005, 6.25398679e-005,
          6.25398679e-005, 1.75111636e-004, 6.25398679e-005,
          6.25398679e-005, 6.25398679e-005, 6.25398679e-005,
          6.25398679e-005, 1.00063793e-004, 6.25398679e-005,
          6.25398679e-005, 5.00318965e-005, 6.25398679e-005,
          1.12571768e-004, 1.00063793e-004, 6.25398679e-005,
          6.25398679e-005, 6.25398679e-005, 6.25398679e-005,
          6.25398679e-005, 6.25398679e-005, 6.25398679e-005,
          6.25398679e-005, 6.25398679e-005, 6.25398679e-005,
          6.25398679e-005, 6.25398679e-005, 6.25398679e-005,
          6.25398679e-005, 6.25398679e-005, 6.25398679e-005,
          6.25398679e-005, 6.25398679e-005, 6.25398679e-005,
          6.25398679e-005, 6.25398679e-005, 6.25398679e-005,
          6.25398679e-005, 6.25398679e-005, 6.25398679e-005,
          6.25398679e-005, 6.25398679e-005, 6.25398679e-005,
          6.25398679e-005, 6.25398679e-005, 6.25398679e-005,
          6.25398679e-005, 6.25398679e-005, 6.25398679e-005,
          6.25398679e-005, 6.25398679e-005, 6.25398679e-005,
          6.25398679e-005, 6.25398679e-005, 6.25398679e-005,
          6.25398679e-005, 6.25398679e-005, 6.25398679e-005,
          6.25398679e-005, 6.25398679e-005, 6.25398679e-005,
          6.25398679e-005, 6.25398679e-005, 6.25398679e-005,
          6.25398679e-005, 6.25398679e-005, 6.25398679e-005,
          6.25398679e-005, 6.25398679e-005, 6.25398679e-005,
          6.25398679e-005, 6.25398679e-005, 6.25398679e-005,
          6.25398679e-005, 6.25398679e-005, 6.25398679e-005,
          6.25398679e-005, 6.25398679e-005, 6.25398679e-005,
          6.25398679e-005, 6.25398679e-005, 6.25398679e-005,
          6.25398679e-005, 6.25398679e-005, 6.25398679e-005,
          6.25398679e-005, 6.25398679e-005, 6.25398679e-005,
          6.25398679e-005, 6.25398679e-005, 6.25398679e-005,
          6.25398679e-005, 6.25398679e-005, 6.25398679e-005,
          6.25398679e-005, 6.25398679e-005, 6.25398679e-005,
          6.25398679e-005, 6.25398679e-005, 6.25398679e-005,
          6.25398679e-005, 6.25398679e-005, 6.25398679e-005,
          6.25398679e-005, 6.25398679e-005, 6.25398679e-005,
          6.25398679e-005, 6.25398679e-005, 6.25398679e-005,
          1.37587718e-004, 6.25398679e-005, 6.25398679e-005,
          6.25398679e-005, 6.25398679e-005, 6.25398679e-005,
          6.25398679e-005, 1.12571768e-004, 6.25398679e-005,
          6.25398679e-005, 6.25398679e-005, 6.25398679e-005,
          6.25398679e-005, 6.25398679e-005, 6.25398679e-005,
          6.25398679e-005, 6.25398679e-005, 6.25398679e-005,
          6.25398679e-005, 6.25398679e-005, 6.25398679e-005,
          6.25398679e-005, 6.25398679e-005, 7.50478430e-005,
          6.25398679e-005, 6.25398679e-005, 6.25398679e-005,
          6.25398679e-005, 6.25398679e-005, 6.25398679e-005,
          6.25398679e-005, 7.50478430e-005, 6.25398679e-005,
          1.37587718e-004, 6.25398679e-005, 3.00191372e-004,
          6.25398679e-005, 6.25398679e-005, 6.25398679e-005,
          7.50478430e-005, 8.75558180e-005, 1.12571768e-004,
          6.25398679e-005, 6.25398679e-005, 6.25398679e-005,
          6.25398679e-005, 6.25398679e-005, 5.00318965e-005,
          6.25398679e-005, 6.25398679e-005, 5.00318965e-005,
          7.50478430e-005, 6.25398679e-005, 6.25398679e-005,
          6.25398679e-005, 6.25398679e-005, 6.25398679e-005,
          6.25398679e-005, 6.25398679e-005, 6.25398679e-005,
          6.25398679e-005, 6.25398679e-005, 6.25398679e-005,
          6.25398679e-005, 1.50095686e-004, 6.25398679e-005,
          6.25398679e-005, 6.25398679e-005, 6.25398679e-005,
          6.25398679e-005, 6.25398679e-005, 6.25398679e-005,
          6.25398679e-005, 6.25398679e-005, 6.25398679e-005,
          6.25398679e-005, 6.25398679e-005, 6.25398679e-005,
          6.25398679e-005, 6.25398679e-005, 6.25398679e-005,
          6.25398679e-005, 6.25398679e-005, 6.25398679e-005,
          6.25398679e-005, 6.25398679e-005, 6.25398679e-005,
          6.25398679e-005, 6.25398679e-005, 6.25398679e-005,
          6.25398679e-005, 6.25398679e-005, 6.25398679e-005,
          6.25398679e-005, 6.25398679e-005, 6.25398679e-005,
          6.25398679e-005, 6.25398679e-005, 6.25398679e-005,
          6.25398679e-005, 6.25398679e-005, 6.25398679e-005,
          6.25398679e-005, 6.25398679e-005, 6.25398679e-005,
          6.25398679e-005, 6.25398679e-005, 6.25398679e-005,
          6.25398679e-005, 6.25398679e-005, 6.25398679e-005,
          6.25398679e-005, 6.25398679e-005, 6.25398679e-005,
          6.25398679e-005, 6.25398679e-005, 6.25398679e-005,
          6.25398679e-005, 6.25398679e-005, 6.25398679e-005,
          6.25398679e-005, 6.25398679e-005, 6.25398679e-005,
          6.25398679e-005, 6.25398679e-005, 6.25398679e-005,
          6.25398679e-005, 6.25398679e-005, 6.25398679e-005,
          6.25398679e-005, 6.25398679e-005, 6.25398679e-005,
          6.25398679e-005, 6.25398679e-005, 6.25398679e-005,
          6.25398679e-005, 6.25398679e-005, 6.25398679e-005,
          6.25398679e-005, 6.25398679e-005, 6.25398679e-005,
          6.25398679e-005, 6.25398679e-005, 6.25398679e-005,
          6.25398679e-005, 6.25398679e-005, 6.25398679e-005,
          6.25398679e-005, 6.25398679e-005, 6.25398679e-005,
          6.25398679e-005, 6.25398679e-005, 6.25398679e-005,
          6.25398679e-005, 6.25398679e-005, 6.25398679e-005,
          6.25398679e-005, 6.25398679e-005, 6.25398679e-005,
          6.25398679e-005, 6.25398679e-005, 6.25398679e-005,
          6.25398679e-005, 7.50478430e-005, 6.25398679e-005,
          6.25398679e-005, 6.25398679e-005, 6.25398679e-005,
          6.25398679e-005, 6.25398679e-005, 6.25398679e-005,
          6.25398679e-005, 6.25398679e-005, 1.37587718e-004,
          6.25398679e-005, 6.25398679e-005, 1.00063793e-004,
          7.50478430e-005, 6.25398679e-005, 6.25398679e-005,
          6.25398679e-005, 6.25398679e-005, 6.25398679e-005,
          6.25398679e-005, 6.25398679e-005, 6.25398679e-005,
          1.00063793e-004, 6.25398679e-005, 6.25398679e-005,
          6.25398679e-005, 6.25398679e-005, 6.25398679e-005,
          7.50478430e-005, 6.25398679e-005, 6.25398679e-005,
          8.75558180e-005, 1.50095686e-004, 6.25398679e-005,
          2.25143536e-004, 6.25398679e-005, 1.12571768e-004,
          1.00063793e-004, 6.25398679e-005, 1.00063793e-004,
          6.25398679e-005, 6.25398679e-005, 6.25398679e-005,
          6.25398679e-005, 6.25398679e-005, 6.25398679e-005,
          8.75558180e-005, 6.25398679e-005, 6.25398679e-005,
          6.25398679e-005, 6.25398679e-005, 6.25398679e-005,
          6.25398679e-005, 6.25398679e-005, 6.25398679e-005,
          6.25398679e-005, 6.25398679e-005, 6.25398679e-005,
          6.25398679e-005, 6.25398679e-005, 6.25398679e-005,
          6.25398679e-005, 6.25398679e-005, 6.25398679e-005,
          6.25398679e-005, 6.25398679e-005, 6.25398679e-005,
          6.25398679e-005, 6.25398679e-005, 6.25398679e-005,
          6.25398679e-005, 6.25398679e-005, 6.25398679e-005,
          6.25398679e-005, 6.25398679e-005, 6.25398679e-005,
          6.25398679e-005, 6.25398679e-005, 6.25398679e-005,
          6.25398679e-005, 6.25398679e-005, 6.25398679e-005,
          6.25398679e-005, 6.25398679e-005, 6.25398679e-005,
          6.25398679e-005, 6.25398679e-005, 6.25398679e-005,
          6.25398679e-005, 6.25398679e-005, 6.25398679e-005,
          6.25398679e-005, 6.25398679e-005, 6.25398679e-005,
          6.25398679e-005, 6.25398679e-005, 6.25398679e-005,
          6.25398679e-005, 6.25398679e-005, 6.25398679e-005,
          6.25398679e-005, 6.25398679e-005, 6.25398679e-005,
          6.25398679e-005, 6.25398679e-005, 6.25398679e-005,
          6.25398679e-005, 6.25398679e-005, 6.25398679e-005,
          6.25398679e-005, 6.25398679e-005, 6.25398679e-005,
          6.25398679e-005, 6.25398679e-005, 6.25398679e-005,
          6.25398679e-005, 6.25398679e-005, 6.25398679e-005,
          6.25398679e-005, 6.25398679e-005, 6.25398679e-005,
          6.25398679e-005, 6.25398679e-005, 6.25398679e-005,
          6.25398679e-005, 6.25398679e-005, 6.25398679e-005,
          6.25398679e-005, 6.25398679e-005, 6.25398679e-005,
          6.25398679e-005, 6.25398679e-005, 6.25398679e-005,
          6.25398679e-005, 6.25398679e-005, 6.25398679e-005,
          6.25398679e-005, 6.25398679e-005, 1.37587718e-004,
          6.25398679e-005, 6.25398679e-005, 6.25398679e-005,
          6.25398679e-005, 6.25398679e-005, 1.00063793e-004,
          6.25398679e-005, 6.25398679e-005, 8.75558180e-005,
          6.25398679e-005, 6.25398679e-005, 6.25398679e-005,
          6.25398679e-005, 6.25398679e-005, 7.50478430e-005,
          6.25398679e-005, 6.25398679e-005, 6.25398679e-005,
          6.25398679e-005, 6.25398679e-005, 6.25398679e-005,
          6.25398679e-005, 6.25398679e-005, 6.25398679e-005,
          6.25398679e-005, 6.25398679e-005, 6.25398679e-005,
          6.25398679e-005, 6.25398679e-005, 6.25398679e-005,
          6.25398679e-005, 6.25398679e-005, 1.00063793e-004,
          8.75558180e-005, 6.25398679e-005, 6.25398679e-005,
          1.00063793e-004, 6.25398679e-005, 6.25398679e-005,
          6.25398679e-005, 6.25398679e-005, 6.25398679e-005,
          6.25398679e-005, 6.25398679e-005, 6.25398679e-005,
          6.25398679e-005, 6.25398679e-005, 1.25079741e-005,
          6.25398679e-005, 2.25143536e-004, 6.25398679e-005,
          6.25398679e-005, 8.75558180e-005, 6.25398679e-005,
          6.25398679e-005, 6.25398679e-005, 6.25398679e-005,
          6.25398679e-005, 6.25398679e-005, 6.25398679e-005,
          6.25398679e-005, 6.25398679e-005, 6.25398679e-005,
          6.25398679e-005, 6.25398679e-005, 6.25398679e-005,
          6.25398679e-005, 6.25398679e-005, 6.25398679e-005,
          6.25398679e-005, 6.25398679e-005, 6.25398679e-005,
          6.25398679e-005, 6.25398679e-005, 6.25398679e-005,
          6.25398679e-005, 6.25398679e-005, 6.25398679e-005,
          6.25398679e-005, 6.25398679e-005, 6.25398679e-005,
          6.25398679e-005, 6.25398679e-005, 6.25398679e-005,
          6.25398679e-005, 6.25398679e-005, 6.25398679e-005,
          6.25398679e-005, 6.25398679e-005, 6.25398679e-005,
          6.25398679e-005, 6.25398679e-005, 6.25398679e-005,
          6.25398679e-005, 6.25398679e-005, 6.25398679e-005,
          6.25398679e-005, 6.25398679e-005, 6.25398679e-005,
          6.25398679e-005, 6.25398679e-005, 6.25398679e-005,
          6.25398679e-005, 6.25398679e-005, 6.25398679e-005,
          6.25398679e-005, 6.25398679e-005, 6.25398679e-005,
          6.25398679e-005, 6.25398679e-005, 6.25398679e-005,
          6.25398679e-005, 6.25398679e-005, 6.25398679e-005,
          6.25398679e-005, 6.25398679e-005, 6.25398679e-005,
          6.25398679e-005, 6.25398679e-005, 6.25398679e-005,
          6.25398679e-005, 6.25398679e-005, 6.25398679e-005,
          6.25398679e-005, 6.25398679e-005, 6.25398679e-005,
          6.25398679e-005, 6.25398679e-005, 6.25398679e-005,
          6.25398679e-005, 6.25398679e-005, 6.25398679e-005,
          6.25398679e-005, 6.25398679e-005, 6.25398679e-005,
          6.25398679e-005, 6.25398679e-005, 6.25398679e-005,
          6.25398679e-005, 6.25398679e-005, 6.25398679e-005,
          6.25398679e-005, 6.25398679e-005, 6.25398679e-005,
          6.25398679e-005, 6.25398679e-005, 6.25398679e-005,
          6.25398679e-005, 6.25398679e-005, 6.25398679e-005,
          6.25398679e-005, 6.25398679e-005, 6.25398679e-005,
          6.25398679e-005, 6.25398679e-005, 6.25398679e-005,
          1.25079736e-004, 6.25398679e-005, 6.25398679e-005,
          6.25398679e-005, 6.25398679e-005, 6.25398679e-005,
          6.25398679e-005, 6.25398679e-005, 6.25398679e-005,
          6.25398679e-005, 6.25398679e-005, 6.25398679e-005,
          6.25398679e-005, 2.75175436e-004, 6.25398679e-005,
          1.37587718e-004, 6.25398679e-005, 6.25398679e-005,
          6.25398679e-005, 6.25398679e-005, 6.25398679e-005,
          6.25398679e-005, 6.25398679e-005, 6.25398679e-005,
          6.25398679e-005, 6.25398679e-005, 6.25398679e-005,
          6.25398679e-005, 6.25398679e-005, 6.25398679e-005,
          6.25398679e-005, 6.25398679e-005, 6.25398679e-005,
          7.50478430e-005, 6.25398679e-005, 6.25398679e-005,
          6.25398679e-005, 6.25398679e-005, 1.37587718e-004,
          6.25398679e-005, 6.25398679e-005, 8.75558180e-005,
          6.25398679e-005, 6.25398679e-005, 6.25398679e-005,
          1.25079736e-004, 6.25398679e-005, 6.25398679e-005,
          6.25398679e-005, 1.12571768e-004, 6.25398679e-005,
          6.25398679e-005, 6.25398679e-005, 6.25398679e-005,
          1.25079736e-004, 6.25398679e-005, 6.25398679e-005,
          6.25398679e-005, 6.25398679e-005, 6.25398679e-005,
          6.25398679e-005, 6.25398679e-005, 6.25398679e-005,
          6.25398679e-005, 6.25398679e-005, 6.25398679e-005,
          6.25398679e-005, 6.25398679e-005, 6.25398679e-005,
          6.25398679e-005, 6.25398679e-005, 6.25398679e-005,
          6.25398679e-005, 6.25398679e-005, 6.25398679e-005,
          6.25398679e-005, 6.25398679e-005, 6.25398679e-005,
          6.25398679e-005, 6.25398679e-005, 6.25398679e-005,
          6.25398679e-005, 6.25398679e-005, 6.25398679e-005,
          6.25398679e-005, 6.25398679e-005, 6.25398679e-005,
          6.25398679e-005, 6.25398679e-005, 6.25398679e-005,
          6.25398679e-005, 6.25398679e-005, 6.25398679e-005,
          6.25398679e-005, 6.25398679e-005, 6.25398679e-005,
          6.25398679e-005, 6.25398679e-005, 6.25398679e-005,
          6.25398679e-005, 6.25398679e-005, 6.25398679e-005,
          6.25398679e-005, 6.25398679e-005, 6.25398679e-005,
          6.25398679e-005, 6.25398679e-005, 6.25398679e-005,
          6.25398679e-005, 6.25398679e-005, 6.25398679e-005,
          6.25398679e-005, 6.25398679e-005, 6.25398679e-005,
          6.25398679e-005, 6.25398679e-005, 6.25398679e-005,
          6.25398679e-005, 6.25398679e-005, 6.25398679e-005,
          6.25398679e-005, 6.25398679e-005, 6.25398679e-005,
          6.25398679e-005, 6.25398679e-005, 6.25398679e-005,
          6.25398679e-005, 6.25398679e-005, 6.25398679e-005,
          6.25398679e-005, 6.25398679e-005, 6.25398679e-005,
          6.25398679e-005, 6.25398679e-005, 6.25398679e-005,
          6.25398679e-005, 6.25398679e-005, 6.25398679e-005,
          6.25398679e-005, 6.25398679e-005, 6.25398679e-005,
          6.25398679e-005, 6.25398679e-005, 6.25398679e-005,
          6.25398679e-005, 1.00063793e-004, 6.25398679e-005,
          6.25398679e-005, 6.25398679e-005, 6.25398679e-005,
          6.25398679e-005, 8.75558180e-005, 6.25398679e-005,
          6.25398679e-005, 6.25398679e-005, 6.25398679e-005,
          6.25398679e-005, 6.25398679e-005, 6.25398679e-005,
          6.25398679e-005, 6.25398679e-005, 6.25398679e-005,
          6.25398679e-005, 6.25398679e-005, 6.25398679e-005,
          6.25398679e-005, 6.25398679e-005, 6.25398679e-005,
          2.00127586e-004, 7.50478430e-005, 6.25398679e-005,
          6.25398679e-005, 6.25398679e-005, 8.75558180e-005,
          6.25398679e-005, 6.25398679e-005, 6.25398679e-005,
          6.25398679e-005, 2.12635554e-004, 6.25398679e-005,
          6.25398679e-005, 6.25398679e-005, 6.25398679e-005,
          6.25398679e-005, 6.25398679e-005, 6.25398679e-005,
          6.25398679e-005, 6.25398679e-005, 6.25398679e-005,
          8.75558180e-005, 6.25398679e-005, 6.25398679e-005,
          6.25398679e-005, 6.25398679e-005, 6.25398679e-005,
          6.25398679e-005, 6.25398679e-005, 6.25398679e-005,
          6.25398679e-005, 6.25398679e-005, 6.25398679e-005,
          6.25398679e-005, 6.25398679e-005, 6.25398679e-005,
          6.25398679e-005, 6.25398679e-005, 6.25398679e-005,
          6.25398679e-005, 6.25398679e-005, 6.25398679e-005,
          6.25398679e-005, 6.25398679e-005, 6.25398679e-005,
          6.25398679e-005, 6.25398679e-005, 6.25398679e-005,
          6.25398679e-005, 6.25398679e-005, 6.25398679e-005,
          6.25398679e-005, 6.25398679e-005, 6.25398679e-005,
          6.25398679e-005, 6.25398679e-005, 6.25398679e-005,
          6.25398679e-005, 6.25398679e-005, 6.25398679e-005,
          6.25398679e-005, 6.25398679e-005, 6.25398679e-005,
          6.25398679e-005, 6.25398679e-005, 6.25398679e-005,
          6.25398679e-005, 6.25398679e-005, 6.25398679e-005,
          6.25398679e-005, 6.25398679e-005, 6.25398679e-005,
          6.25398679e-005, 6.25398679e-005, 6.25398679e-005,
          6.25398679e-005, 6.25398679e-005, 6.25398679e-005,
          6.25398679e-005, 6.25398679e-005, 6.25398679e-005,
          6.25398679e-005, 6.25398679e-005, 6.25398679e-005,
          6.25398679e-005, 6.25398679e-005, 6.25398679e-005,
          6.25398679e-005, 6.25398679e-005, 6.25398679e-005,
          6.25398679e-005, 6.25398679e-005, 6.25398679e-005,
          6.25398679e-005, 6.25398679e-005, 6.25398679e-005,
          6.25398679e-005, 6.25398679e-005, 6.25398679e-005,
          6.25398679e-005, 6.25398679e-005, 6.25398679e-005,
          6.25398679e-005, 6.25398679e-005, 6.25398679e-005,
          6.25398679e-005, 6.25398679e-005, 6.25398679e-005,
          6.25398679e-005, 6.25398679e-005, 6.25398679e-005,
          6.25398679e-005, 6.25398679e-005, 6.25398679e-005,
          6.25398679e-005, 6.25398679e-005, 6.25398679e-005,
          6.25398679e-005, 8.75558180e-005, 1.50095686e-004,
          6.25398679e-005, 6.25398679e-005, 6.25398679e-005,
          6.25398679e-005, 6.25398679e-005, 6.25398679e-005,
          6.25398679e-005, 2.75175436e-004, 6.25398679e-005,
          6.25398679e-005, 6.25398679e-005, 6.25398679e-005,
          6.25398679e-005, 2.50159483e-005, 6.25398679e-005,
          6.25398679e-005, 6.25398679e-005, 6.25398679e-005,
          6.25398679e-005, 6.25398679e-005, 6.25398679e-005,
          6.25398679e-005, 6.25398679e-005, 6.25398679e-005,
          6.25398679e-005, 6.25398679e-005, 6.25398679e-005,
          6.25398679e-005, 6.25398679e-005, 6.25398679e-005,
          6.25398679e-005, 6.25398679e-005, 6.25398679e-005,
          6.25398679e-005, 6.25398679e-005, 4.00255172e-004,
          6.25398679e-005, 6.25398679e-005, 6.25398679e-005,
          6.25398679e-005, 6.25398679e-005, 6.25398679e-005,
          6.25398679e-005, 7.50478430e-005, 6.25398679e-005,
          6.25398679e-005, 1.12571768e-004, 6.25398679e-005,
          6.25398679e-005, 6.25398679e-005, 6.25398679e-005,
          6.25398679e-005, 6.25398679e-005, 6.25398679e-005,
          6.25398679e-005, 6.25398679e-005, 6.25398679e-005,
          6.25398679e-005, 7.50478430e-005, 6.25398679e-005,
          6.25398679e-005, 6.25398679e-005, 6.25398679e-005,
          6.25398679e-005, 1.50095686e-004, 6.25398679e-005,
          6.25398679e-005, 5.00318965e-005, 6.25398679e-005,
          8.75558180e-005, 6.25398679e-005, 6.25398679e-005,
          6.25398679e-005, 6.25398679e-005, 6.25398679e-005,
          6.25398679e-005, 6.25398679e-005, 6.25398679e-005,
          6.25398679e-005, 6.25398679e-005, 6.25398679e-005,
          6.25398679e-005, 6.25398679e-005, 6.25398679e-005,
          6.25398679e-005, 6.25398679e-005, 6.25398679e-005,
          6.25398679e-005, 6.25398679e-005, 6.25398679e-005,
          6.25398679e-005, 6.25398679e-005, 6.25398679e-005,
          6.25398679e-005, 6.25398679e-005, 6.25398679e-005,
          6.25398679e-005, 6.25398679e-005, 6.25398679e-005,
          6.25398679e-005, 6.25398679e-005, 6.25398679e-005,
          6.25398679e-005, 6.25398679e-005, 6.25398679e-005,
          6.25398679e-005, 6.25398679e-005, 6.25398679e-005,
          6.25398679e-005, 6.25398679e-005, 6.25398679e-005,
          6.25398679e-005, 6.25398679e-005, 6.25398679e-005,
          6.25398679e-005, 6.25398679e-005, 6.25398679e-005,
          6.25398679e-005, 6.25398679e-005, 6.25398679e-005,
          6.25398679e-005, 6.25398679e-005, 6.25398679e-005,
          6.25398679e-005, 6.25398679e-005, 6.25398679e-005,
          6.25398679e-005, 6.25398679e-005, 6.25398679e-005,
          6.25398679e-005, 6.25398679e-005, 6.25398679e-005,
          6.25398679e-005, 6.25398679e-005, 6.25398679e-005,
          6.25398679e-005, 6.25398679e-005, 6.25398679e-005,
          6.25398679e-005, 6.25398679e-005, 6.25398679e-005,
          6.25398679e-005, 6.25398679e-005, 6.25398679e-005,
          6.25398679e-005, 6.25398679e-005, 6.25398679e-005,
          6.25398679e-005, 6.25398679e-005, 6.25398679e-005,
          6.25398679e-005, 1.12571768e-004, 6.25398679e-005,
          6.25398679e-005, 6.25398679e-005, 6.25398679e-005,
          6.25398679e-005, 6.25398679e-005, 6.25398679e-005,
          6.25398679e-005, 6.25398679e-005, 2.00127586e-004,
          8.75558180e-005, 6.25398679e-005, 6.25398679e-005,
          6.25398679e-005, 6.25398679e-005, 3.50223272e-004,
          6.25398679e-005, 2.00127586e-004, 6.25398679e-005,
          1.87619618e-004, 1.62603668e-004, 6.25398679e-005,
          6.25398679e-005, 6.25398679e-005, 6.25398679e-005,
          7.50478430e-005, 6.25398679e-005, 6.25398679e-005,
          5.12826955e-004, 2.12635554e-004, 6.25398679e-005,
          6.25398679e-005, 6.25398679e-005, 6.25398679e-005,
          6.25398679e-005, 6.25398679e-005, 5.00318965e-005,
          6.25398679e-005, 6.25398679e-005, 6.25398679e-005,
          1.50095686e-004, 6.25398679e-005, 6.25398679e-005,
          7.50478430e-005, 6.25398679e-005, 6.25398679e-005,
          6.25398679e-005, 6.25398679e-005, 6.25398679e-005,
          6.25398679e-005, 6.25398679e-005, 6.25398679e-005,
          6.25398679e-005, 6.25398679e-005, 6.25398679e-005,
          6.25398679e-005, 6.25398679e-005, 1.12571768e-004,
          6.25398679e-005, 6.25398679e-005, 6.25398679e-005,
          6.25398679e-005, 6.25398679e-005, 6.25398679e-005,
          6.25398679e-005, 6.25398679e-005, 6.25398679e-005,
          6.25398679e-005, 6.25398679e-005, 6.25398679e-005,
          6.25398679e-005, 7.50478430e-005, 6.25398679e-005,
          6.25398679e-005, 6.25398679e-005, 6.25398679e-005,
          6.25398679e-005, 6.25398679e-005, 6.25398679e-005,
          6.25398679e-005, 6.25398679e-005, 6.25398679e-005,
          6.25398679e-005, 6.25398679e-005, 6.25398679e-005,
          6.25398679e-005, 6.25398679e-005, 6.25398679e-005,
          6.25398679e-005, 6.25398679e-005, 6.25398679e-005,
          6.25398679e-005, 6.25398679e-005, 6.25398679e-005,
          6.25398679e-005, 6.25398679e-005, 6.25398679e-005,
          6.25398679e-005, 6.25398679e-005, 6.25398679e-005,
          6.25398679e-005, 6.25398679e-005, 6.25398679e-005,
          6.25398679e-005, 6.25398679e-005, 6.25398679e-005,
          6.25398679e-005, 6.25398679e-005, 6.25398679e-005,
          6.25398679e-005, 6.25398679e-005, 6.25398679e-005,
          6.25398679e-005, 6.25398679e-005, 6.25398679e-005,
          6.25398679e-005, 6.25398679e-005, 6.25398679e-005,
          6.25398679e-005, 6.25398679e-005, 6.25398679e-005,
          6.25398679e-005, 6.25398679e-005, 6.25398679e-005,
          6.25398679e-005, 6.25398679e-005, 6.25398679e-005,
          6.25398679e-005, 6.25398679e-005, 6.25398679e-005,
          6.25398679e-005, 6.25398679e-005, 6.25398679e-005,
          6.25398679e-005, 6.25398679e-005, 6.25398679e-005,
          6.25398679e-005, 6.25398679e-005, 6.25398679e-005,
          6.25398679e-005, 6.25398679e-005, 6.25398679e-005,
          6.25398679e-005, 6.25398679e-005, 6.25398679e-005,
          6.25398679e-005, 6.25398679e-005, 6.25398679e-005,
          6.25398679e-005, 6.25398679e-005, 6.25398679e-005,
          6.25398679e-005, 6.25398679e-005, 6.25398679e-005,
          6.25398679e-005, 6.25398679e-005, 6.25398679e-005,
          6.25398679e-005, 6.25398679e-005, 6.25398679e-005,
          6.25398679e-005, 6.25398679e-005, 6.25398679e-005,
          6.25398679e-005, 6.25398679e-005, 6.25398679e-005,
          6.25398679e-005, 6.25398679e-005, 6.25398679e-005,
          6.25398679e-005, 6.25398679e-005, 5.75366837e-004,
          6.25398679e-005, 1.75111636e-004, 6.25398679e-005,
          6.25398679e-005, 6.25398679e-005, 6.25398679e-005,
          6.25398679e-005, 1.00063793e-004, 6.25398679e-005,
          3.12699354e-004, 6.25398679e-005, 6.25398679e-005,
          6.25398679e-005, 1.50095686e-004, 6.25398679e-005,
          4.00255172e-004, 6.25398679e-005, 6.25398679e-005,
          6.25398679e-005, 6.25398679e-005, 6.25398679e-005,
          8.75558180e-005, 6.25398679e-005, 7.50478430e-005,
          6.25398679e-005, 6.25398679e-005, 6.25398679e-005,
          6.25398679e-005, 1.62603668e-004, 6.25398679e-005,
          6.25398679e-005, 6.25398679e-005, 6.25398679e-005,
          6.25398679e-005, 6.25398679e-005, 6.25398679e-005,
          1.00063793e-004, 6.25398679e-005, 6.25398679e-005,
          8.75558180e-005, 6.25398679e-005, 6.25398679e-005,
          6.25398679e-005, 6.25398679e-005, 6.25398679e-005,
          6.25398679e-005, 6.25398679e-005, 6.25398679e-005,
          6.25398679e-005, 6.25398679e-005, 6.25398679e-005,
          6.25398679e-005, 6.25398679e-005, 6.25398679e-005,
          6.25398679e-005, 6.25398679e-005, 6.25398679e-005,
          6.25398679e-005, 6.25398679e-005, 6.25398679e-005,
          6.25398679e-005, 6.25398679e-005, 6.25398679e-005,
          6.25398679e-005, 6.25398679e-005, 6.25398679e-005,
          6.25398679e-005, 6.25398679e-005, 6.25398679e-005,
          6.25398679e-005, 6.25398679e-005, 6.25398679e-005,
          6.25398679e-005, 6.25398679e-005, 6.25398679e-005,
          6.25398679e-005, 6.25398679e-005, 6.25398679e-005,
          6.25398679e-005, 6.25398679e-005, 6.25398679e-005,
          6.25398679e-005, 6.25398679e-005, 6.25398679e-005,
          6.25398679e-005, 6.25398679e-005, 6.25398679e-005,
          6.25398679e-005, 6.25398679e-005, 6.25398679e-005,
          6.25398679e-005, 6.25398679e-005, 6.25398679e-005,
          6.25398679e-005, 6.25398679e-005, 6.25398679e-005,
          6.25398679e-005, 6.25398679e-005, 6.25398679e-005,
          6.25398679e-005, 6.25398679e-005, 6.25398679e-005,
          6.25398679e-005, 6.25398679e-005, 6.25398679e-005,
          6.25398679e-005, 6.25398679e-005, 6.25398679e-005,
          6.25398679e-005, 6.25398679e-005, 6.25398679e-005,
          6.25398679e-005, 6.25398679e-005, 6.25398679e-005,
          6.25398679e-005, 6.25398679e-005, 6.25398679e-005,
          6.25398679e-005, 6.25398679e-005, 6.25398679e-005,
          6.25398679e-005, 6.25398679e-005, 6.25398679e-005,
          6.25398679e-005, 6.25398679e-005, 6.25398679e-005,
          6.25398679e-005, 6.25398679e-005, 6.25398679e-005,
          6.25398679e-005, 1.25079736e-004, 6.25398679e-005,
          6.25398679e-005, 6.25398679e-005, 1.37587718e-004,
          6.25398679e-005, 1.00063793e-004, 6.25398679e-005,
          6.25398679e-005, 6.25398679e-005, 6.25398679e-005,
          6.25398679e-005, 2.75175436e-004, 6.25398679e-005,
          6.25398679e-005, 6.25398679e-005, 6.25398679e-005,
          6.25398679e-005, 6.25398679e-005, 6.25398679e-005,
          6.25398679e-005, 6.25398679e-005, 6.25398679e-005,
          6.25398679e-005, 6.25398679e-005, 6.25398679e-005,
          2.25143536e-004, 1.25079736e-004, 6.25398679e-005,
          6.25398679e-005, 6.25398679e-005, 6.25398679e-005,
          6.25398679e-005, 5.00318965e-005, 6.25398679e-005,
          6.25398679e-005, 6.25398679e-005, 6.25398679e-005,
          6.25398679e-005, 6.25398679e-005, 6.25398679e-005,
          2.75175436e-004, 6.25398679e-005, 6.25398679e-005,
          6.25398679e-005, 6.25398679e-005, 6.25398679e-005,
          6.25398679e-005, 6.25398679e-005, 6.25398679e-005,
          6.25398679e-005, 6.25398679e-005, 1.50095686e-004,
          8.75558180e-005, 6.25398679e-005, 1.00063793e-004,
          6.25398679e-005, 6.25398679e-005, 6.25398679e-005,
          6.25398679e-005, 6.25398679e-005, 6.25398679e-005,
          6.25398679e-005, 6.25398679e-005, 6.25398679e-005,
          6.25398679e-005, 6.25398679e-005, 6.25398679e-005,
          6.25398679e-005, 6.25398679e-005, 6.25398679e-005,
          6.25398679e-005, 7.50478430e-005, 6.25398679e-005,
          6.25398679e-005, 6.25398679e-005, 6.25398679e-005,
          6.25398679e-005, 6.25398679e-005, 6.25398679e-005,
          6.25398679e-005, 6.25398679e-005, 6.25398679e-005,
          6.25398679e-005, 6.25398679e-005, 6.25398679e-005,
          6.25398679e-005, 6.25398679e-005, 6.25398679e-005,
          6.25398679e-005, 6.25398679e-005, 6.25398679e-005,
          6.25398679e-005, 6.25398679e-005, 6.25398679e-005,
          6.25398679e-005, 6.25398679e-005, 6.25398679e-005,
          6.25398679e-005, 6.25398679e-005, 6.25398679e-005,
          6.25398679e-005, 6.25398679e-005, 6.25398679e-005,
          6.25398679e-005, 6.25398679e-005, 6.25398679e-005,
          6.25398679e-005, 6.25398679e-005, 6.25398679e-005,
          6.25398679e-005, 6.25398679e-005, 6.25398679e-005,
          6.25398679e-005, 6.25398679e-005, 6.25398679e-005,
          6.25398679e-005, 6.25398679e-005, 6.25398679e-005,
          6.25398679e-005, 6.25398679e-005, 6.25398679e-005,
          6.25398679e-005, 6.25398679e-005, 6.25398679e-005,
          6.25398679e-005, 6.25398679e-005, 6.25398679e-005,
          6.25398679e-005, 6.25398679e-005, 6.25398679e-005,
          6.25398679e-005, 6.25398679e-005, 6.25398679e-005,
          6.25398679e-005, 6.25398679e-005, 6.25398679e-005,
          6.25398679e-005, 6.25398679e-005, 6.25398679e-005,
          6.25398679e-005, 6.25398679e-005, 6.25398679e-005,
          6.25398679e-005, 6.25398679e-005, 6.25398679e-005,
          6.25398679e-005, 6.25398679e-005, 6.25398679e-005,
          6.25398679e-005, 6.25398679e-005, 6.25398679e-005,
          6.25398679e-005, 6.25398679e-005, 6.25398679e-005,
          6.25398679e-005, 6.25398679e-005, 6.25398679e-005,
          6.25398679e-005, 6.25398679e-005, 6.25398679e-005,
          7.50478430e-005, 6.25398679e-005, 6.25398679e-005,
          6.25398679e-005, 6.25398679e-005, 6.25398679e-005,
          6.25398679e-005, 6.25398679e-005, 6.25398679e-005,
          6.25398679e-005, 6.25398679e-005, 6.25398679e-005,
          6.25398679e-005, 1.62603668e-004, 3.12699354e-004,
          6.25398679e-005, 6.25398679e-005, 6.25398679e-005,
          6.25398679e-005, 6.25398679e-005, 6.25398679e-005,
          6.25398679e-005, 6.25398679e-005, 7.50478430e-005,
          6.25398679e-005, 6.25398679e-005, 6.25398679e-005,
          6.25398679e-005, 6.25398679e-005, 3.75239215e-005,
          6.25398679e-005, 6.25398679e-005, 1.00063793e-004,
          6.25398679e-005, 6.25398679e-005, 6.25398679e-005,
          6.25398679e-005, 6.25398679e-005, 6.25398679e-005,
          6.25398679e-005, 6.25398679e-005, 6.25398679e-005,
          1.62603668e-004, 6.25398679e-005, 6.25398679e-005,
          6.25398679e-005, 6.25398679e-005, 6.25398679e-005,
          6.25398679e-005, 1.12571768e-004, 6.25398679e-005,
          6.25398679e-005, 6.25398679e-005, 6.25398679e-005,
          6.25398679e-005, 8.75558180e-005, 1.00063793e-004,
          6.25398679e-005, 6.25398679e-005, 6.25398679e-005,
          6.25398679e-005, 6.25398679e-005, 6.25398679e-005,
          6.25398679e-005, 6.25398679e-005, 6.25398679e-005,
          7.50478430e-005, 6.25398679e-005, 6.25398679e-005,
          6.25398679e-005, 6.25398679e-005, 6.25398679e-005,
          6.25398679e-005, 6.25398679e-005, 6.25398679e-005,
          6.25398679e-005, 6.25398679e-005, 6.25398679e-005,
          6.25398679e-005, 6.25398679e-005, 6.25398679e-005,
          6.25398679e-005, 6.25398679e-005, 6.25398679e-005,
          6.25398679e-005, 6.25398679e-005, 6.25398679e-005,
          6.25398679e-005, 6.25398679e-005, 6.25398679e-005,
          6.25398679e-005, 6.25398679e-005, 6.25398679e-005,
          6.25398679e-005, 6.25398679e-005, 6.25398679e-005,
          6.25398679e-005, 6.25398679e-005, 6.25398679e-005,
          6.25398679e-005, 6.25398679e-005, 6.25398679e-005,
          6.25398679e-005, 6.25398679e-005, 6.25398679e-005,
          6.25398679e-005, 6.25398679e-005, 6.25398679e-005,
          6.25398679e-005, 6.25398679e-005, 6.25398679e-005,
          6.25398679e-005, 6.25398679e-005, 6.25398679e-005,
          6.25398679e-005, 6.25398679e-005, 6.25398679e-005,
          6.25398679e-005, 6.25398679e-005, 6.25398679e-005,
          6.25398679e-005, 6.25398679e-005, 6.25398679e-005,
          6.25398679e-005, 6.25398679e-005, 6.25398679e-005,
          6.25398679e-005, 6.25398679e-005, 6.25398679e-005,
          6.25398679e-005, 6.25398679e-005, 6.25398679e-005,
          6.25398679e-005, 6.25398679e-005, 6.25398679e-005,
          6.25398679e-005, 6.25398679e-005, 6.25398679e-005,
          1.00063793e-004, 1.00063793e-004, 6.25398679e-005,
          6.25398679e-005, 6.25398679e-005, 6.25398679e-005,
          6.25398679e-005, 6.25398679e-005, 6.25398679e-005,
          6.25398679e-005, 6.25398679e-005, 6.25398679e-005,
          1.12571768e-004, 6.25398679e-005, 6.25398679e-005,
          7.50478430e-005, 6.25398679e-005, 6.25398679e-005,
          6.25398679e-005, 6.25398679e-005, 6.25398679e-005,
          6.25398679e-005, 1.00063793e-004, 6.25398679e-005,
          6.25398679e-005, 1.25079736e-004, 6.25398679e-005,
          5.37842861e-004, 6.25398679e-005, 2.75175436e-004,
          6.25398679e-005, 1.75111636e-004, 2.75175436e-004,
          6.25398679e-005, 6.25398679e-005, 6.25398679e-005,
          8.75558180e-005, 6.25398679e-005, 6.25398679e-005,
          6.25398679e-005, 7.50478430e-005, 6.25398679e-005,
          6.25398679e-005, 6.25398679e-005, 6.25398679e-005,
          1.62603668e-004, 6.25398679e-005, 3.87747190e-004,
          6.25398679e-005, 6.25398679e-005, 6.25398679e-005,
          6.25398679e-005, 6.25398679e-005, 2.75175436e-004,
          6.25398679e-005, 6.25398679e-005, 6.25398679e-005,
          6.25398679e-005, 5.00318965e-005, 6.25398679e-005,
          6.25398679e-005, 6.25398679e-005, 6.25398679e-005,
          6.25398679e-005, 6.25398679e-005, 1.37587718e-004,
          7.50478430e-005, 6.25398679e-005, 7.50478430e-005,
          6.25398679e-005, 6.25398679e-005, 6.25398679e-005,
          6.25398679e-005, 6.25398679e-005, 6.25398679e-005,
          6.25398679e-005, 6.25398679e-005, 6.25398679e-005,
          6.25398679e-005, 6.25398679e-005, 6.25398679e-005,
          6.25398679e-005, 6.25398679e-005, 6.25398679e-005,
          6.25398679e-005, 6.25398679e-005, 6.25398679e-005,
          6.25398679e-005, 6.25398679e-005, 6.25398679e-005,
          6.25398679e-005, 6.25398679e-005, 6.25398679e-005,
          6.25398679e-005, 6.25398679e-005, 6.25398679e-005,
          6.25398679e-005, 6.25398679e-005, 6.25398679e-005,
          6.25398679e-005, 6.25398679e-005, 6.25398679e-005,
          6.25398679e-005, 6.25398679e-005, 6.25398679e-005,
          6.25398679e-005, 6.25398679e-005, 6.25398679e-005,
          6.25398679e-005, 6.25398679e-005, 6.25398679e-005,
          6.25398679e-005, 6.25398679e-005, 6.25398679e-005,
          6.25398679e-005, 6.25398679e-005, 6.25398679e-005,
          6.25398679e-005, 6.25398679e-005, 6.25398679e-005,
          6.25398679e-005, 6.25398679e-005, 6.25398679e-005,
          6.25398679e-005, 6.25398679e-005, 6.25398679e-005,
          6.25398679e-005, 6.25398679e-005, 6.25398679e-005,
          6.25398679e-005, 6.25398679e-005, 6.25398679e-005,
          6.25398679e-005, 6.25398679e-005, 6.25398679e-005,
          6.25398679e-005, 6.25398679e-005, 6.25398679e-005,
          6.25398679e-005, 6.25398679e-005, 6.25398679e-005,
          6.25398679e-005, 6.25398679e-005, 6.25398679e-005,
          6.25398679e-005, 6.25398679e-005, 6.25398679e-005,
          6.25398679e-005, 6.25398679e-005, 6.25398679e-005,
          6.25398679e-005, 6.25398679e-005, 2.00127586e-004,
          6.25398679e-005, 6.25398679e-005, 6.25398679e-005,
          6.25398679e-005, 6.25398679e-005, 6.25398679e-005,
          6.25398679e-005, 6.25398679e-005, 6.25398679e-005,
          6.25398679e-005, 6.25398679e-005, 6.25398679e-005,
          6.25398679e-005, 6.25398679e-005, 6.25398679e-005,
          7.50478430e-005, 6.25398679e-005, 6.25398679e-005,
          6.25398679e-005, 1.12571768e-004, 6.25398679e-005,
          1.50095686e-004, 6.25398679e-005, 6.25398679e-005,
          6.25398679e-005, 6.25398679e-005, 6.25398679e-005,
          4.00255172e-004, 6.25398679e-005, 3.75239237e-004,
          6.25398679e-005, 6.25398679e-005, 6.25398679e-005,
          6.25398679e-005, 6.25398679e-005, 6.25398679e-005,
          6.25398679e-005, 6.25398679e-005, 6.25398679e-005,
          6.25398679e-005, 6.25398679e-005, 6.25398679e-005,
          6.25398679e-005, 6.25398679e-005, 6.25398679e-005,
          6.25398679e-005, 6.25398679e-005, 6.25398679e-005,
          6.25398679e-005, 6.25398679e-005, 6.25398679e-005,
          6.25398679e-005, 6.25398679e-005, 6.25398679e-005,
          6.25398679e-005, 6.25398679e-005, 6.25398679e-005,
          6.25398679e-005, 6.25398679e-005, 1.50095686e-004,
          6.25398679e-005, 6.25398679e-005, 6.25398679e-005,
          6.25398679e-005, 6.25398679e-005, 6.25398679e-005,
          6.25398679e-005, 6.25398679e-005, 6.25398679e-005,
          6.25398679e-005, 6.25398679e-005, 6.25398679e-005,
          6.25398679e-005, 6.25398679e-005, 6.25398679e-005,
          6.25398679e-005, 6.25398679e-005, 6.25398679e-005,
          6.25398679e-005, 6.25398679e-005, 6.25398679e-005,
          6.25398679e-005, 6.25398679e-005, 6.25398679e-005,
          6.25398679e-005, 6.25398679e-005, 6.25398679e-005,
          6.25398679e-005, 6.25398679e-005, 6.25398679e-005,
          6.25398679e-005, 6.25398679e-005, 6.25398679e-005,
          6.25398679e-005, 6.25398679e-005, 6.25398679e-005,
          6.25398679e-005, 6.25398679e-005, 6.25398679e-005,
          6.25398679e-005, 6.25398679e-005, 6.25398679e-005,
          6.25398679e-005, 6.25398679e-005, 6.25398679e-005,
          6.25398679e-005, 6.25398679e-005, 6.25398679e-005,
          6.25398679e-005, 6.25398679e-005, 6.25398679e-005,
          6.25398679e-005, 6.25398679e-005, 6.25398679e-005,
          6.25398679e-005, 6.25398679e-005, 6.25398679e-005,
          6.25398679e-005, 6.25398679e-005, 6.25398679e-005,
          6.25398679e-005, 6.25398679e-005, 6.25398679e-005,
          6.25398679e-005, 6.25398679e-005, 6.25398679e-005,
          6.25398679e-005, 6.25398679e-005, 6.25398679e-005,
          6.25398679e-005, 6.25398679e-005, 6.25398679e-005,
          6.25398679e-005, 6.25398679e-005, 6.25398679e-005,
          6.25398679e-005, 6.25398679e-005, 6.25398679e-005,
          6.25398679e-005, 6.25398679e-005, 6.25398679e-005,
          6.25398679e-005, 6.25398679e-005, 6.25398679e-005,
          6.25398679e-005, 6.25398679e-005, 6.25398679e-005,
          6.25398679e-005, 6.25398679e-005, 6.25398679e-005,
          6.25398679e-005, 1.12571768e-004, 6.25398679e-005,
          6.25398679e-005, 6.25398679e-005, 6.25398679e-005,
          6.25398679e-005, 5.12826955e-004, 6.25398679e-005,
          6.25398679e-005, 4.50287072e-004, 6.25398679e-005,
          6.25398679e-005, 6.25398679e-005, 1.00063793e-004,
          6.25398679e-005, 6.25398679e-005, 6.25398679e-005,
          6.25398679e-005, 1.62603668e-004, 6.25398679e-005,
          6.25398679e-005, 6.25398679e-005, 1.62603668e-004,
          6.25398679e-005, 6.25398679e-005, 6.25398679e-005,
          6.25398679e-005, 6.25398679e-005, 6.25398679e-005,
          7.50478430e-005, 6.25398679e-005, 6.25398679e-005,
          6.25398679e-005, 6.25398679e-005, 6.25398679e-005,
          6.25398679e-005, 1.37587718e-004, 6.25398679e-005,
          6.25398679e-005, 6.25398679e-005, 6.25398679e-005,
          1.00063793e-004, 6.25398679e-005, 1.12571768e-004,
          6.25398679e-005, 6.25398679e-005, 6.25398679e-005,
          6.25398679e-005, 6.25398679e-005, 6.25398679e-005,
          6.25398679e-005, 6.25398679e-005, 6.25398679e-005,
          2.62667454e-004, 1.50095686e-004, 6.25398679e-005,
          1.25079736e-004, 6.25398679e-005, 6.25398679e-005,
          6.25398679e-005, 6.25398679e-005, 6.25398679e-005,
          7.50478430e-005, 6.25398679e-005, 6.25398679e-005,
          6.25398679e-005, 6.25398679e-005, 6.25398679e-005,
          6.25398679e-005, 6.25398679e-005, 6.25398679e-005,
          6.25398679e-005, 6.25398679e-005, 6.25398679e-005,
          6.25398679e-005, 6.25398679e-005, 6.25398679e-005,
          6.25398679e-005, 6.25398679e-005, 6.25398679e-005,
          6.25398679e-005, 6.25398679e-005, 6.25398679e-005,
          6.25398679e-005, 6.25398679e-005, 6.25398679e-005,
          6.25398679e-005, 6.25398679e-005, 6.25398679e-005,
          6.25398679e-005, 6.25398679e-005, 6.25398679e-005,
          6.25398679e-005, 6.25398679e-005, 6.25398679e-005,
          6.25398679e-005, 6.25398679e-005, 6.25398679e-005,
          6.25398679e-005, 6.25398679e-005, 6.25398679e-005,
          6.25398679e-005, 6.25398679e-005, 6.25398679e-005,
          6.25398679e-005, 6.25398679e-005, 6.25398679e-005,
          6.25398679e-005, 6.25398679e-005, 6.25398679e-005,
          6.25398679e-005, 6.25398679e-005, 6.25398679e-005,
          6.25398679e-005, 6.25398679e-005, 6.25398679e-005,
          6.25398679e-005, 6.25398679e-005, 6.25398679e-005,
          6.25398679e-005, 6.25398679e-005, 6.25398679e-005,
          6.25398679e-005, 6.25398679e-005, 6.25398679e-005,
          6.25398679e-005, 6.25398679e-005, 6.25398679e-005,
          6.25398679e-005, 6.25398679e-005, 6.25398679e-005,
          6.25398679e-005, 6.25398679e-005, 6.25398679e-005,
          6.25398679e-005, 6.25398679e-005, 6.25398679e-005,
          6.25398679e-005, 6.25398679e-005, 6.25398679e-005,
          6.25398679e-005, 6.25398679e-005, 6.25398679e-005,
          6.25398679e-005, 6.25398679e-005, 6.25398679e-005,
          1.75111636e-004, 6.25398679e-005, 6.25398679e-005,
          6.25398679e-005, 6.25398679e-005, 1.00063793e-004,
          6.25398679e-005, 6.25398679e-005, 6.25398679e-005,
          6.25398679e-005, 1.50095686e-004, 6.25398679e-005,
          6.25398679e-005, 6.25398679e-005, 6.25398679e-005,
          6.25398679e-005, 6.25398679e-005, 6.25398679e-005,
          6.25398679e-005, 3.50223272e-004, 6.25398679e-005,
          6.25398679e-005, 1.00063793e-004, 2.37651504e-004,
          6.25398679e-005, 6.25398679e-005, 6.25398679e-005,
          6.25398679e-005, 7.50478430e-005, 6.25398679e-005,
          6.25398679e-005, 2.75175436e-004, 6.25398679e-005,
          6.25398679e-005, 6.25398679e-005, 6.25398679e-005,
          2.25143536e-004, 6.25398679e-005, 6.25398679e-005,
          6.25398679e-005, 6.25398679e-005, 6.25398679e-005,
          7.50478430e-005, 6.25398679e-005, 8.75558180e-005,
          6.25398679e-005, 2.00127586e-004, 6.25398679e-005,
          6.25398679e-005, 6.25398679e-005, 7.50478430e-005,
          6.25398679e-005, 6.25398679e-005, 6.25398679e-005,
          6.25398679e-005, 6.25398679e-005, 6.25398679e-005,
          6.25398679e-005, 6.25398679e-005, 6.25398679e-005,
          8.75558180e-005, 6.25398679e-005, 2.50159472e-004,
          6.25398679e-005, 2.25143536e-004, 6.25398679e-005,
          6.25398679e-005, 6.25398679e-005, 6.25398679e-005,
          6.25398679e-005, 6.25398679e-005, 6.25398679e-005,
          6.25398679e-005, 6.25398679e-005, 6.25398679e-005,
          6.25398679e-005, 6.25398679e-005, 6.25398679e-005,
          6.25398679e-005, 6.25398679e-005, 6.25398679e-005,
          6.25398679e-005, 6.25398679e-005, 6.25398679e-005,
          6.25398679e-005, 6.25398679e-005, 6.25398679e-005,
          6.25398679e-005, 6.25398679e-005, 6.25398679e-005,
          6.25398679e-005, 6.25398679e-005, 6.25398679e-005,
          6.25398679e-005, 6.25398679e-005, 6.25398679e-005,
          6.25398679e-005, 6.25398679e-005, 6.25398679e-005,
          6.25398679e-005, 6.25398679e-005, 6.25398679e-005,
          6.25398679e-005, 6.25398679e-005, 6.25398679e-005,
          6.25398679e-005, 6.25398679e-005, 6.25398679e-005,
          6.25398679e-005, 6.25398679e-005, 6.25398679e-005,
          6.25398679e-005, 6.25398679e-005, 6.25398679e-005,
          6.25398679e-005, 6.25398679e-005, 6.25398679e-005,
          6.25398679e-005, 6.25398679e-005, 6.25398679e-005,
          6.25398679e-005, 6.25398679e-005, 6.25398679e-005,
          6.25398679e-005, 6.25398679e-005, 6.25398679e-005,
          6.25398679e-005, 6.25398679e-005, 6.25398679e-005,
          6.25398679e-005, 6.25398679e-005, 6.25398679e-005,
          6.25398679e-005, 6.25398679e-005, 6.25398679e-005,
          6.25398679e-005, 6.25398679e-005, 6.25398679e-005,
          6.25398679e-005, 6.25398679e-005, 6.25398679e-005,
          6.25398679e-005, 6.25398679e-005, 6.25398679e-005,
          6.25398679e-005, 6.25398679e-005, 6.25398679e-005,
          2.37651504e-004, 6.25398679e-005, 6.25398679e-005,
          6.25398679e-005, 6.25398679e-005, 6.25398679e-005,
          6.25398679e-005, 6.25398679e-005, 2.75175436e-004,
          6.25398679e-005, 6.25398679e-005, 6.25398679e-005,
          6.25398679e-005, 6.25398679e-005, 6.25398679e-005,
          6.25398679e-005, 1.25079736e-004, 6.25398679e-005,
          6.25398679e-005, 2.37651504e-004, 1.00063793e-004,
          1.50095686e-004, 2.62667454e-004, 6.25398679e-005,
          6.25398679e-005, 6.25398679e-005, 6.25398679e-005,
          1.00063793e-004, 6.25398679e-005, 6.25398679e-005,
          6.25398679e-005, 6.25398679e-005, 6.25398679e-005,
          7.50478430e-005, 6.25398679e-005, 6.25398679e-005,
          1.50095686e-004, 6.25398679e-005, 6.25398679e-005,
          6.25398679e-005, 6.25398679e-005, 6.25398679e-005,
          6.25398679e-005, 6.25398679e-005, 6.25398679e-005,
          6.25398679e-005, 6.25398679e-005, 6.25398679e-005,
          6.25398679e-005, 6.25398679e-005, 6.25398679e-005,
          6.25398679e-005, 6.25398679e-005, 1.37587718e-004,
          7.50478430e-005, 6.25398679e-005, 6.25398679e-005,
          8.75558180e-005, 6.25398679e-005, 6.25398679e-005,
          1.12571768e-004, 6.25398679e-005, 7.50478430e-005,
          6.25398679e-005, 6.25398679e-005, 6.25398679e-005,
          6.25398679e-005, 6.25398679e-005, 6.25398679e-005,
          6.25398679e-005, 6.25398679e-005, 6.25398679e-005,
          6.25398679e-005, 6.25398679e-005, 6.25398679e-005,
          1.00063793e-004, 6.25398679e-005, 6.25398679e-005,
          6.25398679e-005, 6.25398679e-005, 6.25398679e-005,
          6.25398679e-005, 6.25398679e-005, 6.25398679e-005,
          6.25398679e-005, 6.25398679e-005, 6.25398679e-005,
          6.25398679e-005, 6.25398679e-005, 6.25398679e-005,
          6.25398679e-005, 6.25398679e-005, 6.25398679e-005,
          6.25398679e-005, 6.25398679e-005, 6.25398679e-005,
          6.25398679e-005, 6.25398679e-005, 6.25398679e-005,
          6.25398679e-005, 6.25398679e-005, 6.25398679e-005,
          6.25398679e-005, 6.25398679e-005, 6.25398679e-005,
          6.25398679e-005, 6.25398679e-005, 6.25398679e-005,
          6.25398679e-005, 6.25398679e-005, 6.25398679e-005,
          6.25398679e-005, 6.25398679e-005, 6.25398679e-005,
          6.25398679e-005, 6.25398679e-005, 6.25398679e-005,
          6.25398679e-005, 6.25398679e-005, 6.25398679e-005,
          6.25398679e-005, 6.25398679e-005, 6.25398679e-005,
          6.25398679e-005, 6.25398679e-005, 6.25398679e-005,
          6.25398679e-005, 6.25398679e-005, 6.25398679e-005,
          6.25398679e-005, 6.25398679e-005, 6.25398679e-005,
          6.25398679e-005, 6.25398679e-005, 6.25398679e-005,
          6.25398679e-005, 6.25398679e-005, 6.25398679e-005,
          6.25398679e-005, 6.25398679e-005, 6.25398679e-005,
          6.25398679e-005, 6.25398679e-005, 6.25398679e-005,
          6.25398679e-005, 6.25398679e-005, 6.25398679e-005,
          6.25398679e-005, 6.25398679e-005, 6.25398679e-005,
          6.25398679e-005, 6.25398679e-005, 6.25398679e-005,
          6.25398679e-005, 6.25398679e-005, 6.25398679e-005,
          6.25398679e-005, 6.25398679e-005, 6.25398679e-005,
          6.25398679e-005, 6.25398679e-005, 6.25398679e-005,
          6.25398679e-005, 6.25398679e-005, 6.25398679e-005,
          6.25398679e-005, 6.25398679e-005, 6.25398679e-005,
          6.25398679e-005, 6.25398679e-005, 6.25398679e-005,
          6.25398679e-005, 6.25398679e-005, 6.25398679e-005,
          6.25398679e-005, 6.25398679e-005, 6.25398679e-005,
          6.25398679e-005, 6.25398679e-005, 7.50478430e-005,
          6.25398679e-005, 8.75558180e-005, 6.25398679e-005,
          6.25398679e-005, 6.25398679e-005, 6.25398679e-005,
          6.25398679e-005, 6.25398679e-005, 6.25398679e-005,
          6.25398679e-005, 6.25398679e-005, 5.00318965e-005,
          6.25398679e-005, 6.25398679e-005, 6.25398679e-005,
          6.25398679e-005, 6.25398679e-005, 1.87619618e-004,
          6.25398679e-005, 6.25398679e-005, 6.25398679e-005,
          6.25398679e-005, 6.25398679e-005, 6.25398679e-005,
          6.25398679e-005, 6.25398679e-005, 6.25398679e-005,
          2.12635554e-004, 8.75558180e-005, 6.25398679e-005,
          6.25398679e-005, 6.25398679e-005, 6.25398679e-005,
          6.25398679e-005, 6.25398679e-005, 7.50478430e-005,
          6.25398679e-005, 6.25398679e-005, 6.25398679e-005,
          6.25398679e-005, 6.25398679e-005, 6.25398679e-005,
          6.25398679e-005, 6.25398679e-005, 6.25398679e-005,
          6.25398679e-005, 6.25398679e-005, 6.25398679e-005,
          6.25398679e-005, 6.25398679e-005, 7.50478430e-005,
          6.25398679e-005, 6.25398679e-005, 6.25398679e-005,
          6.25398679e-005, 6.25398679e-005, 6.25398679e-005,
          6.25398679e-005, 6.25398679e-005, 6.25398679e-005,
          6.25398679e-005, 6.25398679e-005, 6.25398679e-005,
          6.25398679e-005, 6.25398679e-005, 6.25398679e-005,
          6.25398679e-005, 6.25398679e-005, 6.25398679e-005,
          6.25398679e-005, 6.25398679e-005, 6.25398679e-005,
          6.25398679e-005, 6.25398679e-005, 6.25398679e-005,
          6.25398679e-005, 6.25398679e-005, 6.25398679e-005,
          6.25398679e-005, 6.25398679e-005, 6.25398679e-005,
          6.25398679e-005, 6.25398679e-005, 6.25398679e-005,
          6.25398679e-005, 6.25398679e-005, 6.25398679e-005,
          6.25398679e-005, 6.25398679e-005, 6.25398679e-005,
          6.25398679e-005, 6.25398679e-005, 6.25398679e-005,
          6.25398679e-005, 6.25398679e-005, 6.25398679e-005,
          6.25398679e-005, 6.25398679e-005, 6.25398679e-005,
          6.25398679e-005, 6.25398679e-005, 6.25398679e-005,
          6.25398679e-005, 6.25398679e-005, 6.25398679e-005,
          6.25398679e-005, 6.25398679e-005, 6.25398679e-005,
          6.25398679e-005, 6.25398679e-005, 6.25398679e-005,
          6.25398679e-005, 6.25398679e-005, 6.25398679e-005,
          6.25398679e-005, 6.25398679e-005, 6.25398679e-005,
          6.25398679e-005, 6.25398679e-005, 6.25398679e-005,
          6.25398679e-005, 6.25398679e-005, 6.25398679e-005,
          6.25398679e-005, 6.25398679e-005, 2.12635554e-004,
          6.25398679e-005, 6.25398679e-005, 2.12635554e-004,
          6.25398679e-005, 6.25398679e-005, 6.25398679e-005,
          6.25398679e-005, 7.50478430e-005, 6.25398679e-005,
          3.12699354e-004, 6.25398679e-005, 6.25398679e-005,
          6.25398679e-005, 6.25398679e-005, 6.25398679e-005,
          6.25398679e-005, 7.50478430e-005, 6.25398679e-005,
          6.25398679e-005, 6.25398679e-005, 6.25398679e-005,
          7.50478430e-005, 6.25398679e-005, 6.25398679e-005,
          6.25398679e-005, 6.25398679e-005, 6.25398679e-005,
          6.25398679e-005, 6.25398679e-005, 6.25398679e-005,
          6.25398679e-005, 6.25398679e-005, 6.25398679e-005,
          6.25398679e-005, 6.25398679e-005, 6.25398679e-005,
          6.25398679e-005, 6.25398679e-005, 6.25398679e-005,
          6.25398679e-005, 1.25079736e-004, 6.25398679e-005,
          6.25398679e-005, 6.25398679e-005, 6.25398679e-005,
          6.25398679e-005, 2.25143536e-004, 6.25398679e-005,
          6.25398679e-005, 6.25398679e-005, 6.25398679e-005,
          1.37587718e-004, 6.25398679e-005, 6.25398679e-005,
          1.87619618e-004, 6.25398679e-005, 6.25398679e-005,
          6.25398679e-005, 6.25398679e-005, 6.25398679e-005,
          6.25398679e-005, 6.25398679e-005, 6.25398679e-005,
          8.75558180e-005, 6.25398679e-005, 6.25398679e-005,
          6.25398679e-005, 6.25398679e-005, 6.25398679e-005,
          6.25398679e-005, 6.25398679e-005, 6.25398679e-005,
          6.25398679e-005, 6.25398679e-005, 6.25398679e-005,
          6.25398679e-005, 6.25398679e-005, 6.25398679e-005,
          6.25398679e-005, 6.25398679e-005, 6.25398679e-005,
          6.25398679e-005, 6.25398679e-005, 6.25398679e-005,
          6.25398679e-005, 6.25398679e-005, 6.25398679e-005,
          6.25398679e-005, 6.25398679e-005, 6.25398679e-005,
          6.25398679e-005, 6.25398679e-005, 6.25398679e-005,
          6.25398679e-005, 6.25398679e-005, 6.25398679e-005,
          6.25398679e-005, 6.25398679e-005, 6.25398679e-005,
          6.25398679e-005, 6.25398679e-005, 6.25398679e-005,
          6.25398679e-005, 6.25398679e-005, 6.25398679e-005,
          6.25398679e-005, 6.25398679e-005, 6.25398679e-005,
          6.25398679e-005, 6.25398679e-005, 6.25398679e-005,
          6.25398679e-005, 6.25398679e-005, 6.25398679e-005,
          6.25398679e-005, 6.25398679e-005, 6.25398679e-005,
          6.25398679e-005, 6.25398679e-005, 6.25398679e-005,
          6.25398679e-005, 6.25398679e-005, 6.25398679e-005,
          6.25398679e-005, 6.25398679e-005, 6.25398679e-005,
          6.25398679e-005, 6.25398679e-005, 6.25398679e-005,
          6.25398679e-005, 6.25398679e-005, 6.25398679e-005,
          6.25398679e-005, 6.25398679e-005, 6.25398679e-005,
          6.25398679e-005, 6.25398679e-005, 6.25398679e-005,
          6.25398679e-005, 6.25398679e-005, 6.25398679e-005,
          8.75558180e-005, 6.25398679e-005, 6.25398679e-005,
          6.25398679e-005, 6.25398679e-005, 7.50478430e-005,
          6.25398679e-005, 6.25398679e-005, 6.25398679e-005,
          6.25398679e-005, 6.25398679e-005, 6.25398679e-005,
          6.25398679e-005, 6.25398679e-005, 6.25398679e-005,
          6.25398679e-005, 7.50478430e-005, 6.25398679e-005,
          1.00063793e-004, 6.25398679e-005, 6.25398679e-005,
          6.25398679e-005, 1.37587718e-004, 8.75558180e-005,
          6.25398679e-005, 6.25398679e-005, 6.25398679e-005,
          6.25398679e-005, 6.25398679e-005, 6.25398679e-005,
          6.25398679e-005, 6.25398679e-005, 6.25398679e-005,
          6.25398679e-005, 6.25398679e-005, 6.25398679e-005,
          6.25398679e-005, 6.25398679e-005, 6.25398679e-005,
          6.25398679e-005, 6.25398679e-005, 6.25398679e-005,
          6.25398679e-005, 6.25398679e-005, 6.25398679e-005,
          6.25398679e-005, 6.25398679e-005, 6.25398679e-005,
          6.25398679e-005, 6.25398679e-005, 6.25398679e-005,
          6.25398679e-005, 6.25398679e-005, 6.25398679e-005,
          6.25398679e-005, 6.25398679e-005, 6.25398679e-005,
          6.25398679e-005, 8.75558180e-005, 6.25398679e-005,
          6.25398679e-005, 6.25398679e-005, 6.25398679e-005,
          7.50478430e-005, 6.25398679e-005, 6.25398679e-005,
          2.37651504e-004, 6.25398679e-005, 7.50478430e-005,
          1.87619618e-004, 6.25398679e-005, 6.25398679e-005,
          8.75558180e-005, 6.25398679e-005, 6.25398679e-005,
          7.50478430e-005, 6.25398679e-005, 6.25398679e-005,
          6.25398679e-005, 6.25398679e-005, 6.25398679e-005,
          6.25398679e-005, 6.25398679e-005, 6.25398679e-005,
          6.25398679e-005, 6.25398679e-005, 6.25398679e-005,
          6.25398679e-005, 6.25398679e-005, 6.25398679e-005,
          6.25398679e-005, 6.25398679e-005, 6.25398679e-005,
          6.25398679e-005, 6.25398679e-005, 6.25398679e-005,
          6.25398679e-005, 6.25398679e-005, 6.25398679e-005,
          6.25398679e-005, 6.25398679e-005, 6.25398679e-005,
          6.25398679e-005, 6.25398679e-005, 6.25398679e-005,
          6.25398679e-005, 6.25398679e-005, 6.25398679e-005,
          6.25398679e-005, 6.25398679e-005, 6.25398679e-005,
          6.25398679e-005, 6.25398679e-005, 6.25398679e-005,
          6.25398679e-005, 6.25398679e-005, 6.25398679e-005,
          6.25398679e-005, 6.25398679e-005, 6.25398679e-005,
          6.25398679e-005, 6.25398679e-005, 6.25398679e-005,
          6.25398679e-005, 6.25398679e-005, 6.25398679e-005,
          6.25398679e-005, 6.25398679e-005, 6.25398679e-005,
          6.25398679e-005, 6.25398679e-005, 6.25398679e-005,
          6.25398679e-005, 6.25398679e-005, 6.25398679e-005,
          6.25398679e-005, 6.25398679e-005, 6.25398679e-005,
          6.25398679e-005, 6.25398679e-005, 6.25398679e-005,
          6.25398679e-005, 6.25398679e-005, 6.25398679e-005,
          6.25398679e-005, 6.25398679e-005, 6.25398679e-005,
          6.25398679e-005, 6.25398679e-005, 6.25398679e-005,
          6.25398679e-005, 6.25398679e-005, 6.25398679e-005,
          7.50478430e-005, 6.25398679e-005, 6.25398679e-005,
          6.25398679e-005, 8.75558180e-005, 6.25398679e-005,
          6.25398679e-005, 1.00063793e-004, 1.00063793e-004,
          6.25398679e-005, 6.25398679e-005, 6.25398679e-005,
          6.25398679e-005, 1.50095686e-004, 6.25398679e-005,
          6.25398679e-005, 6.25398679e-005, 6.25398679e-005,
          6.25398679e-005, 6.25398679e-005, 6.25398679e-005,
          6.25398679e-005, 6.25398679e-005, 6.25398679e-005,
          6.25398679e-005, 6.25398679e-005, 6.25398679e-005,
          5.00318965e-005, 6.25398679e-005, 6.25398679e-005,
          6.25398679e-005, 6.25398679e-005, 6.25398679e-005,
          6.25398679e-005, 6.25398679e-005, 6.25398679e-005,
          6.25398679e-005, 6.25398679e-005, 6.25398679e-005,
          6.25398679e-005, 6.25398679e-005, 6.25398679e-005,
          6.25398679e-005, 6.25398679e-005, 6.25398679e-005,
          6.25398679e-005, 6.25398679e-005, 3.12699354e-004,
          1.25079736e-004, 6.25398679e-005, 1.25079736e-004,
          6.25398679e-005, 6.25398679e-005, 6.25398679e-005,
          6.25398679e-005, 1.00063793e-004, 6.25398679e-005,
