%YAML:1.0
arbre: !!opencv-ml-random-trees
   nclasses: 8
   nsamples: 960
   nactive_vars: 4
   oob_error: 1.3714285714285715e-001
   var_importance: !!opencv-matrix
      rows: 1
      cols: 15000
      dt: f
      data: [ 0., 0., 0., 0., 0., 0., 0., 0., 0., 0., 0.,
          1.46434322e-004, 0., 0., 0., 0., 0., 0., 0., 0., 0., 0., 0.,
          0., 0., 0., 0., 0., 0., 0., 0., 0., 0., 0., 0., 0., 0., 0., 0.,
          0., 0., 0., 0., 0., 0., 0., 0., 0., 0., 0., 0., 0., 0., 0., 0.,
          0., 0., 0., 0., 0., 0., 0., 0., 0., 0., 0., 0., 0., 0., 0., 0.,
          0., 0., 0., 0., 0., 0., 0., 0., 0., 0., 0., 0., 0., 0., 0., 0.,
          0., 0., 0., 0., 0., 0., 0., 0., 0., 0., 0., 0., 0., 0., 0., 0.,
          0., 0., 0., 0., 0., 0., 0., 0., 0., 0., 0., 0., 0., 0., 0., 0.,
          0., 0., 0., 0., 0., 0., 0., 0., 0., 0., 0., 0., 0., 0., 0., 0.,
          0., 0., 0., 0., 0., 0., 0., 0., 0., 0., 0., 0., 0., 0., 0., 0.,
          0., 0., 0., 0., 0., 0., 0., 0., 0., 0., 0., 0., 0., 0., 0., 0.,
          0., 0., 0., 0., 0., 0., 0., 0., 0., 0., 0., 0., 0., 0., 0., 0.,
          0., 0., 0., 0., 0., 0., 0., 0., 0., 0., 0., 0., 0., 0., 0., 0.,
          0., 0., 0., 0., 0., 0., 0., 0., 0., 0., 0., 0., 0., 0., 0., 0.,
          0., 0., 0., 0., 0., 0., 0., 0., 0., 0., 0., 0., 0., 0., 0., 0.,
          0., 0., 0., 0., 0., 0., 0., 0., 0., 0., 0., 0., 0., 0., 0., 0.,
          0., 0., 0., 0., 0., 0., 0., 0., 0., 0., 0., 0., 0., 0., 0., 0.,
          0., 0., 0., 0., 0., 0., 0., 0., 0., 0., 0., 0., 0., 0., 0., 0.,
          0., 0., 0., 0., 0., 0., 0., 0., 0., 0., 0., 0., 0., 0., 0., 0.,
          0., 0., 0., 0., 0., 0., 0., 0., 0., 0., 0., 0., 0., 0., 0., 0.,
          0., 0., 0., 0., 0., 0., 0., 0., 0., 0., 0., 0., 0., 0., 0., 0.,
          0., 0., 0., 0., 0., 0., 0., 0., 0., 0., 0., 0., 0., 0., 0., 0.,
          0., 0., 0., 0., 0., 0., 0., 0., 0., 0., 0., 0., 0., 0., 0., 0.,
          0., 0., 0., 0., 0., 0., 0., 0., 0., 0., 0., 0., 0., 0., 0., 0.,
          0., 0., 0., 0., 0., 0., 0., 0., 0., 0., 0., 0., 0., 0., 0., 0.,
          0., 0., 0., 0., 0., 0., 0., 0., 0., 0., 0., 0., 0., 0., 0., 0.,
          0., 0., 0., 0., 0., 0., 0., 0., 0., 0., 0., 0., 0., 0., 0., 0.,
          0., 0., 0., 0., 0., 0., 0., 0., 0., 0., 0., 0., 0., 0., 0., 0.,
          0., 0., 0., 0., 0., 0., 0., 0., 0., 0., 0., 0., 0., 0., 0., 0.,
          0., 0., 0., 0., 0., 0., 0., 0., 0., 0., 0., 0., 0., 0., 0., 0.,
          0., 0., 0., 0., 0., 0., 0., 0., 0., 0., 0., 0., 0., 0., 0., 0.,
          0., 0., 0., 0., 0., 0., 0., 0., 0., 0., 0., 0., 0., 0., 0., 0.,
          0., 0., 0., 0., 0., 0., 0., 0., 0., 0., 0., 0., 0., 0., 0., 0.,
          0., 0., 0., 0., 0., 0., 0., 0., 0., 0., 0., 0., 0., 0., 0., 0.,
          0., 0., 0., 0., 0., 0., 0., 0., 0., 0., 0., 0., 0., 0., 0., 0.,
          0., 0., 0., 0., 0., 0., 0., 0., 0., 0., 0., 0., 0., 0., 0., 0.,
          0., 0., 0., 0., 0., 0., 0., 0., 0., 0., 0., 0., 0., 0., 0., 0.,
          0., 0., 0., 0., 0., 0., 0., 0., 0., 0., 0., 0., 0., 0., 0., 0.,
          0., 0., 0., 0., 0., 0., 0., 0., 0., 0., 0., 0., 0., 0., 0., 0.,
          0., 0., 0., 0., 0., 0., 0., 0., 0., 0., 0., 0., 0., 0., 0., 0.,
          0., 0., 0., 0., 0., 0., 0., 0., 0., 0., 0., 0., 0., 0., 0., 0.,
          0., 0., 0., 0., 0., 0., 0., 0., 0., 0., 0., 0., 0., 0., 0., 0.,
          0., 0., 0., 0., 0., 0., 0., 0., 0., 0., 0., 0., 0., 0., 0., 0.,
          0., 0., 0., 0., 0., 0., 0., 0., 0., 0., 0., 0., 0., 0., 0., 0.,
          0., 0., 0., 0., 0., 0., 0., 0., 0., 0., 0., 0., 0., 0., 0., 0.,
          0., 0., 0., 0., 0., 0., 0., 0., 0., 0., 0., 0., 0., 0., 0., 0.,
          0., 0., 0., 0., 0., 0., 0., 0., 0., 0., 0., 0., 0., 0., 0., 0.,
          0., 0., 0., 0., 0., 0., 0., 0., 0., 0., 0., 0., 0., 0., 0., 0.,
          0., 0., 0., 0., 0., 0., 0., 0., 0., 0., 0., 0., 0., 0., 0., 0.,
          0., 0., 0., 0., 0., 0., 0., 0., 0., 0., 0., 0., 0., 0., 0., 0.,
          0., 0., 0., 0., 0., 0., 0., 0., 0., 0., 0., 0., 0., 0., 0., 0.,
          0., 0., 0., 0., 0., 0., 0., 0., 0., 0., 0., 0., 0., 0., 0., 0.,
          0., 0., 0., 0., 0., 0., 0., 0., 0., 0., 0., 0., 0., 0., 0., 0.,
          0., 0., 0., 0., 0., 0., 0., 0., 0., 0., 0., 0., 0., 0., 0.,
          2.92868644e-004, 0., 0., 0., 0., 0., 0., 0., 0., 0., 0., 0.,
          0., 0., 0., 0., 0., 0., 0., 0., 0., 0., 0., 0., 0., 0., 0., 0.,
          0., 0., 0., 0., 0., 0., 0., 0., 0., 0., 0., 0., 0., 0., 0., 0.,
          0., 0., 0., 0., 0., 0., 0., 0., 0., 0., 0., 0., 0., 0., 0., 0.,
          0., 0., 0., 0., 0., 0., 0., 0., 0., 0., 0., 0., 0., 0., 0., 0.,
          0., 0., 0., 0., 0., 0., 0., 0., 0., 0., 0., 0., 0., 0., 0., 0.,
          0., 0., 0., 0., 0., 0., 0., 0., 0., 0., 0., 0., 0., 0., 0., 0.,
          0., 0., 0., 0., 0., 0., 0., 0., 0., 0., 0., 0., 0., 0., 0., 0.,
          0., 0., 0., 0., 0., 0., 0., 0., 0., 0., 0., 1.46434322e-004,
          0., 0., 0., 0., 0., 0., 0., 1.46434322e-004, 0., 0., 0.,
          1.46434322e-004, 0., 0., 0., 0., 0., 0., 0., 0., 0., 0., 0.,
          0., 0., 0., 0., 0., 0., 0., 0., 0., 0., 0., 0., 0., 0., 0., 0.,
          0., 0., 0., 0., 0., 0., 0., 0., 0., 0., 0., 0., 0., 0., 0., 0.,
          0., 0., 0., 0., 0., 0., 0., 0., 0., 0., 0., 0., 0., 0., 0., 0.,
          0., 0., 0., 0., 0., 0., 0., 0., 0., 0., 0., 0., 0., 0., 0., 0.,
          0., 0., 0., 0., 0., 0., 0., 0., 0., 0., 0., 0., 0., 0., 0., 0.,
          0., 0., 0., 0., 0., 0., 0., 0., 0., 0., 0., 0., 0., 0., 0., 0.,
          0., 0., 0., 0., 0., 0., 0., 0., 0., 0., 0., 0., 0., 0., 0., 0.,
          0., 0., 0., 0., 0., 0., 0., 0., 0., 0., 0., 0., 0., 0., 0., 0.,
          0., 0., 0., 0., 0., 2.92868644e-004, 0., 0., 0., 0., 0., 0.,
          0., 0., 0., 0., 0., 0., 0., 0., 0., 0., 0., 0., 0., 0., 0., 0.,
          0., 0., 0., 0., 0., 0., 0., 0., 0., 0., 0., 0., 0., 0., 0., 0.,
          0., 0., 0., 0., 0., 0., 0., 0., 0., 0., 0., 0., 0., 0., 0., 0.,
          0., 0., 0., 0., 0., 0., 0., 0., 0., 0., 0., 0., 0., 0., 0., 0.,
          0., 0., 0., 0., 0., 0., 0., 0., 0., 0., 0., 0., 0., 0., 0., 0.,
          0., 0., 0., 0., 0., 0., 0., 0., 0., 0., 0., 0., 0., 0., 0., 0.,
          0., 0., 0., 0., 0., 0., 0., 0., 0., 0., 0., 0., 0., 0., 0., 0.,
          0., 0., 0., 0., 0., 0., 0., 0., 0., 0., 0., 0., 0., 0., 0., 0.,
          0., 0., 0., 0., 0., 0., 0., 0., 0., 0., 0., 0., 0., 0., 0., 0.,
          0., 0., 0., 0., 0., 2.92868644e-004, 0., 0., 0., 0.,
          2.92868644e-004, 0., 0., 0., 0., 0., 0., 0., 0., 0., 0., 0.,
          0., 0., 0., 0., 0., 0., 0., 0., 0., 0., 0., 0., 0., 0., 0., 0.,
          0., 0., 0., 0., 0., 0., 0., 0., 0., 0., 0., 0., 0., 0., 0., 0.,
          0., 0., 0., 0., 0., 0., 0., 0., 0., 0., 0., 0., 0., 0., 0., 0.,
          0., 0., 0., 0., 0., 0., 0., 0., 0., 0., 0., 0., 0., 0., 0., 0.,
          0., 0., 0., 0., 0., 0., 0., 0., 0., 0., 0., 0., 0., 0., 0., 0.,
          0., 0., 0., 0., 0., 0., 0., 0., 0., 0., 0., 0., 0., 0., 0., 0.,
          0., 0., 0., 0., 0., 0., 0., 0., 0., 0., 0., 0., 0., 0., 0., 0.,
          0., 0., 0., 0., 0., 0., 0., 0., 0., 0., 0., 0., 0., 0., 0., 0.,
          0., 0., 0., 0., 0., 0., 0., 0., 0., 0., 0., 0., 0., 0., 0., 0.,
          0., 0., 0., 0., 0., 0., 0., 0., 0., 0., 0., 0., 0., 0., 0., 0.,
          0., 0., 0., 0., 0., 0., 0., 0., 0., 0., 0., 0., 0., 0., 0., 0.,
          0., 0., 0., 0., 0., 0., 0., 0., 0., 0., 0., 0., 0., 0., 0., 0.,
          0., 0., 0., 0., 0., 0., 0., 0., 0., 0., 0., 0., 0., 0., 0., 0.,
          0., 0., 0., 0., 0., 0., 0., 0., 0., 0., 0., 0., 0., 0., 0., 0.,
          0., 0., 0., 0., 0., 0., 0., 0., 0., 0., 0., 0., 0., 0., 0., 0.,
          0., 0., 0., 0., 2.92868644e-004, 0., 0., 0., 0., 0., 0., 0.,
          1.46434322e-004, 0., 0., 0., 0., 0., 0., 0., 0., 0.,
          1.46434322e-004, 0., 0., 0., 0., 0., 0., 0., 0., 0., 0., 0.,
          0., 0., 0., 0., 0., 0., 0., 0., 0., 0., 0., 0., 0., 0., 0., 0.,
          0., 0., 0., 0., 0., 0., 0., 0., 0., 0., 0., 0., 0., 0., 0., 0.,
          0., 0., 0., 0., 0., 0., 0., 0., 0., 0., 0., 0., 0., 0., 0., 0.,
          0., 0., 0., 0., 0., 0., 0., 0., 0., 0., 0., 0., 0., 0., 0., 0.,
          0., 0., 0., 0., 0., 0., 0., 0., 0., 0., 0., 0., 0., 0., 0., 0.,
          0., 0., 0., 0., 0., 0., 0., 0., 0., 0., 0., 0., 0., 0., 0., 0.,
          0., 0., 0., 0., 0., 0., 0., 0., 0., 0., 0., 0., 0., 0., 0., 0.,
          0., 0., 0., 0., 0., 0., 0., 1.46434322e-004, 0., 0., 0., 0.,
          0., 0., 0., 0., 0., 0., 0., 0., 0., 0., 0., 0., 0., 0., 0., 0.,
          0., 0., 0., 0., 0., 0., 0., 0., 2.92868644e-004, 0., 0., 0.,
          0., 4.39302967e-004, 0., 0., 0., 0., 0., 1.46434322e-004, 0.,
          0., 0., 1.46434322e-004, 0., 2.92868644e-004, 0., 0., 0., 0.,
          0., 0., 0., 0., 0., 0., 1.46434322e-004, 0., 0., 0., 0., 0.,
          0., 0., 0., 0., 0., 0., 0., 0., 0., 0., 0., 0., 0., 0., 0., 0.,
          0., 0., 0., 0., 0., 0., 0., 0., 0., 0., 0., 0., 0., 0., 0., 0.,
          0., 0., 0., 0., 0., 0., 0., 0., 0., 0., 0., 0., 0., 0., 0., 0.,
          0., 0., 0., 0., 0., 0., 0., 0., 0., 0., 0., 0., 0., 0., 0., 0.,
          0., 0., 0., 0., 0., 0., 0., 0., 0., 0., 0., 0., 0., 0.,
          1.46434322e-004, 0., 0., 0., 0., 0., 0., 0., 0., 0., 0., 0.,
          1.46434322e-004, 0., 0., 1.46434322e-004, 0., 0., 0.,
          1.46434322e-004, 0., 0., 0., 0., 7.32171582e-004, 0., 0., 0.,
          0., 0., 7.32171582e-004, 0., 0., 0., 0., 1.46434322e-004, 0.,
          0., 0., 0., 0., 0., 0., 0., 0., 0., 0., 0., 0., 0., 0., 0., 0.,
          0., 0., 0., 0., 0., 0., 0., 0., 1.02504028e-003,
          1.46434322e-004, 1.02504028e-003, 0., 0., 0., 0.,
          1.46434322e-004, 0., 0., 0., 0., 0., 0., 0., 0., 0., 0., 0.,
          0., 0., 0., 0., 0., 0., 0., 0., 0., 0., 0., 0., 0., 0., 0., 0.,
          0., 0., 0., 0., 0., 0., 0., 0., 0., 0., 0., 0., 0., 0., 0., 0.,
          0., 0., 0., 0., 0., 0., 0., 0., 0., 0., 0., 0., 0., 0., 0., 0.,
          0., 0., 0., 0., 0., 0., 0., 0., 0., 0., 0., 0., 0., 0., 0., 0.,
          0., 0., 0., 0., 0., 0., 0., 0., 0., 0., 0., 0., 0., 0., 0., 0.,
          1.75721187e-003, 0., 0., 0., 0., 0., 0., 0., 0., 0.,
          4.39302967e-004, 0., 8.78605933e-004, 0., 2.92868644e-004, 0.,
          0., 0., 0., 0., 0., 1.46434322e-004, 0., 0., 0.,
          1.46434322e-004, 0., 0., 0., 0., 0., 0., 0., 0., 0., 0., 0.,
          0., 0., 0., 0., 1.46434322e-004, 0., 0., 0., 0., 0., 0., 0.,
          0., 0., 0., 0., 0., 0., 0., 0., 0., 0., 0., 0., 0., 0., 0., 0.,
          0., 0., 0., 0., 0., 0., 0., 0., 0., 0., 0., 0., 0., 0., 0., 0.,
          0., 0., 0., 0., 0., 0., 0., 0., 0., 0., 0., 0., 0., 0., 0., 0.,
          0., 0., 0., 0., 0., 0., 0., 0., 0., 0., 0., 0., 0., 0., 0., 0.,
          0., 0., 0., 0., 0., 0., 0., 0., 0., 0., 0., 0., 0., 0., 0., 0.,
          0., 0., 0., 0., 0., 0., 0., 0., 0., 0., 0., 0., 0., 0., 0., 0.,
          0., 0., 0., 0., 0., 0., 0., 0., 0., 0., 0., 0.,
          2.92868644e-004, 5.85737289e-004, 0., 0., 0., 0., 0., 0., 0.,
          0., 0., 0., 0., 0., 0., 0., 0., 1.46434322e-004, 0., 0., 0.,
          0., 0., 1.46434322e-004, 0., 7.32171582e-004, 0., 0., 0., 0.,
          0., 0., 0., 7.32171582e-004, 0., 0., 0., 0., 0., 0., 0., 0.,
          0., 0., 0., 0., 0., 0., 0., 0., 0., 0., 0., 0., 0., 0., 0., 0.,
          0., 0., 0., 0., 0., 0., 0., 0., 0., 0., 0., 0., 0., 0., 0., 0.,
          0., 0., 0., 0., 0., 0., 0., 0., 0., 0., 0., 0., 0., 0., 0., 0.,
          0., 0., 0., 0., 0., 0., 0., 0., 0., 0., 0., 0., 0., 0., 0., 0.,
          0., 0., 0., 0., 0., 0., 0., 0., 0., 0., 0., 0., 0., 0., 0., 0.,
          0., 0., 0., 0., 0., 0., 0., 0., 0., 0., 0., 0., 0., 0., 0., 0.,
          0., 0., 0., 0., 0., 1.46434322e-004, 0., 2.92868644e-004, 0.,
          0., 0., 1.02504028e-003, 0., 5.85737289e-004, 1.75721187e-003,
          0., 0., 0., 0., 0., 0., 2.92868644e-004, 0., 0., 0., 0., 0.,
          0., 0., 0., 2.05008057e-003, 0., 0., 0., 0., 0., 0., 0., 0.,
          0., 4.39302967e-004, 0., 0., 7.32171582e-004, 0., 0., 0., 0.,
          8.78605933e-004, 0., 0., 0., 0., 0., 1.46434322e-004, 0., 0.,
          0., 0., 0., 0., 5.85737289e-004, 0., 0., 0., 0., 0., 0., 0.,
          0., 0., 0., 0., 0., 0., 0., 0., 0., 0., 0., 0., 0., 0., 0., 0.,
          0., 0., 0., 0., 0., 0., 0., 0., 0., 0., 0., 0., 0., 0., 0., 0.,
          0., 0., 0., 0., 0., 0., 0., 0., 0., 0., 0., 0., 0., 0., 0., 0.,
          0., 0., 0., 0., 0., 0., 0., 0., 0., 0., 0., 0., 0., 0., 0., 0.,
          0., 0., 0., 0., 0., 0., 1.46434322e-004, 0., 0., 0., 0., 0.,
          0., 0., 0., 0., 0., 0., 0., 0., 5.85737289e-004, 0.,
          1.90364616e-003, 0., 0., 0., 0., 0., 0., 0., 0., 0., 0., 0.,
          0., 5.85737289e-004, 0., 0., 2.48938357e-003, 0., 0., 0., 0.,
          0., 0., 0., 0., 0., 0., 0., 0., 0., 0., 0., 0., 0., 0., 0., 0.,
          0., 0., 0., 0., 0., 0., 0., 0., 0., 0., 1.02504028e-003, 0.,
          0., 1.46434322e-004, 0., 0., 0., 0., 0., 0., 0., 0., 0., 0.,
          0., 0., 0., 0., 0., 0., 0., 0., 0., 0., 0., 0., 0., 0., 0., 0.,
          0., 0., 0., 0., 0., 0., 0., 0., 0., 0., 0., 0., 0., 0., 0., 0.,
          0., 0., 0., 0., 0., 0., 0., 0., 0., 0., 0., 0., 0., 0., 0., 0.,
          0., 0., 0., 0., 0., 0., 0., 0., 0., 0., 0., 0., 0., 0., 0., 0.,
          0., 0., 0., 0., 0., 0., 0., 0., 0., 2.92868644e-004, 0., 0.,
          0., 0., 0., 0., 0., 0., 0., 0., 0., 0., 0., 0., 0., 0.,
          1.02504028e-003, 0., 0., 0., 4.39302967e-004, 7.32171582e-004,
          0., 0., 0., 0., 2.63581774e-003, 0., 3.36798932e-003, 0., 0.,
          0., 2.92868644e-004, 0., 0., 0., 0., 0., 0., 0., 0.,
          3.22155515e-003, 1.17147458e-003, 0., 7.32171582e-004,
          1.46434322e-004, 1.02504028e-003, 1.02504028e-003, 0., 0., 0.,
          0., 0., 0., 1.46434322e-004, 2.92868644e-004, 0., 0., 0., 0.,
          2.92868644e-004, 1.46434322e-004, 0., 0., 0., 0., 0., 0., 0.,
          0., 0., 0., 0., 0., 0., 0., 0., 0., 0., 0., 0., 0., 0., 0., 0.,
          0., 0., 0., 0., 0., 0., 0., 0., 0., 0., 0., 0., 0., 0., 0., 0.,
          0., 0., 0., 0., 0., 0., 0., 0., 0., 0., 0., 0., 0., 0., 0., 0.,
          0., 0., 0., 0., 0., 0., 0., 0., 0., 0., 0., 0., 0., 0., 0., 0.,
          0., 0., 0., 0., 0., 0., 0., 0., 0., 0., 0., 0., 0., 0., 0.,
          2.92868644e-004, 2.92868644e-004, 0., 0., 0., 0., 0., 0., 0.,
          0., 0., 2.92868644e-004, 0., 0., 0., 0., 1.46434322e-004, 0.,
          0., 0., 0., 1.31790887e-003, 0., 1.46434322e-004, 0., 0.,
          5.85737289e-004, 0., 0., 2.92868644e-004, 0., 0., 0., 0., 0.,
          0., 0., 0., 0., 0., 0., 0., 0., 2.92868644e-004, 0., 0., 0.,
          0., 0., 0., 0., 0., 0., 1.46434322e-004, 0., 4.39302967e-004,
          0., 0., 0., 0., 0., 0., 0., 0., 8.78605933e-004, 0., 0., 0.,
          0., 0., 0., 0., 0., 0., 0., 0., 1.46434322e-004, 0., 0., 0.,
          0., 0., 0., 0., 0., 0., 0., 0., 0., 0., 0., 0., 0., 0., 0., 0.,
          0., 0., 0., 0., 0., 0., 0., 0., 0., 0., 0., 0., 0., 0., 0., 0.,
          0., 0., 0., 0., 0., 0., 0., 0., 0., 0., 0., 0., 0., 0., 0., 0.,
          0., 0., 0., 0., 0., 0., 0., 0., 0., 0., 0., 0., 0., 0., 0., 0.,
          0., 0., 0., 0., 0., 7.32171582e-004, 0., 0., 0., 0., 0.,
          1.46434322e-004, 0., 0., 0., 0., 0., 0., 0., 0., 0., 0., 0.,
          0., 0., 0., 0., 0., 0., 7.32171582e-004, 0., 0., 0., 0., 0.,
          0., 0., 0., 0., 0., 0., 0., 0., 0., 0., 2.92868633e-003, 0.,
          2.05008057e-003, 0., 0., 0., 1.46434322e-004, 5.85737289e-004,
          0., 0., 0., 0., 0., 0., 0., 1.31790887e-003, 0., 0., 0., 0.,
          0., 0., 0., 0., 0., 1.46434322e-004, 0., 0., 0., 0., 0., 0.,
          0., 0., 0., 0., 0., 0., 0., 0., 0., 0., 0., 0., 0., 0., 0., 0.,
          0., 0., 0., 0., 0., 0., 0., 0., 0., 0., 0., 0., 0., 0., 0., 0.,
          0., 0., 0., 0., 0., 0., 0., 0., 0., 0., 0., 0., 0., 0., 0., 0.,
          0., 0., 0., 0., 0., 0., 0., 0., 0., 0., 0., 0., 0., 0., 0., 0.,
          0., 0., 0., 0., 0., 0., 0., 0., 0., 0., 0., 0., 0., 0.,
          1.46434322e-004, 2.92868644e-004, 0., 0., 0., 0., 0., 0., 0.,
          0., 0., 0., 0., 0., 0., 0., 0., 0., 0., 0., 0., 0., 0.,
          4.39302967e-004, 0., 0., 0., 0., 0., 0., 2.05008057e-003, 0.,
          0., 1.90364616e-003, 0., 0., 0., 0., 0., 2.63581774e-003, 0.,
          0., 0., 0., 5.85737289e-004, 0., 0., 0., 0., 0., 0., 0., 0.,
          0., 0., 1.46434322e-004, 0., 0., 0., 2.92868644e-004, 0., 0.,
          0., 0., 0., 0., 2.92868644e-004, 0., 0., 2.92868644e-004, 0.,
          0., 0., 0., 0., 0., 0., 0., 0., 0., 0., 0., 0., 0., 0., 0., 0.,
          0., 0., 0., 0., 0., 0., 0., 0., 0., 0., 0., 0., 0., 0., 0., 0.,
          0., 0., 0., 0., 0., 0., 0., 0., 0., 0., 0., 0., 0., 0., 0., 0.,
          0., 0., 0., 0., 0., 0., 0., 0., 0., 0., 0., 0., 0., 0., 0., 0.,
          0., 0., 0., 0., 0., 0., 0., 1.46434322e-004, 0., 0., 0., 0.,
          2.92868644e-004, 0., 7.32171582e-004, 0., 0., 0., 0., 0., 0.,
          0., 0., 0., 0., 0., 0., 0., 0., 0., 0., 0., 0., 0., 0., 0., 0.,
          0., 2.92868644e-004, 0., 1.46434322e-004, 0., 0., 0.,
          2.92868644e-004, 0., 0., 2.92868644e-004, 0., 0.,
          7.76101928e-003, 0., 0., 0., 2.92868644e-004, 0.,
          3.36798932e-003, 0., 5.85737289e-004, 0., 2.92868633e-003,
          1.46434322e-004, 0., 7.32171582e-004, 0., 8.78605933e-004, 0.,
          0., 0., 0., 0., 0., 0., 0., 1.46434322e-004, 0., 0., 0., 0.,
          0., 0., 0., 0., 0., 0., 0., 0., 2.92868644e-004, 0., 0., 0.,
          0., 0., 0., 0., 0., 0., 0., 0., 0., 0., 0., 0., 0., 0., 0., 0.,
          0., 0., 0., 0., 0., 0., 0., 0., 0., 0., 0., 0., 0., 0., 0., 0.,
          0., 0., 0., 0., 0., 0., 0., 0., 0., 0., 0., 0., 0., 0., 0., 0.,
          0., 0., 0., 0., 0., 0., 0., 0., 0., 0., 0., 0., 0., 0., 0., 0.,
          0., 0., 0., 0., 0., 0., 0., 4.39302967e-004, 1.46434322e-004,
          0., 0., 0., 1.46434322e-004, 0., 0., 0., 0., 0., 0., 0., 0.,
          1.75721187e-003, 0., 0., 2.19651475e-003, 2.92868644e-004,
          2.92868644e-004, 0., 7.32171582e-004, 0., 7.32171582e-004, 0.,
          0., 0., 0., 0., 0., 0., 1.31790887e-003, 0., 1.17147458e-003,
          0., 0., 0., 0., 0., 0., 2.05008057e-003, 1.46434316e-003,
          5.85737289e-004, 0., 0., 1.46434322e-004, 4.39302967e-004, 0.,
          0., 0., 0., 0., 0., 4.39302967e-004, 0., 3.66085814e-003, 0.,
          0., 0., 0., 6.73597865e-003, 0., 0., 2.34294916e-003,
          1.46434322e-004, 0., 0., 4.83233249e-003, 0., 1.90364616e-003,
          0., 5.85737289e-004, 0., 0., 0., 0., 0., 0., 0., 0., 0., 0.,
          0., 0., 0., 0., 0., 0., 0., 0., 0., 0., 0., 0., 0., 0., 0., 0.,
          0., 0., 0., 0., 0., 0., 0., 0., 0., 0., 0., 0., 0., 0., 0., 0.,
          0., 0., 0., 0., 0., 0., 0., 0., 0., 0., 0., 0., 0., 0., 0., 0.,
          0., 0., 0., 0., 0., 0., 0., 0., 0., 0., 0., 0., 0., 0., 0., 0.,
          0., 0., 0., 0., 0., 0., 0., 0., 0., 1.02504028e-003, 0., 0.,
          0., 0., 0., 0., 0., 0., 0., 0., 0., 0., 1.31790887e-003, 0.,
          2.92868644e-004, 0., 0., 1.46434322e-004, 0., 1.46434322e-004,
          0., 1.46434322e-004, 0., 0., 0., 0., 0., 0., 0.,
          8.78605933e-004, 2.78225215e-003, 0., 0., 0., 0., 0.,
          4.53946413e-003, 2.92868644e-004, 2.19651475e-003, 0., 0.,
          4.39302967e-004, 0., 0., 2.63581774e-003, 0., 0., 0., 0.,
          7.32171582e-004, 2.05008057e-003, 1.17147458e-003, 0., 0., 0.,
          0., 0., 0., 5.85737289e-004, 2.92868644e-004, 0., 0.,
          5.85737289e-004, 0., 0., 0., 0., 0., 0., 2.92868644e-004, 0.,
          0., 0., 0., 0., 0., 0., 0., 0., 0., 0., 0., 0., 0., 0., 0., 0.,
          0., 0., 0., 0., 0., 0., 0., 0., 0., 0., 0., 0., 0., 0., 0., 0.,
          0., 0., 0., 0., 0., 0., 0., 0., 0., 0., 0., 0., 0., 0., 0., 0.,
          0., 0., 0., 0., 0., 0., 0., 0., 0., 0., 0., 0., 0., 0., 0., 0.,
          0., 0., 0., 0., 0., 0., 0., 0., 4.39302967e-004, 0., 0., 0.,
          1.46434322e-004, 0., 2.92868644e-004, 4.39302967e-004, 0., 0.,
          0., 2.92868644e-004, 0., 0., 0., 0., 1.46434316e-003,
          1.46434322e-004, 0., 0., 0., 2.92868644e-004, 0., 0.,
          1.17147458e-003, 0., 0., 0., 4.39302967e-004, 0.,
          1.17147458e-003, 0., 1.17147458e-003, 0., 0., 0., 0.,
          5.85737289e-004, 0., 0., 2.92868644e-004, 0., 5.85737289e-004,
          0., 5.85737289e-004, 0., 1.17147458e-003, 0., 4.39302967e-004,
          1.46434322e-004, 0., 0., 0., 0., 0., 0., 0., 0., 0., 0., 0.,
          0., 0., 1.17147458e-003, 1.02504028e-003, 0., 0., 0., 0., 0.,
          2.05008057e-003, 1.17147458e-003, 0., 2.92868644e-004, 0., 0.,
          5.85737289e-004, 0., 0., 0., 0., 0., 0., 0., 0., 0., 0., 0.,
          0., 0., 0., 0., 0., 0., 0., 0., 0., 0., 0., 0., 0., 0., 0., 0.,
          0., 0., 0., 0., 0., 0., 0., 0., 0., 0., 0., 0., 0., 0., 0., 0.,
          0., 0., 0., 0., 0., 0., 0., 0., 0., 0., 0., 0., 0., 0., 0., 0.,
          0., 0., 0., 0., 0., 0., 0., 0., 0., 0., 0., 0., 0., 0., 0., 0.,
          0., 0., 4.39302967e-004, 0., 0., 0., 0., 0., 0., 0., 0., 0.,
          0., 0., 0., 5.41807013e-003, 0., 1.46434322e-004, 0.,
          2.92868644e-004, 0., 8.78605933e-004, 0., 1.46434316e-003, 0.,
          0., 0., 0., 0., 0., 3.80729232e-003, 0., 1.90364616e-003, 0.,
          0., 0., 0., 0., 0., 1.46434322e-004, 2.34294916e-003,
          5.41807013e-003, 0., 0., 1.46434322e-004, 2.92868644e-004, 0.,
          0., 1.75721187e-003, 0., 0., 0., 0., 0., 0., 2.92868644e-004,
          0., 0., 0., 0., 0., 0., 0., 1.46434322e-004, 4.39302967e-004,
          1.61077757e-003, 0., 0., 0., 0., 0., 1.46434316e-003, 0., 0.,
          0., 1.46434322e-004, 0., 0., 0., 0., 0., 0., 0., 0., 0., 0.,
          0., 0., 0., 0., 0., 0., 0., 0., 0., 0., 0., 0., 0., 0., 0., 0.,
          0., 0., 0., 0., 0., 0., 0., 0., 0., 0., 0., 0., 0., 0., 0., 0.,
          0., 0., 0., 0., 0., 0., 0., 0., 0., 0., 0., 0., 0., 0., 0., 0.,
          0., 0., 0., 0., 0., 0., 0., 0., 0., 0., 0., 0., 0., 0., 0., 0.,
          4.39302967e-004, 1.46434322e-004, 0., 1.17147458e-003, 0., 0.,
          0., 0., 0., 3.07512074e-003, 0., 5.85737289e-004, 0., 0., 0.,
          0., 0., 7.32171582e-004, 0., 0., 1.02504028e-003, 0., 0., 0.,
          0., 0., 1.46434322e-004, 1.17147458e-003, 7.32171582e-004, 0.,
          1.02504028e-003, 0., 0., 0., 5.85737289e-004, 1.46434322e-004,
          0., 1.46434322e-004, 2.05008057e-003, 0., 1.31790887e-003,
          1.46434316e-003, 1.46434322e-004, 1.46434322e-004, 0., 0.,
          2.92868644e-004, 1.75721187e-003, 0., 0., 0., 7.32171582e-004,
          5.85737289e-004, 0., 0., 0., 0., 1.90364616e-003, 0., 0.,
          8.78605933e-004, 0., 4.39302967e-004, 0., 8.78605933e-004,
          1.46434322e-004, 0., 0., 0., 1.46434316e-003, 1.46434316e-003,
          0., 0., 0., 0., 0., 0., 0., 0., 0., 0., 0., 0., 0., 0., 0., 0.,
          0., 0., 0., 0., 0., 0., 0., 0., 0., 0., 0., 0., 0., 0., 0., 0.,
          0., 0., 0., 0., 0., 0., 0., 0., 0., 0., 0., 0., 0., 0., 0., 0.,
          0., 0., 0., 0., 0., 0., 0., 0., 0., 0., 0., 0., 0., 0., 0., 0.,
          0., 0., 0., 0., 0., 0., 2.92868644e-004, 0., 0., 0., 0., 0.,
          0., 0., 0., 1.46434322e-004, 5.85737289e-004, 0., 0., 0., 0.,
          0., 0., 0., 2.92868644e-004, 0., 0., 0., 0., 0.,
          3.80729232e-003, 0., 0., 0., 0., 0., 0., 1.46434316e-003, 0.,
          0., 0., 0., 0., 0., 0., 0., 2.92868644e-004, 4.39302949e-003,
          0., 0., 4.39302967e-004, 0., 0., 0., 0., 0., 0., 0.,
          4.83233249e-003, 4.39302967e-004, 0., 0., 0., 0.,
          4.39302967e-004, 0., 1.46434322e-004, 7.32171582e-004,
          1.46434322e-004, 0., 0., 0., 0., 0., 0., 0., 0.,
          1.02504028e-003, 8.78605933e-004, 0., 4.39302967e-004, 0., 0.,
          0., 0., 0., 0., 0., 0., 5.85737289e-004, 0., 0., 0., 0., 0.,
          4.39302967e-004, 0., 0., 0., 0., 0., 0., 0., 0., 0., 0., 0.,
          0., 0., 0., 0., 0., 0., 0., 0., 0., 0., 0., 0., 0., 0., 0., 0.,
          0., 0., 0., 0., 0., 0., 0., 0., 0., 0., 0., 0., 0., 0., 0., 0.,
          0., 0., 0., 0., 0., 0., 0., 0., 0., 0., 0., 0., 0., 0., 0., 0.,
          0., 0., 0., 0., 0., 0., 0., 0., 0., 0., 0., 1.46434322e-004,
          1.02504028e-003, 0., 0., 2.92868644e-004, 0., 0., 0., 0.,
          2.92868644e-004, 0., 5.27163548e-003, 0., 0., 0., 0., 0.,
          1.75721187e-003, 0., 0., 0., 0., 0., 0., 0., 0.,
          1.02504028e-003, 0., 0., 0., 0., 0., 0., 0., 0., 0., 0., 0.,
          0., 0., 0., 0., 0., 0., 0., 0., 0., 0., 0., 1.46434322e-004,
          0., 0., 0., 1.46434322e-004, 0., 0., 0., 0., 0., 0.,
          5.85737289e-004, 0., 0., 0., 0., 0., 0., 0., 0., 0.,
          2.92868644e-004, 0., 0., 0., 0., 0., 0., 0., 0., 0., 0., 0.,
          0., 0., 0., 0., 0., 0., 0., 0., 0., 0., 0., 0., 0., 0., 0., 0.,
          0., 0., 0., 0., 0., 0., 0., 0., 0., 0., 0., 0., 0., 0., 0., 0.,
          0., 0., 0., 0., 0., 0., 0., 0., 0., 0., 0., 0., 0., 0., 0., 0.,
          0., 0., 0., 0., 0., 0., 0., 0., 0., 0., 0., 0., 0., 0., 0., 0.,
          0., 5.85737289e-004, 0., 0., 0., 0., 1.46434316e-003, 0.,
          1.46434322e-004, 0., 1.46434316e-003, 0., 0., 0., 0., 0.,
          3.07512074e-003, 0., 0., 0., 0., 0., 0., 1.46434322e-004,
          1.46434322e-004, 0., 0., 0., 0., 0., 0., 0., 0., 0., 0., 0.,
          4.39302967e-004, 0., 0., 7.32171582e-004, 1.46434322e-004, 0.,
          0., 0., 0., 0., 0., 0., 0., 0., 0., 0., 0., 0., 0., 0., 0.,
          1.46434322e-004, 0., 0., 0., 2.92868644e-004, 0., 0., 0.,
          1.46434322e-004, 4.39302967e-004, 2.78225215e-003, 0., 0., 0.,
          0., 0., 0., 0., 0., 0., 0., 4.39302967e-004, 0., 0., 0., 0.,
          0., 0., 0., 0., 0., 0., 0., 0., 0., 0., 0., 0., 0., 0., 0., 0.,
          0., 0., 0., 0., 0., 0., 0., 0., 0., 0., 0., 0., 0., 0., 0., 0.,
          0., 0., 0., 0., 0., 0., 0., 0., 0., 0., 0., 0., 0., 0., 0., 0.,
          0., 0., 0., 0., 0., 0., 0., 0., 0., 0., 0., 0., 0., 0., 0.,
          4.39302967e-004, 0., 0., 0., 2.34294916e-003, 2.92868644e-004,
          0., 0., 0., 0., 0., 0., 0., 0., 0., 1.46434322e-004, 0.,
          4.39302967e-004, 0., 2.92868644e-004, 0., 5.85737289e-004,
          4.39302967e-004, 1.46434322e-004, 5.85737289e-004,
          1.46434322e-004, 0., 0., 0., 0., 0., 0., 0., 0., 0., 0., 0.,
          0., 0., 0., 0., 0., 0., 0., 0., 0., 0., 8.78605933e-004, 0.,
          0., 0., 0., 0., 0., 1.17147458e-003, 0., 0., 0.,
          2.92868644e-004, 0., 0., 1.46434316e-003, 0., 0.,
          1.46434322e-004, 0., 0., 0., 0., 0., 0., 0., 0., 0.,
          1.46434322e-004, 0., 0., 0., 0., 0., 0., 0., 0., 0., 0., 0.,
          0., 0., 0., 0., 0., 0., 0., 0., 0., 0., 0., 0., 0., 0., 0., 0.,
          0., 0., 0., 0., 0., 0., 0., 0., 0., 0., 0., 0., 0., 0., 0., 0.,
          0., 0., 0., 0., 0., 0., 0., 0., 0., 0., 0., 0., 0., 0., 0., 0.,
          0., 0., 0., 0., 0., 0., 0., 0., 0., 0., 0., 0., 0., 0., 0., 0.,
          2.92868644e-004, 0., 0., 0., 1.46434322e-004, 0., 0., 0., 0.,
          0., 7.32171582e-004, 0., 0., 1.46434322e-004, 0., 0., 0., 0.,
          2.92868644e-004, 0., 0., 0., 0., 0., 0., 1.46434322e-004, 0.,
          0., 0., 0., 0., 0., 1.90364616e-003, 0., 0., 0.,
          1.46434322e-004, 0., 0., 0., 0., 0., 5.85737289e-004, 0.,
          2.92868644e-004, 0., 0., 0., 0., 0., 0., 0., 0., 0., 0., 0.,
          0., 0., 0., 0., 0., 1.46434322e-004, 0., 0., 0., 0., 0., 0.,
          0., 2.05008057e-003, 0., 0., 0., 0., 4.39302967e-004,
          2.92868644e-004, 0., 0., 0., 0., 7.32171582e-004, 0., 0., 0.,
          0., 0., 0., 0., 0., 5.85737289e-004, 0., 0., 0., 0., 0., 0.,
          0., 0., 0., 0., 0., 0., 0., 0., 0., 0., 0., 0., 0., 0., 0., 0.,
          0., 0., 0., 0., 0., 0., 0., 0., 0., 0., 0., 0., 0., 0., 0., 0.,
          0., 0., 0., 0., 0., 0., 0., 0., 0., 0., 0., 0., 0., 0., 0., 0.,
          0., 0., 0., 0., 0., 0., 0., 0., 0., 0., 0., 0., 0., 0., 0., 0.,
          0., 0., 0., 4.39302967e-004, 0., 0., 0., 0., 0., 0., 0., 0.,
          0., 7.32171582e-004, 0., 7.32171582e-004, 0., 0.,
          4.39302967e-004, 0., 0., 0., 0., 0., 0., 0., 0., 0., 0., 0.,
          0., 0., 0., 0., 0., 0., 0., 0., 0., 0., 0., 0., 0., 0., 0., 0.,
          0., 0., 5.85737289e-004, 0., 0., 0., 0., 0., 0., 0., 0.,
          3.22155515e-003, 0., 0., 0., 2.92868644e-004, 0., 0., 0., 0.,
          0., 0., 0., 1.46434322e-004, 0., 0., 0., 0., 0., 0., 0., 0.,
          0., 0., 0., 2.05008057e-003, 0., 1.46434322e-004, 0., 0., 0.,
          0., 0., 0., 0., 0., 0., 0., 0., 0., 0., 0., 0., 0., 0., 0., 0.,
          0., 0., 0., 0., 0., 0., 0., 0., 0., 0., 0., 0., 0., 0., 0., 0.,
          0., 0., 0., 0., 0., 0., 0., 0., 0., 0., 0., 0., 0., 0., 0., 0.,
          0., 0., 0., 0., 0., 0., 0., 0., 2.48938357e-003, 0., 0., 0.,
          1.17147458e-003, 0., 1.17147458e-003, 0., 1.46434322e-004,
          1.46434322e-004, 0., 0., 0., 0., 1.46434322e-004, 0., 0., 0.,
          0., 0., 0., 4.39302967e-004, 0., 0., 0., 0., 0., 0., 0., 0.,
          0., 0., 0., 0., 0., 0., 0., 0., 2.92868644e-004, 0., 0., 0.,
          0., 0., 0., 0., 0., 0., 0., 0., 1.02504028e-003, 0.,
          5.85737289e-004, 0., 0., 0., 0., 0., 0., 3.22155515e-003, 0.,
          0., 0., 4.39302967e-004, 0., 0., 0., 0., 2.63581774e-003,
          3.07512074e-003, 0., 1.90364616e-003, 0., 0., 0., 0., 0., 0.,
          0., 0., 0., 0., 3.51442373e-003, 0., 0., 0., 0., 0., 0., 0.,
          0., 0., 0., 0., 0., 0., 0., 0., 0., 0., 0., 0., 0., 0., 0., 0.,
          0., 0., 0., 0., 0., 0., 0., 0., 0., 0., 0., 0., 0., 0., 0., 0.,
          0., 0., 0., 0., 0., 0., 0., 0., 0., 0., 0., 0., 0., 0., 0., 0.,
          0., 0., 0., 0., 0., 0., 0., 0., 0., 0., 0., 0.,
          2.92868644e-004, 1.46434322e-004, 4.39302967e-004, 0., 0.,
          2.92868644e-004, 5.85737289e-004, 0., 0., 0., 0., 0., 0., 0.,
          0., 0., 1.46434322e-004, 0., 0., 0., 0., 0., 4.39302967e-004,
          0., 0., 0., 0., 0., 0., 0., 0., 0., 0., 0., 0., 0., 0., 0., 0.,
          0., 0., 0., 0., 0., 2.92868644e-004, 0., 0., 0., 0., 0., 0.,
          0., 1.46434322e-004, 2.92868644e-004, 1.17147458e-003,
          1.02504028e-003, 0., 0., 0., 0., 0., 5.85737289e-004, 0.,
          1.17147458e-003, 0., 8.78605933e-004, 0., 0., 1.46434322e-004,
          1.46434316e-003, 0., 0., 0., 0., 0., 0., 0., 0., 0.,
          2.92868644e-004, 0., 0., 0., 0., 0., 0., 0., 0., 0., 0., 0.,
          0., 0., 0., 0., 4.39302967e-004, 0., 0., 0., 0., 0., 0., 0.,
          0., 0., 0., 0., 0., 0., 0., 0., 0., 0., 0., 0., 0., 0., 0., 0.,
          0., 0., 0., 0., 0., 0., 0., 0., 0., 0., 0., 0., 0., 0., 0., 0.,
          0., 0., 0., 0., 0., 0., 0., 0., 0., 0., 0., 0., 0., 0., 0., 0.,
          0., 0., 0., 2.92868644e-004, 0., 0., 0., 0., 0.,
          4.39302967e-004, 0., 0., 0., 0., 0., 0., 0., 0., 0., 0., 0.,
          0., 1.46434322e-004, 0., 0., 0., 0., 0., 0., 0., 0., 0., 0.,
          0., 0., 0., 0., 0., 0., 0., 0., 0., 0., 0., 0., 0., 0., 0., 0.,
          0., 0., 0., 0., 0., 0., 0., 0., 0., 0., 8.78605933e-004, 0.,
          1.46434322e-004, 4.39302967e-004, 0., 4.39302949e-003, 0., 0.,
          0., 0., 0., 1.46434322e-004, 1.31790887e-003, 0., 0., 0., 0.,
          4.39302967e-004, 0., 0., 0., 8.78605933e-004, 0., 0.,
          1.61077757e-003, 1.46434322e-004, 0., 0., 0., 0., 0., 0., 0.,
          0., 0., 0., 2.92868644e-004, 0., 0., 0., 0., 0., 0., 0., 0.,
          0., 1.46434322e-004, 0., 0., 0., 0., 0., 0., 0., 0., 0., 0.,
          0., 0., 0., 0., 0., 0., 0., 0., 0., 0., 0., 0., 0., 0., 0., 0.,
          0., 0., 0., 0., 0., 0., 0., 0., 0., 0., 0., 0., 0., 0., 0., 0.,
          0., 4.39302967e-004, 0., 0., 0., 0., 0., 0., 0., 0.,
          1.46434322e-004, 1.46434322e-004, 0., 0., 0., 0., 0., 0., 0.,
          0., 0., 0., 0., 0., 0., 0., 0., 0., 0., 0., 0., 0., 0., 0., 0.,
          0., 0., 0., 0., 0., 0., 0., 0., 0., 0., 4.39302967e-004, 0.,
          0., 0., 0., 0., 0., 5.85737289e-004, 2.78225215e-003, 0., 0.,
          0., 0., 0., 0., 0., 1.46434322e-004, 0., 0., 0., 0.,
          8.78605933e-004, 0., 7.32171582e-004, 0., 0., 1.46434322e-004,
          0., 5.85737289e-004, 0., 0., 2.19651475e-003, 1.02504028e-003,
          0., 1.46434322e-004, 1.46434322e-004, 4.39302967e-004,
          3.51442373e-003, 0., 0., 1.02504028e-003, 0., 0., 0.,
          5.85737289e-004, 0., 1.31790887e-003, 7.32171582e-004, 0., 0.,
          0., 0., 0., 1.46434322e-004, 0., 0., 0., 0., 0., 0., 0., 0.,
          0., 0., 0., 0., 1.46434322e-004, 0., 0., 0., 0., 0., 0., 0.,
          0., 0., 0., 0., 0., 0., 0., 0., 0., 0., 0., 0., 0., 0., 0., 0.,
          0., 0., 0., 0., 0., 0., 0., 0., 0., 0., 0., 0., 0., 0., 0., 0.,
          0., 0., 0., 0., 0., 0., 5.85737289e-004, 0., 0.,
          1.46434316e-003, 2.63581774e-003, 2.92868644e-004, 0.,
          1.75721187e-003, 0., 0., 0., 0., 0., 0., 0., 0., 0., 0., 0.,
          0., 0., 0., 0., 0., 0., 0., 0., 0., 0., 0., 0., 0., 0., 0., 0.,
          0., 0., 0., 5.85737289e-004, 0., 0., 1.61077757e-003, 0., 0.,
          0., 0., 0., 1.17147458e-003, 0., 2.34294916e-003,
          1.46434322e-004, 0., 8.78605933e-004, 0., 4.39302967e-004, 0.,
          0., 0., 1.46434322e-004, 2.92868644e-004, 0., 0.,
          5.85737289e-004, 0., 0., 0., 0., 0., 0., 1.46434322e-004, 0.,
          0., 0., 0., 0., 0., 0., 0., 0., 0., 0., 1.02504028e-003, 0.,
          1.46434316e-003, 0., 0., 8.78605933e-004, 0., 0., 0., 0., 0.,
          0., 0., 0., 0., 0., 0., 0., 0., 0., 0., 0., 0., 0., 0., 0., 0.,
          0., 0., 0., 0., 0., 0., 0., 0., 0., 0., 0., 0., 0., 0., 0., 0.,
          0., 0., 0., 0., 0., 0., 0., 0., 0., 0., 0., 0., 0., 0., 0., 0.,
          0., 0., 1.46434322e-004, 0., 0., 2.19651475e-003, 0., 0., 0.,
          0., 0., 3.07512074e-003, 0., 0., 0., 0., 0., 0., 0., 0., 0.,
          0., 0., 0., 0., 0., 0., 0., 0., 0., 0., 0., 0., 0., 0., 0., 0.,
          0., 0., 0., 0., 0., 0., 0., 0., 0., 2.92868644e-004, 0., 0.,
          0., 0., 0., 0., 0., 0., 0., 0., 2.92868633e-003, 0.,
          7.02884747e-003, 0., 0., 0., 8.78605933e-004, 0., 0., 0.,
          7.32171582e-004, 0., 0., 0., 0., 2.92868644e-004,
          8.78605933e-004, 1.61077757e-003, 2.92868644e-004,
          1.75721187e-003, 0., 1.46434322e-004, 0., 0., 1.02504028e-003,
          0., 0., 0., 0., 0., 0., 0., 2.92868644e-004, 0., 0., 0., 0.,
          0., 0., 0., 0., 0., 0., 0., 0., 0., 0., 0., 0., 0., 0., 0., 0.,
          0., 0., 0., 0., 0., 0., 0., 0., 0., 0., 0., 0., 0., 0., 0., 0.,
          0., 0., 0., 0., 0., 0., 0., 0., 0., 0., 0., 0., 0., 0., 0., 0.,
          0., 0., 0., 0., 0., 0., 0., 0., 0., 0., 0., 0.,
          1.75721187e-003, 0., 0., 0., 4.39302967e-004, 0.,
          7.32171582e-004, 0., 0., 1.61077757e-003, 0., 0., 0., 0., 0.,
          4.39302967e-004, 0., 0., 0., 0., 0., 0., 0., 0., 0., 0., 0.,
          0., 0., 0., 0., 0., 0., 0., 0., 0., 0., 0., 0., 0., 0., 0., 0.,
          0., 0., 0., 0., 0., 0., 0., 7.32171582e-004, 0., 0.,
          1.75721187e-003, 0., 4.39302967e-004, 0., 0., 0.,
          2.92868644e-004, 1.46434322e-004, 0., 3.51442373e-003,
          2.92868644e-004, 0., 0., 0., 4.39302967e-004, 2.92868644e-004,
          0., 5.85737289e-004, 0., 0., 0., 1.31790887e-003,
          4.39302967e-004, 4.39302967e-004, 0., 0., 0., 2.92868644e-004,
          0., 0., 8.78605933e-004, 0., 0., 0., 2.92868644e-004, 0.,
          7.32171582e-004, 0., 0., 0., 0., 0., 0., 0., 0., 0., 0., 0.,
          0., 0., 0., 0., 0., 0., 0., 0., 0., 0., 0., 0., 0., 0., 0., 0.,
          0., 0., 0., 0., 0., 0., 0., 0., 0., 0., 0., 0., 0., 0., 0., 0.,
          0., 0., 0., 0., 0., 0., 0., 0., 0., 0., 0., 0., 0., 0., 0., 0.,
          0., 0., 0., 0., 0., 0., 7.32171582e-004, 0., 0.,
          1.02504028e-003, 1.61077757e-003, 4.39302967e-004, 0., 0., 0.,
          0., 1.46434322e-004, 0., 0., 0., 0., 0., 0., 1.46434322e-004,
          0., 0., 0., 0., 0., 0., 0., 0., 0., 0., 0., 0., 0., 0., 0., 0.,
          0., 0., 0., 0., 1.31790887e-003, 1.46434322e-004,
          1.46434322e-004, 2.92868644e-004, 0., 0., 0., 0.,
          1.46434322e-004, 0., 0., 0., 1.75721187e-003, 0., 0., 0., 0.,
          5.27163548e-003, 0., 0., 0., 0., 3.07512074e-003, 0., 0., 0.,
          0., 0., 8.78605933e-004, 0., 0., 0., 0., 2.92868644e-004, 0.,
          0., 0., 0., 0., 0., 0., 0., 4.39302967e-004, 0.,
          1.46434322e-004, 0., 0., 0., 0., 0., 0., 0., 0., 0., 0., 0.,
          0., 1.46434322e-004, 0., 0., 0., 0., 0., 0., 0., 0., 0., 0.,
          0., 0., 0., 0., 0., 0., 0., 0., 0., 0., 0., 0., 0., 0., 0., 0.,
          0., 0., 0., 0., 0., 0., 0., 0., 0., 0., 0., 0., 0., 0., 0., 0.,
          5.85737289e-004, 0., 0., 0., 0., 0., 0., 0., 0.,
          1.46434322e-004, 0., 0., 0., 0., 2.92868644e-004, 0., 0., 0.,
          0., 0., 0., 0., 0., 0., 0., 0., 0., 0., 0., 0., 0., 0., 0., 0.,
          0., 0., 0., 0., 0., 0., 0., 0., 0., 0., 0., 0., 0., 0., 0.,
          1.46434322e-004, 1.46434322e-004, 0., 0., 0., 0., 0., 0., 0.,
          0., 0., 0., 0., 1.46434322e-004, 0., 0., 0., 1.46434316e-003,
          0., 0., 0., 0., 0., 0., 0., 0., 0., 0., 0., 2.92868644e-004,
          0., 1.17147458e-003, 0., 0., 0., 0., 5.85737289e-004, 0., 0.,
          0., 0., 0., 0., 0., 0., 1.46434322e-004, 0., 0., 0., 0., 0.,
          0., 0., 0., 0., 0., 0., 0., 0., 0., 0., 0., 0., 0., 0., 0., 0.,
          0., 0., 0., 0., 0., 0., 0., 0., 0., 0., 0., 0., 0., 0., 0., 0.,
          0., 0., 0., 0., 0., 0., 0., 0., 0., 0., 0., 0., 0., 0., 0., 0.,
          0., 0., 0., 0., 0., 0., 0., 0., 0., 2.92868644e-004, 0., 0.,
          0., 0., 0., 1.46434322e-004, 3.36798932e-003, 0., 0., 0., 0.,
          0., 0., 0., 0., 0., 0., 0., 0., 0., 0., 0., 0.,
          1.46434322e-004, 0., 0., 0., 0., 0., 0., 0., 0., 0., 0., 0.,
          0., 0., 0., 0., 0., 0., 0., 0., 0., 0., 1.46434322e-004,
          2.92868644e-004, 0., 0., 7.32171582e-004, 2.34294916e-003, 0.,
          0., 0., 0., 0., 0., 0., 0., 0., 0., 0., 0., 4.68589831e-003,
          1.17147458e-003, 0., 4.39302967e-004, 0., 0., 0., 0., 0., 0.,
          0., 1.02504028e-003, 0., 0., 0., 0., 0., 0., 0., 0., 0., 0.,
          2.92868644e-004, 0., 1.46434322e-004, 0., 0., 1.46434322e-004,
          0., 0., 0., 0., 0., 0., 0., 0., 0., 0., 0., 0., 0., 0., 0., 0.,
          0., 0., 0., 0., 0., 0., 0., 0., 0., 0., 0., 0., 0., 0., 0., 0.,
          0., 0., 0., 0., 0., 0., 0., 0., 0., 0., 0., 0., 0., 0., 0., 0.,
          0., 0., 0., 0., 0., 8.78605933e-004, 0., 0., 0., 0.,
          1.46434322e-004, 0., 0., 2.92868644e-004, 0., 0., 0.,
          1.46434322e-004, 0., 2.92868644e-004, 0., 0., 0., 0., 0., 0.,
          1.46434322e-004, 0., 0., 0., 0., 0., 0., 0., 0., 0., 0., 0.,
          0., 0., 0., 0., 0., 0., 1.46434322e-004, 0., 0., 0., 0., 0.,
          0., 0., 0., 0., 0., 0., 0., 0., 0., 0., 0., 0., 0.,
          1.17147458e-003, 0., 2.92868644e-004, 3.66085814e-003,
          2.92868644e-004, 1.61077757e-003, 4.39302967e-004, 0., 0.,
          1.75721187e-003, 0., 0., 0., 0., 0., 1.46434316e-003, 0., 0.,
          0., 0., 5.85737289e-004, 7.32171582e-004, 0., 4.39302967e-004,
          0., 0., 0., 0., 0., 0., 0., 0., 0., 0., 0., 0., 0., 0., 0., 0.,
          0., 0., 0., 0., 0., 0., 0., 0., 0., 0., 0., 0., 0., 0., 0., 0.,
          0., 0., 0., 0., 0., 0., 0., 0., 0., 0., 0., 0., 0., 0., 0., 0.,
          0., 0., 0., 0., 0., 0., 0., 0., 0., 0., 0., 0., 0., 0., 0., 0.,
          0., 0., 0., 0., 0., 1.46434322e-004, 0., 0., 0., 0., 0., 0.,
          0., 0., 0., 6.44311029e-003, 1.46434322e-004, 0., 0., 0.,
          7.32171582e-004, 0., 0., 0., 0., 0., 0., 0., 0., 0., 0., 0.,
          0., 0., 0., 0., 0., 0., 0., 0., 0., 0., 0., 0., 0., 0., 0., 0.,
          0., 0., 0., 0., 0., 0., 0., 0., 1.75721187e-003, 0.,
          1.02504028e-003, 0., 0., 0., 0., 0., 0., 1.02504028e-003,
          1.17147458e-003, 0., 0., 0., 0., 0., 0., 0., 0., 0., 0., 0.,
          2.92868644e-004, 0., 4.39302967e-004, 0., 2.92868644e-004, 0.,
          2.92868644e-004, 0., 0., 0., 0., 0., 0., 0., 0., 0., 0., 0.,
          0., 0., 0., 0., 0., 0., 0., 0., 2.92868644e-004, 0., 0., 0.,
          0., 0., 0., 0., 0., 0., 0., 0., 0., 0., 0., 0., 0., 0., 0., 0.,
          0., 0., 0., 0., 0., 0., 0., 0., 0., 0., 0., 0., 0., 0., 0., 0.,
          0., 0., 0., 0., 0., 0., 0., 0., 0., 0., 0., 2.92868644e-004,
          0., 0., 4.39302967e-004, 0., 0., 0., 0., 0., 0., 0.,
          2.92868644e-004, 0., 0., 0., 0., 0., 2.92868644e-004,
          4.39302967e-004, 0., 0., 0., 2.92868644e-004, 0., 0., 0., 0.,
          0., 0., 0., 0., 0., 0., 0., 0., 0., 0., 0., 0., 0., 0., 0., 0.,
          0., 0., 0., 0., 0., 0., 0., 0., 0., 0., 0., 0., 0., 0., 0., 0.,
          4.39302967e-004, 0., 0., 0., 0., 0., 0., 0., 0., 0.,
          2.92868644e-004, 5.85737289e-004, 0., 2.92868633e-003, 0.,
          1.46434322e-004, 0., 0., 0., 0., 0., 5.85737289e-004,
          5.85737289e-004, 0., 0., 0., 0., 0., 0., 1.46434316e-003, 0.,
          5.85737289e-004, 0., 2.34294916e-003, 0., 0., 0., 0., 0., 0.,
          0., 0., 0., 0., 0., 0., 0., 1.46434322e-004, 0., 0., 0., 0.,
          0., 0., 0., 0., 0., 0., 0., 0., 0., 0., 0., 0., 0., 0., 0., 0.,
          0., 0., 0., 0., 0., 0., 0., 0., 0., 0., 0., 0., 0., 0., 0., 0.,
          0., 0., 0., 0., 0., 0., 0., 0., 0., 0., 0., 0., 0., 0.,
          1.46434322e-004, 0., 0., 0., 3.22155515e-003, 4.39302967e-004,
          0., 0., 0., 1.02504028e-003, 0., 1.61077757e-003,
          1.46434322e-004, 0., 0., 0., 0., 0., 0., 0., 0., 0., 0., 0.,
          0., 0., 0., 0., 0., 0., 0., 0., 0., 0., 0., 0., 0., 0., 0., 0.,
          0., 0., 0., 0., 0., 0., 0., 5.85737289e-004, 0., 0., 0., 0.,
          0., 7.32171582e-004, 0., 0., 2.34294916e-003, 7.32171582e-004,
          0., 0., 0., 2.63581774e-003, 0., 0., 0., 0., 0.,
          1.02504028e-003, 0., 0., 1.46434316e-003, 0., 0., 0., 0.,
          7.32171582e-004, 0., 3.36798932e-003, 0., 1.61077757e-003, 0.,
          0., 0., 0., 0., 0., 0., 1.31790887e-003, 0., 0., 0.,
          2.63581774e-003, 0., 0., 0., 0., 0., 0., 0., 0., 0., 0., 0.,
          0., 0., 0., 0., 0., 0., 0., 0., 0., 0., 0., 0., 0., 0., 0., 0.,
          0., 0., 0., 0., 0., 0., 0., 0., 0., 0., 0., 0., 0., 0., 0., 0.,
          0., 0., 0., 0., 0., 0., 0., 0., 0., 0., 0., 0., 0., 0., 0., 0.,
          0., 0., 1.46434322e-004, 0., 0., 0., 0., 0., 0., 0., 0., 0.,
          0., 2.92868644e-004, 0., 0., 0., 0., 0., 0., 0., 0., 0., 0.,
          0., 0., 0., 0., 0., 0., 0., 0., 0., 1.46434322e-004, 0., 0.,
          0., 0., 0., 0., 0., 0., 0., 0., 0., 0., 0., 0., 0., 0., 0., 0.,
          0., 0., 0., 0., 0., 1.46434322e-004, 5.85737289e-004, 0., 0.,
          0., 0., 0., 0., 0., 0., 2.48938357e-003, 0., 0., 0., 0.,
          4.39302967e-004, 0., 1.46434322e-004, 0., 4.39302967e-004, 0.,
          0., 0., 0., 0., 0., 0., 0., 0., 0., 0., 0., 0., 0., 0., 0., 0.,
          0., 0., 0., 0., 0., 0., 0., 0., 0., 0., 0., 0., 0., 0., 0., 0.,
          0., 0., 0., 0., 0., 0., 0., 0., 0., 0., 0., 0., 0., 0., 0., 0.,
          0., 0., 0., 0., 0., 0., 0., 0., 0., 0., 0., 0., 0., 0., 0., 0.,
          0., 0., 0., 0., 0., 0., 0., 0., 0., 0., 0., 1.46434322e-004,
          0., 0., 0., 0., 1.46434322e-004, 0., 0., 0., 0., 0., 0., 0.,
          0., 0., 0., 0., 0., 0., 0., 0., 0., 0., 0., 0., 0., 0., 0., 0.,
          0., 0., 0., 0., 0., 0., 0., 0., 0., 0., 0., 0., 0., 0., 0., 0.,
          0., 0., 0., 0., 0., 0., 0., 2.92868644e-004, 0., 0., 0., 0.,
          1.46434322e-004, 0., 0., 0., 5.85737289e-004, 0., 0.,
          5.85737289e-004, 0., 0., 0., 0., 0., 0., 8.78605933e-004, 0.,
          0., 0., 0., 0., 0., 0., 0., 0., 0., 0., 0., 0., 0., 0.,
          1.46434322e-004, 0., 0., 0., 0., 0., 0., 0., 0., 0., 0., 0.,
          0., 0., 0., 0., 0., 0., 0., 0., 0., 0., 0., 0., 0., 0., 0., 0.,
          0., 0., 0., 0., 0., 0., 0., 0., 0., 0., 0., 0., 0., 0., 0., 0.,
          0., 0., 0., 0., 0., 0., 0., 0., 0., 0., 0., 0., 0., 0., 0., 0.,
          0., 0., 0., 0., 0., 4.39302967e-004, 0., 5.85737289e-004,
          7.32171582e-004, 0., 0., 0., 0., 0., 0., 0., 0., 0., 0., 0.,
          0., 0., 0., 0., 0., 0., 0., 0., 0., 1.46434322e-004, 0., 0.,
          0., 0., 0., 0., 0., 0., 0., 0., 0., 0., 0., 0., 0., 0., 0., 0.,
          0., 1.46434322e-004, 0., 0., 0., 0., 0., 0., 2.92868644e-004,
          1.46434322e-004, 0., 0., 0., 0., 0., 4.39302967e-004, 0., 0.,
          0., 5.85737289e-004, 0., 0., 0., 0., 0., 0., 0., 0., 0., 0.,
          0., 4.39302967e-004, 0., 0., 0., 0., 3.22155515e-003, 0., 0.,
          0., 0., 0., 0., 0., 0., 1.46434322e-004, 0., 1.46434322e-004,
          0., 0., 0., 0., 0., 0., 0., 0., 0., 0., 0., 0., 0., 0., 0., 0.,
          0., 0., 0., 0., 0., 0., 0., 0., 0., 0., 0., 0., 0., 0., 0., 0.,
          0., 0., 0., 0., 0., 0., 0., 0., 0., 0., 0., 0., 0., 0., 0., 0.,
          0., 0., 0., 0., 0., 0., 0., 0., 1.17147458e-003,
          7.32171582e-004, 0., 0., 0., 0., 0., 5.56450430e-003, 0., 0.,
          0., 0., 0., 0., 0., 0., 0., 0., 0., 0., 0., 0., 0., 0., 0., 0.,
          0., 2.92868644e-004, 0., 0., 0., 0., 0., 0., 0., 0., 0., 0.,
          0., 0., 0., 0., 0., 0., 0., 0., 0., 0., 0., 0., 0., 0., 0., 0.,
          0., 0., 0., 0., 0., 0., 0., 0., 0., 0., 0., 0.,
          1.02504028e-003, 0., 0., 1.61077757e-003, 0., 1.31790887e-003,
          0., 4.39302967e-004, 0., 1.17147458e-003, 0., 0., 0., 0.,
          5.85737289e-004, 7.32171582e-004, 0., 0., 0., 0., 0., 0., 0.,
          0., 0., 0., 0., 0., 0., 0., 0., 0., 0., 0., 0., 0., 0., 0., 0.,
          0., 0., 0., 0., 0., 0., 0., 0., 0., 0., 0., 0., 0., 0., 0., 0.,
          0., 0., 0., 0., 0., 0., 0., 0., 0., 0., 0., 0., 0., 0., 0., 0.,
          0., 0., 0., 0., 0., 0., 0., 1.46434322e-004, 5.85737289e-004,
          4.39302967e-004, 0., 0., 0., 0., 0., 0., 0., 4.39302967e-004,
          0., 0., 0., 0., 0., 0., 0., 0., 0., 0., 0., 0., 0., 0., 0., 0.,
          0., 0., 0., 1.46434322e-004, 0., 0., 0., 0., 0., 0., 0., 0.,
          0., 0., 0., 0., 0., 0., 0., 0., 0., 0., 0., 0., 0., 0., 0., 0.,
          0., 0., 0., 0., 0., 0., 0., 0., 0., 0., 0., 0., 0., 0., 0., 0.,
          1.17147458e-003, 0., 8.78605933e-004, 0., 0., 0.,
          6.88241329e-003, 0., 1.46434322e-004, 0., 0., 0., 0.,
          2.92868644e-004, 0., 0., 5.85737289e-004, 0., 1.46434322e-004,
          0., 0., 0., 0., 0., 0., 4.39302967e-004, 0., 0., 0., 0., 0.,
          0., 0., 0., 0., 0., 0., 0., 0., 0., 0., 0., 0., 0., 0., 0., 0.,
          0., 0., 0., 0., 0., 0., 0., 0., 0., 0., 0., 0., 0., 0., 0., 0.,
          0., 0., 0., 0., 0., 0., 0., 0., 0., 0., 0., 0., 0., 0., 0., 0.,
          0., 0., 7.32171582e-004, 0., 0., 0., 0., 0., 2.48938357e-003,
          0., 0., 0., 0., 0., 0., 0., 0., 0., 0., 0., 0., 0., 0., 0., 0.,
          0., 0., 0., 0., 0., 0., 0., 0., 0., 0., 0., 0., 0., 0., 0., 0.,
          0., 0., 0., 0., 0., 0., 0., 0., 0., 0., 0., 0., 0., 0., 0., 0.,
          0., 0., 0., 0., 0., 0., 0., 0., 0., 0., 0., 5.85737289e-004,
          0., 0., 5.85737289e-004, 0., 1.61077757e-003, 2.92868644e-004,
          0., 0., 1.46434322e-004, 4.39302967e-004, 0., 0., 0., 0., 0.,
          0., 0., 0., 0., 0., 0., 0., 0., 0., 0., 0., 0., 0., 0., 0., 0.,
          1.46434322e-004, 0., 0., 0., 0., 0., 0., 0., 0., 0., 0., 0.,
          0., 0., 0., 0., 0., 0., 0., 0., 0., 0., 0., 0., 0., 0., 0., 0.,
          0., 0., 0., 0., 0., 0., 0., 0., 0., 0., 0., 0., 0., 0., 0., 0.,
          0., 0., 0., 0., 0., 1.46434322e-004, 0., 0., 0., 0.,
          1.75721187e-003, 5.85737289e-004, 0., 0., 0., 0., 0., 0., 0.,
          5.85737289e-004, 0., 0., 0., 2.92868644e-004, 0., 0., 0., 0.,
          0., 0., 0., 0., 0., 0., 0., 0., 0., 0., 0., 0., 0., 0., 0., 0.,
          0., 0., 0., 0., 0., 0., 0., 0., 0., 0., 0., 0., 0., 0., 0., 0.,
          0., 0., 0., 0., 0., 0., 0., 0., 0., 0., 0., 0., 0., 0., 0.,
          2.92868644e-004, 0., 0., 1.02504028e-003, 0., 0., 0., 0., 0.,
          0., 0., 0., 0., 0., 1.46434322e-004, 0., 0., 0., 0.,
          1.46434322e-004, 0., 0., 7.32171582e-004, 0., 0., 0., 0., 0.,
          0., 0., 0., 0., 0., 0., 0., 0., 0., 0., 0., 0., 0., 0., 0., 0.,
          0., 0., 0., 0., 0., 0., 0., 0., 0., 0., 0., 0., 0., 0., 0., 0.,
          0., 0., 0., 0., 0., 0., 0., 0., 0., 0., 0., 0., 0., 0., 0., 0.,
          0., 0., 0., 0., 0., 0., 0., 0., 0., 0., 0., 1.02504028e-003,
          1.46434322e-004, 0., 0., 0., 0., 0., 0., 0., 0., 0., 0., 0.,
          0., 0., 0., 0., 0., 0., 0., 0., 0., 0., 0., 0., 0., 0., 0.,
          1.46434322e-004, 0., 0., 0., 0., 0., 0., 0., 0., 0., 0., 0.,
          0., 0., 0., 0., 0., 0., 0., 0., 0., 0., 0., 0., 0., 0., 0., 0.,
          0., 0., 0., 0., 0., 1.46434322e-004, 0., 1.02504028e-003,
          1.46434316e-003, 0., 0., 0., 1.31790887e-003, 2.92868644e-004,
          2.92868644e-004, 0., 0., 0., 0., 0., 0., 0., 0., 0., 0., 0.,
          0., 0., 0., 0., 0., 0., 1.46434322e-004, 0., 0., 0.,
          7.32171582e-004, 0., 0., 0., 0., 0., 0., 0., 0., 0., 0., 0.,
          0., 0., 0., 0., 0., 0., 0., 0., 0., 0., 0., 0., 0., 0., 0., 0.,
          0., 0., 0., 0., 0., 0., 0., 0., 0., 0., 0., 0., 0., 0., 0., 0.,
          0., 0., 0., 0., 0., 0., 0., 0., 0., 0., 0., 0., 0., 0., 0., 0.,
          0., 0., 1.17147458e-003, 0., 0., 0., 0., 0., 0., 0., 0., 0.,
          0., 0., 0., 0., 0., 0., 0., 0., 0., 0., 0., 0., 0., 0., 0., 0.,
          0., 0., 0., 0., 0., 0., 0., 0., 0., 0., 0., 0., 0., 0., 0., 0.,
          0., 0., 0., 0., 0., 0., 4.39302967e-004, 0., 0.,
          1.02504028e-003, 0., 0., 0., 4.39302967e-004, 0., 0., 0.,
          1.46434322e-004, 0., 0., 0., 0., 2.92868644e-004, 0., 0., 0.,
          1.46434322e-004, 0., 0., 1.46434316e-003, 0., 1.46434322e-004,
          0., 0., 0., 8.78605933e-004, 0., 0., 0., 0., 0., 0., 0., 0.,
          0., 0., 0., 0., 0., 0., 0., 0., 0., 0., 0., 0., 0., 0., 0., 0.,
          0., 0., 0., 0., 0., 0., 0., 0., 0., 0., 0., 0., 0., 0., 0., 0.,
          0., 0., 0., 0., 0., 0., 0., 0., 0., 0., 0., 0., 0., 0., 0., 0.,
          0., 0., 0., 0., 0., 0., 0., 0., 0., 0., 0., 0., 0., 0., 0., 0.,
          1.75721187e-003, 0., 0., 1.61077757e-003, 0., 0., 0., 0., 0.,
          0., 0., 0., 0., 0., 0., 0., 0., 0., 0., 0., 0., 0., 0., 0., 0.,
          0., 0., 0., 0., 0., 0., 0., 0., 0., 0., 0., 0., 0., 0., 0., 0.,
          1.46434322e-004, 0., 0., 0., 0., 0., 0., 0., 0., 0., 0.,
          1.17147458e-003, 0., 0., 0., 0., 0., 0., 0., 0.,
          1.46434316e-003, 0., 0., 0., 0., 0., 0., 0., 0., 0., 0.,
          1.46434322e-004, 0., 0., 0., 0., 0., 0., 0., 0., 0., 0., 0.,
          0., 4.39302967e-004, 0., 0., 0., 0., 0., 0., 0., 0., 0., 0.,
          0., 0., 0., 0., 0., 0., 0., 0., 0., 0., 0., 0., 0., 0., 0., 0.,
          0., 0., 0., 0., 0., 0., 0., 0., 0., 0., 0., 0., 0., 0., 0., 0.,
          0., 0., 0., 0., 0., 0., 0., 1.46434322e-004, 0.,
          8.78605933e-004, 0., 0., 0., 0., 0., 4.53946413e-003, 0., 0.,
          0., 0., 0., 0., 0., 0., 0., 0., 0., 0., 1.46434322e-004, 0.,
          0., 0., 0., 0., 0., 0., 0., 0., 1.46434322e-004, 0., 0., 0.,
          0., 0., 0., 0., 0., 0., 0., 0., 0., 0., 0., 0., 0., 0., 0., 0.,
          0., 0., 0., 0., 0., 0., 0., 0., 0., 0., 0., 0., 0., 0., 0.,
          2.92868644e-004, 5.85737289e-004, 1.46434322e-004, 0., 0.,
          1.31790887e-003, 0., 0., 1.02504028e-003, 0., 5.85737289e-004,
          0., 0., 0., 7.32171582e-004, 2.92868644e-004, 0., 0., 0., 0.,
          4.39302967e-004, 0., 0., 0., 0., 0., 0., 0., 0., 0., 0., 0.,
          0., 0., 0., 0., 0., 0., 0., 0., 0., 0., 0., 0., 0., 0., 0., 0.,
          0., 0., 0., 0., 0., 0., 0., 0., 0., 0., 0., 0., 0., 0., 0., 0.,
          0., 0., 0., 0., 0., 0., 0., 0., 0., 0., 0., 0., 0., 0., 0., 0.,
          0., 0., 0., 0., 0., 0., 0., 0., 0., 0., 0., 0.,
          5.85737289e-004, 0., 0., 0., 0., 1.02504028e-003, 0., 0., 0.,
          0., 1.46434322e-004, 0., 0., 0., 0., 0., 0., 5.85737289e-004,
          0., 0., 0., 0., 0., 0., 0., 0., 0., 0., 0., 0., 0., 0., 0., 0.,
          0., 0., 0., 0., 0., 0., 0., 0., 0., 0., 0., 0., 0., 0., 0., 0.,
          0., 2.92868644e-004, 0., 0., 0., 0., 1.02504028e-003, 0., 0.,
          4.39302967e-004, 0., 1.46434322e-004, 0., 2.48938357e-003,
          4.39302967e-004, 0., 0., 5.85737289e-004, 0., 2.92868644e-004,
          0., 4.24659532e-003, 0., 0., 0., 0., 0., 0., 0., 0., 0., 0.,
          0., 0., 1.46434322e-004, 0., 0., 1.46434322e-004, 0., 0., 0.,
          0., 0., 0., 0., 0., 0., 0., 0., 0., 0., 0., 0., 0., 0., 0., 0.,
          0., 0., 0., 0., 0., 0., 0., 0., 0., 0., 0., 0., 0., 0., 0., 0.,
          0., 0., 0., 0., 0., 0., 0., 0., 0., 0., 0., 0., 0.,
          1.46434322e-004, 0., 0., 0., 0., 0., 0., 0., 0., 0., 0., 0.,
          0., 7.32171582e-004, 0., 0., 2.92868644e-004, 0., 0., 0., 0.,
          0., 0., 0., 0., 0., 0., 0., 0., 0., 0., 0., 0., 0.,
          1.46434322e-004, 0., 0., 0., 0., 0., 0., 0., 0., 0., 0., 0.,
          0., 0., 0., 0., 0., 0., 0., 0., 0., 0., 0., 0., 0., 0., 0., 0.,
          0., 0., 0., 0., 1.90364616e-003, 0., 0., 0., 0., 0., 0., 0.,
          0., 0., 2.92868644e-004, 0., 1.46434322e-004, 8.78605933e-004,
          0., 0., 0., 0., 0., 0., 0., 0., 0., 0., 0., 0., 0., 0., 0., 0.,
          0., 0., 0., 0., 0., 0., 0., 0., 0., 0., 0., 0., 0., 0., 0., 0.,
          0., 0., 0., 0., 0., 0., 0., 0., 0., 0., 0., 0., 0., 0., 0., 0.,
          0., 0., 0., 0., 0., 0., 0., 0., 0., 0., 0., 0., 0., 0., 0., 0.,
          0., 0., 0., 2.92868644e-004, 0., 0., 0., 0., 0., 0.,
          4.39302967e-004, 0., 0., 0., 0., 0., 0., 0., 0., 0.,
          4.39302967e-004, 4.39302967e-004, 0., 0., 0., 0., 0., 0.,
          1.46434322e-004, 0., 0., 0., 0., 0., 0., 0., 0., 0., 0., 0.,
          0., 0., 0., 0., 2.92868644e-004, 0., 0., 0., 0., 0., 0., 0.,
          0., 0., 0., 0., 0., 0., 0., 0., 0., 0., 0., 0., 0., 0., 0., 0.,
          0., 0., 0., 2.05008057e-003, 0., 1.46434322e-004, 0.,
          4.83233249e-003, 0., 0., 0., 0., 1.46434322e-004, 0.,
          1.02504028e-003, 0., 0., 0., 0., 0., 0., 0., 0., 0.,
          1.46434322e-004, 0., 0., 0., 0., 0., 0., 0., 0., 0., 0., 0.,
          0., 0., 0., 0., 0., 0., 0., 0., 0., 0., 0., 0., 0., 0., 0., 0.,
          0., 0., 0., 0., 0., 0., 0., 0., 0., 0., 0., 0., 0., 0., 0., 0.,
          0., 0., 0., 0., 0., 0., 0., 0., 0., 0., 0., 0., 0., 0., 0., 0.,
          0., 0., 0., 0., 0., 0., 0., 0., 0., 0., 0., 5.85737289e-004,
          0., 0., 0., 2.92868644e-004, 0., 0., 0., 0., 1.90364616e-003,
          0., 0., 0., 0., 0., 0., 0., 0., 1.46434322e-004, 0., 0., 0.,
          0., 0., 0., 0., 0., 1.46434322e-004, 0., 0., 0., 0., 0., 0.,
          0., 0., 0., 0., 0., 0., 2.92868644e-004, 0., 0., 0., 0., 0.,
          0., 0., 0., 0., 0., 0., 0., 0., 0., 1.46434322e-004, 0., 0.,
          0., 0., 0., 0., 0., 0., 2.48938357e-003, 0., 0., 0., 0., 0.,
          4.39302967e-004, 5.85737289e-004, 2.92868644e-004,
          1.17147458e-003, 0., 0., 0., 0., 0., 0., 0., 0., 0., 0., 0.,
          0., 0., 0., 0., 0., 0., 0., 0., 0., 0., 0., 0., 0., 0., 0., 0.,
          0., 0., 0., 0., 0., 0., 0., 0., 0., 0., 0., 0., 0., 0., 0., 0.,
          0., 0., 0., 0., 0., 0., 0., 0., 0., 0., 0., 0., 0., 0., 0., 0.,
          0., 0., 0., 0., 0., 0., 0., 0., 0., 0., 0., 0., 0., 0.,
          2.92868644e-004, 0., 0., 0., 0., 0., 0., 0., 0., 0., 0., 0.,
          0., 0., 1.02504028e-003, 0., 0., 2.34294916e-003, 0., 0., 0.,
          0., 0., 0., 0., 0., 0., 0., 0., 0., 0., 0., 0., 0., 0., 0., 0.,
          0., 0., 0., 0., 0., 0., 0., 0., 0., 0., 0., 0., 0., 0., 0., 0.,
          0., 0., 0., 0., 0., 1.46434322e-004, 0., 0., 0., 0., 0.,
          2.92868644e-004, 0., 0., 0., 8.78605933e-004, 0., 0.,
          1.75721187e-003, 0., 0., 4.39302967e-004, 0., 0., 0., 0.,
          2.92868644e-004, 0., 0., 0., 0., 0., 0., 0., 0., 0., 0., 0.,
          0., 0., 0., 0., 0., 0., 0., 0., 0., 0., 0., 0., 0., 0., 0., 0.,
          0., 0., 0., 0., 0., 0., 0., 0., 0., 0., 0., 0., 0., 0., 0., 0.,
          0., 0., 0., 0., 0., 0., 0., 0., 0., 0., 0., 0., 0., 0., 0., 0.,
          0., 0., 0., 0., 0., 0., 0., 0., 0., 0., 0., 0., 0., 0., 0., 0.,
          0., 0., 0., 0., 0., 0., 0., 0., 0., 0., 8.78605933e-004,
          7.32171582e-004, 0., 1.46434322e-004, 0., 0., 0., 0., 0., 0.,
          0., 0., 0., 0., 0., 0., 0., 0., 0., 0., 0., 0., 0., 0.,
          1.46434322e-004, 0., 0., 0., 0., 0., 0., 0., 0., 0., 0.,
          1.46434322e-004, 0., 0., 0., 0., 0., 0., 0., 0., 0., 0., 0.,
          0., 8.78605933e-004, 0., 0., 0., 2.05008057e-003, 0.,
          7.32171582e-004, 0., 0., 5.85737289e-004, 0., 0., 0., 0., 0.,
          1.46434322e-004, 0., 0., 0., 0., 0., 0., 0., 0., 0., 0., 0.,
          0., 0., 0., 0., 0., 0., 0., 0., 0., 0., 0., 0., 0., 0., 0., 0.,
          0., 0., 0., 0., 0., 0., 0., 0., 0., 0., 0., 0., 0., 0., 0., 0.,
          0., 0., 0., 0., 0., 0., 0., 0., 0., 0., 0., 0., 0., 0., 0., 0.,
          0., 0., 0., 0., 0., 0., 0., 0., 0., 0., 1.46434322e-004, 0.,
          0., 0., 0., 0., 2.92868644e-004, 0., 2.92868644e-004,
          1.46434322e-004, 1.90364616e-003, 1.46434322e-004, 0., 0.,
          2.34294916e-003, 0., 8.78605933e-004, 0., 0., 2.92868644e-004,
          0., 0., 1.02504028e-003, 1.46434322e-004, 0., 0., 0., 0., 0.,
          0., 0., 0., 0., 0., 0., 0., 0., 0., 0., 0., 0., 0., 0., 0., 0.,
          0., 0., 0., 0., 0., 0., 0., 0., 0., 1.46434322e-004, 0.,
          1.75721187e-003, 0., 0., 0., 0., 1.46434322e-004, 0., 0.,
          3.51442373e-003, 1.31790887e-003, 0., 0., 0., 0., 0., 0.,
          1.31790887e-003, 0., 0., 0., 0., 5.85737289e-004, 0., 0., 0.,
          0., 0., 0., 0., 0., 0., 0., 0., 0., 0., 0., 0., 0., 0., 0., 0.,
          0., 0., 0., 0., 0., 0., 0., 0., 0., 0., 0., 0., 0., 0., 0., 0.,
          0., 0., 0., 0., 0., 0., 0., 0., 0., 0., 0., 0., 0., 0., 0., 0.,
          0., 0., 0., 0., 0., 0., 0., 0., 0., 0., 0., 0., 0., 0., 0., 0.,
          0., 0., 0., 0., 0., 0., 0., 0., 0., 0., 0., 0., 0., 0.,
          2.92868644e-004, 0., 0., 0., 0., 0., 0., 0., 0., 0., 0., 0.,
          0., 0., 0., 0., 0., 0., 0., 0., 1.46434322e-004, 0., 0., 0.,
          0., 0., 0., 0., 0., 1.46434322e-004, 0., 0., 0., 0., 0., 0.,
          0., 0., 0., 0., 0., 0., 0., 0., 0., 4.39302967e-004, 0., 0.,
          0., 0., 0., 0., 0., 2.05008057e-003, 0., 0., 5.85737289e-004,
          0., 0., 0., 0., 2.92868644e-004, 1.46434322e-004, 0., 0., 0.,
          0., 0., 0., 0., 0., 0., 0., 0., 0., 0., 1.46434322e-004, 0.,
          0., 0., 0., 0., 0., 0., 0., 0., 0., 0., 0., 0., 0., 0., 0., 0.,
          0., 0., 0., 0., 0., 0., 0., 0., 0., 0., 0., 0., 0., 0., 0., 0.,
          0., 0., 0., 0., 0., 0., 0., 0., 0., 0., 0., 0., 0., 0., 0., 0.,
          0., 0., 0., 0., 0., 0., 0., 0., 0., 0., 0., 0., 0., 0., 0., 0.,
          0., 0., 0., 0., 0., 1.17147458e-003, 0., 0., 0., 0., 0., 0.,
          0., 0., 0., 0., 1.46434322e-004, 0., 0., 0., 0., 0., 0., 0.,
          0., 0., 0., 0., 0., 1.46434322e-004, 0., 0., 0., 0., 0., 0.,
          0., 0., 0., 0., 0., 0., 0., 0., 0., 0., 0., 0., 0., 0., 0., 0.,
          0., 0., 0., 0., 1.46434322e-004, 0., 0., 0., 1.46434322e-004,
          0., 2.92868644e-004, 0., 4.97876713e-003, 0., 0., 0., 0., 0.,
          0., 0., 0., 0., 0., 0., 4.39302967e-004, 0., 0., 0.,
          1.46434322e-004, 0., 0., 0., 0., 0., 0., 0., 0., 0., 0., 0.,
          0., 0., 0., 0., 0., 0., 0., 0., 0., 0., 0., 0., 0., 0., 0., 0.,
          0., 0., 0., 0., 0., 0., 0., 0., 0., 0., 0., 0., 0., 0., 0., 0.,
          0., 0., 0., 0., 0., 0., 0., 0., 0., 0., 0., 0., 0., 0., 0., 0.,
          0., 0., 0., 0., 0., 0., 0., 0., 0., 0., 0., 0., 0., 0., 0., 0.,
          0., 0., 0., 0., 0., 0., 0., 0., 0., 0., 0., 0., 0., 0., 0., 0.,
          0., 0., 0., 0., 0., 0., 5.85737289e-004, 0., 0., 0., 0., 0.,
          1.46434322e-004, 0., 0., 0., 2.92868644e-004, 0., 0., 0., 0.,
          0., 0., 0., 0., 0., 0., 0., 0., 0., 0., 0., 0., 0., 0., 0., 0.,
          0., 7.17528164e-003, 0., 0., 0., 0., 0., 0., 0.,
          1.46434322e-004, 1.46434322e-004, 5.85737289e-004, 0., 0., 0.,
          0., 0., 0., 0., 0., 0., 0., 0., 0., 0., 0., 0., 0., 0., 0., 0.,
          0., 0., 0., 0., 0., 0., 0., 0., 0., 0., 0., 0., 0., 0., 0., 0.,
          0., 0., 0., 0., 0., 0., 0., 0., 0., 0., 0., 0., 0., 0., 0., 0.,
          0., 0., 0., 0., 0., 0., 0., 0., 0., 0., 0., 0., 0., 0., 0., 0.,
          0., 0., 0., 0., 0., 0., 0., 0., 0., 0., 2.92868644e-004, 0.,
          0., 0., 0., 0., 0., 0., 0., 0., 0., 0., 0., 0., 0., 0., 0., 0.,
          1.46434322e-004, 0., 0., 0., 0., 0., 0., 0., 0., 0., 0., 0.,
          0., 0., 0., 0., 0., 1.46434322e-004, 0., 0., 1.46434322e-004,
          0., 0., 0., 0., 5.85737289e-004, 0., 0., 0., 0., 0., 0., 0.,
          0., 0., 0., 0., 0., 0., 0., 2.92868644e-004, 0., 0.,
          3.22155515e-003, 0., 1.02504028e-003, 0., 0., 0.,
          3.80729232e-003, 0., 1.75721187e-003, 0., 0., 0., 0., 0., 0.,
          0., 0., 2.92868644e-004, 0., 0., 0., 0., 0., 0., 0., 0., 0.,
          0., 0., 0., 0., 0., 0., 0., 0., 0., 0., 0., 0., 0., 0., 0., 0.,
          0., 0., 0., 0., 0., 0., 0., 0., 0., 0., 0., 0., 0., 0., 0., 0.,
          0., 0., 0., 0., 0., 0., 0., 0., 0., 0., 0., 0., 0., 0., 0., 0.,
          0., 0., 0., 0., 0., 0., 0., 0., 0., 0., 0., 0., 0., 0., 0., 0.,
          0., 0., 0., 0., 0., 0., 1.46434322e-004, 0., 0., 0., 0., 0.,
          0., 0., 0., 1.17147458e-003, 0., 0., 2.92868644e-004, 0., 0.,
          0., 5.85737289e-004, 0., 0., 0., 0., 0., 1.61077757e-003, 0.,
          0., 0., 0., 0., 0., 0., 1.46434322e-004, 8.78605933e-004, 0.,
          0., 0., 0., 0., 0., 0., 0., 0., 0., 0., 0., 0.,
          1.46434322e-004, 1.46434322e-004, 0., 0., 5.85737289e-004, 0.,
          0., 1.75721187e-003, 0., 0., 2.05008057e-003, 0., 0., 0.,
          1.46434322e-004, 0., 0., 1.17147458e-003, 1.46434322e-004, 0.,
          0., 0., 0., 0., 0., 0., 0., 0., 0., 0., 0., 0., 0., 0., 0., 0.,
          0., 0., 0., 0., 0., 0., 0., 0., 0., 0., 0., 0., 0., 0., 0., 0.,
          0., 0., 0., 0., 0., 0., 0., 0., 0., 0., 0., 0., 0., 0., 0., 0.,
          0., 0., 0., 0., 0., 0., 0., 0., 0., 0., 0., 0., 0., 0., 0., 0.,
          0., 0., 0., 0., 0., 0., 0., 0., 0., 0., 0., 0., 0., 0., 0., 0.,
          0., 0., 0., 0., 0., 0., 0., 0., 4.39302967e-004,
          1.46434322e-004, 4.39302967e-004, 0., 0., 0., 0., 0.,
          1.02504028e-003, 0., 0., 1.46434322e-004, 0., 0.,
          4.39302967e-004, 0., 0., 1.02504028e-003, 0., 0., 0., 0., 0.,
          5.85737289e-004, 0., 0., 0., 0., 0., 0., 0., 0., 0., 0., 0.,
          0., 0., 0., 0., 0., 0., 0., 0., 1.75721187e-003, 0., 0., 0.,
          1.02504028e-003, 0., 3.22155515e-003, 0., 0., 0.,
          2.78225215e-003, 0., 7.32171582e-004, 0., 2.92868644e-004, 0.,
          0., 0., 0., 0., 0., 0., 0., 1.46434322e-004, 0., 0., 0., 0.,
          0., 0., 0., 0., 0., 0., 0., 0., 0., 0., 0., 0., 0., 0., 0., 0.,
          0., 0., 0., 0., 0., 0., 0., 0., 0., 0., 0., 0., 0., 0., 0., 0.,
          0., 0., 0., 0., 0., 0., 0., 0., 0., 0., 0., 0., 0., 0., 0., 0.,
          0., 0., 0., 0., 0., 0., 0., 0., 0., 0., 0., 0., 0., 0., 0., 0.,
          0., 0., 0., 0., 0., 0., 0., 1.46434322e-004, 0.,
          1.46434322e-004, 0., 5.85737289e-004, 0., 0., 0., 0., 0., 0.,
          3.66085814e-003, 0., 1.46434322e-004, 1.46434322e-004, 0., 0.,
          0., 0., 0., 0., 0., 0., 0., 0., 0., 0., 0., 0., 0., 0., 0., 0.,
          0., 0., 0., 0., 0., 4.39302967e-004, 0., 0., 0., 0., 0.,
          4.39302967e-004, 0., 0., 0., 1.46434322e-004, 0., 0., 0., 0.,
          1.46434316e-003, 0., 0., 0., 0., 0., 0., 7.32171582e-004,
          1.31790887e-003, 1.02504028e-003, 0., 0., 1.31790887e-003,
          1.61077757e-003, 1.46434322e-004, 0., 0., 0., 0., 0., 0., 0.,
          0., 0., 0., 0., 0., 0., 0., 0., 0., 0., 0., 0., 0., 0., 0., 0.,
          0., 0., 0., 0., 0., 0., 0., 0., 0., 0., 0., 0., 0., 0., 0., 0.,
          0., 0., 0., 0., 0., 0., 0., 0., 0., 0., 0., 0., 0., 0., 0., 0.,
          0., 0., 0., 0., 0., 0., 0., 0., 0., 0., 0., 0., 0., 0., 0., 0.,
          0., 0., 0., 0., 0., 0., 0., 0., 0., 0., 0., 0., 0., 0.,
          1.02504028e-003, 0., 0., 1.46434322e-004, 1.46434322e-004, 0.,
          0., 0., 0., 0., 0., 1.46434322e-004, 1.46434322e-004, 0., 0.,
          0., 0., 0., 0., 1.31790887e-003, 0., 0., 0., 0., 0., 0., 0.,
          0., 0., 0., 0., 0., 0., 0., 0., 0., 0., 1.46434316e-003, 0.,
          0., 0., 0., 0., 0., 0., 0., 0., 0., 0., 0., 0., 0.,
          4.10016114e-003, 2.92868644e-004, 1.02504028e-003, 0., 0., 0.,
          0., 0., 0., 0., 0., 0., 0., 0., 0., 0., 0., 0., 0., 0., 0., 0.,
          0., 0., 0., 0., 0., 0., 0., 0., 0., 0., 0., 0., 0., 0., 0., 0.,
          0., 0., 0., 0., 0., 0., 0., 0., 0., 0., 0., 0., 0., 0., 0., 0.,
          0., 0., 0., 0., 0., 0., 0., 0., 0., 0., 0., 0., 0., 0., 0., 0.,
          0., 0., 0., 0., 0., 0., 0., 0., 0., 0., 0., 0., 0., 0., 0., 0.,
          0., 0., 0., 0., 0., 1.46434322e-004, 0., 0., 0., 0., 0., 0.,
          0., 0., 0., 0., 0., 0., 0., 0., 0., 0., 0., 0., 0.,
          1.46434322e-004, 0., 0., 2.63581774e-003, 0., 3.66085814e-003,
          2.78225215e-003, 0., 1.46434322e-004, 0., 0., 0., 0.,
          4.39302967e-004, 0., 0., 0., 0., 0., 0., 0., 0.,
          2.78225215e-003, 0., 0., 0., 0., 0., 0., 0., 0., 0., 0., 0.,
          0., 0., 2.92868644e-004, 2.19651475e-003, 0., 0., 0.,
          1.46434322e-004, 0., 0., 0., 1.46434316e-003, 0., 0., 0., 0.,
          0., 0., 0., 0., 0., 0., 1.46434322e-004, 0., 0., 0., 0., 0.,
          0., 0., 0., 0., 0., 0., 0., 0., 0., 0., 0., 0., 0., 0., 0., 0.,
          0., 0., 0., 0., 0., 0., 0., 0., 0., 0., 0., 0., 0., 0., 0., 0.,
          0., 0., 0., 0., 0., 0., 0., 0., 0., 0., 0., 0., 0., 0., 0., 0.,
          0., 0., 0., 0., 0., 0., 0., 0., 0., 0., 0., 0., 0., 0., 0., 0.,
          0., 0., 0., 0., 0., 2.92868644e-004, 0., 4.39302967e-004, 0.,
          0., 0., 0., 0., 0., 0., 0., 0., 0., 0., 4.39302967e-004, 0.,
          0., 0., 0., 0., 0., 0., 0., 0., 0., 0., 0., 0., 0., 0.,
          2.92868644e-004, 0., 0., 0., 0., 0., 0., 0., 0., 0., 0.,
          1.46434322e-004, 0., 0., 0., 0., 0., 2.34294916e-003, 0., 0.,
          0., 0., 0., 0., 0., 0., 0., 0., 0., 0., 0., 1.46434322e-004,
          1.31790887e-003, 1.46434316e-003, 0., 0., 5.85737289e-004, 0.,
          0., 0., 0., 0., 0., 0., 0., 0., 0., 0., 0., 0., 0., 0., 0., 0.,
          0., 0., 0., 0., 0., 0., 0., 0., 0., 0., 0., 0., 0., 0., 0., 0.,
          0., 0., 0., 0., 0., 0., 0., 0., 0., 0., 0., 0., 0., 0., 0., 0.,
          0., 0., 0., 0., 0., 0., 0., 0., 0., 0., 0., 0., 0., 0., 0., 0.,
          0., 0., 0., 0., 0., 0., 0., 0., 0., 0., 0., 0., 0., 0., 0., 0.,
          0., 5.85737289e-004, 0., 2.92868644e-004, 0., 0., 0., 0., 0.,
          0., 0., 0., 0., 0., 0., 0., 0., 0., 0., 0., 0.,
          1.46434322e-004, 0., 0., 0., 0., 0., 0., 0., 0., 0., 0., 0.,
          0., 0., 0., 0., 0., 0., 0., 0., 0., 0., 0., 0., 0., 0., 0., 0.,
          0., 0., 0., 0., 0., 0., 0., 0., 0., 0., 0., 3.66085814e-003,
          0., 2.19651475e-003, 0., 0., 0., 1.90364616e-003,
          1.46434322e-004, 0., 1.46434322e-004, 0., 0., 0., 0., 0., 0.,
          0., 0., 1.46434322e-004, 0., 0., 0., 0., 0., 0., 0., 0., 0.,
          0., 0., 0., 0., 0., 0., 0., 0., 0., 0., 0., 0., 0., 0., 0., 0.,
          0., 0., 0., 0., 0., 0., 0., 0., 0., 0., 0., 0., 0., 0., 0., 0.,
          0., 0., 0., 0., 0., 0., 0., 0., 0., 0., 0., 0., 0., 0., 0., 0.,
          0., 0., 0., 0., 0., 0., 0., 0., 0., 0., 0., 0., 0., 0., 0., 0.,
          0., 0., 0., 0., 0., 0., 0., 0., 0., 0., 0., 0.,
          1.46434322e-004, 0., 0., 4.39302967e-004, 0., 8.78605933e-004,
          0., 1.46434322e-004, 1.75721187e-003, 1.17147458e-003,
          2.92868644e-004, 0., 0., 0., 0., 0., 0., 0., 0., 0., 0., 0.,
          0., 0., 0., 0., 0., 0., 0., 0., 0., 7.32171582e-004, 0., 0.,
          8.78605933e-004, 0., 0., 0., 0., 1.46434316e-003, 0., 0., 0.,
          0., 0., 0., 0., 0., 0., 1.75721187e-003, 1.17147458e-003, 0.,
          0., 0., 1.46434322e-004, 0., 0., 0., 0., 0., 0., 0., 0., 0.,
          0., 0., 0., 0., 0., 0., 0., 0., 0., 0., 0., 0., 0., 0., 0., 0.,
          0., 0., 0., 0., 0., 0., 0., 0., 0., 0., 0., 0., 0., 0., 0., 0.,
          0., 0., 0., 0., 0., 0., 0., 0., 0., 0., 0., 0., 0., 0., 0., 0.,
          0., 0., 0., 0., 0., 0., 0., 0., 0., 0., 0., 0., 0., 0., 0., 0.,
          0., 0., 0., 0., 0., 0., 0., 1.46434322e-004, 0., 0., 0.,
          8.78605933e-004, 0., 0., 0., 0., 0., 0., 0., 0., 0., 0., 0.,
          0., 0., 0., 0., 0., 0., 0., 0., 0., 0., 0., 0., 0., 0.,
          1.46434322e-004, 1.46434322e-004, 1.46434322e-004, 0.,
          2.92868644e-004, 1.02504028e-003, 0., 0., 0., 7.32171582e-004,
          0., 0., 0., 0., 0., 0., 0., 0., 0., 0., 2.48938357e-003, 0.,
          0., 0., 0., 1.02504028e-003, 0., 0., 0., 0., 0., 0., 0., 0.,
          0., 0., 0., 0., 0., 0., 0., 0., 0., 0., 2.92868644e-004, 0.,
          0., 0., 0., 0., 0., 0., 0., 0., 0., 0., 0., 0., 0., 0., 0., 0.,
          0., 0., 0., 0., 0., 0., 0., 0., 0., 0., 0., 0., 0., 0., 0., 0.,
          0., 0., 0., 0., 0., 0., 0., 0., 0., 0., 0., 0., 0., 0., 0., 0.,
          0., 0., 0., 0., 0., 0., 0., 0., 0., 0., 0., 0., 0., 0., 0., 0.,
          0., 0., 0., 0., 0., 0., 0., 0., 7.32171582e-004,
          1.46434322e-004, 0., 0., 2.92868644e-004, 0., 2.92868644e-004,
          0., 0., 0., 0., 0., 0., 2.92868644e-004, 2.92868644e-004, 0.,
          0., 0., 0., 0., 0., 0., 0., 0., 0., 0., 0., 0., 0., 0., 0., 0.,
          0., 0., 0., 0., 1.90364616e-003, 0., 0., 0., 0., 0., 0., 0.,
          1.46434322e-004, 0., 0., 0., 2.92868644e-004, 0., 0., 0.,
          4.53946413e-003, 0., 0., 7.32171582e-004, 0., 0., 0., 0., 0.,
          2.34294916e-003, 0., 0., 5.85737289e-004, 0., 4.39302967e-004,
          8.78605933e-004, 1.46434322e-004, 0., 0., 0., 8.78605933e-004,
          0., 0., 0., 0., 0., 0., 0., 0., 0., 0., 0., 0., 0., 0., 0., 0.,
          0., 0., 0., 0., 0., 0., 0., 0., 0., 0., 0., 0., 0., 0., 0., 0.,
          0., 0., 0., 0., 0., 0., 0., 0., 0., 0., 0., 0., 0., 0., 0., 0.,
          0., 0., 0., 0., 0., 0., 0., 0., 0., 0., 0., 0., 0., 0., 0., 0.,
          0., 0., 0., 0., 0., 0., 0., 0., 0., 0., 0., 0., 0., 0., 0., 0.,
          0., 4.39302967e-004, 0., 0., 0., 0., 0., 0., 0., 0., 0., 0.,
          0., 0., 0., 0., 0., 0., 0., 1.46434322e-004, 0., 0., 0., 0.,
          0., 7.32171582e-004, 0., 0., 0., 0., 0., 0., 0., 0., 0., 0.,
          0., 0., 0., 0., 0., 2.92868644e-004, 1.17147458e-003, 0.,
          2.92868644e-004, 0., 0., 7.32171582e-004, 0., 0., 0.,
          1.46434322e-004, 0., 1.46434322e-004, 0., 0., 2.92868644e-004,
          1.46434322e-004, 1.90364616e-003, 4.39302967e-004, 0., 0.,
          1.75721187e-003, 0., 0., 0., 0., 0., 2.92868644e-004, 0.,
          1.46434322e-004, 0., 0., 0., 0., 0., 0., 0., 0., 0., 0., 0.,
          0., 0., 0., 0., 0., 0., 0., 0., 0., 0., 0., 0., 0., 0., 0., 0.,
          0., 0., 0., 0., 0., 0., 0., 0., 0., 0., 0., 0., 0., 0., 0., 0.,
          0., 0., 0., 0., 0., 0., 0., 0., 0., 0., 0., 0., 0., 0., 0., 0.,
          0., 0., 0., 0., 0., 0., 0., 0., 0., 0., 0., 0., 0., 0., 0., 0.,
          0., 0., 0., 2.92868644e-004, 0., 1.46434322e-004, 0., 0., 0.,
          0., 0., 0., 0., 2.92868644e-004, 0., 0., 0., 1.46434322e-004,
          0., 0., 0., 0., 0., 0., 0., 0., 0., 0., 0., 0., 0., 0., 0.,
          1.46434322e-004, 0., 2.63581774e-003, 0., 0., 7.32171582e-004,
          1.02504028e-003, 0., 0., 8.78605933e-004, 0., 0., 0., 0.,
          4.39302967e-004, 0., 0., 0., 0., 0., 0., 2.92868644e-004, 0.,
          0., 0., 0., 0., 0., 0., 0., 0., 0., 1.02504028e-003, 0., 0.,
          0., 0., 0., 0., 0., 0., 0., 0., 0., 0., 0., 0., 0., 0., 0., 0.,
          0., 0., 0., 0., 0., 0., 0., 0., 0., 0., 0., 0., 0., 0., 0., 0.,
          0., 0., 0., 0., 0., 0., 0., 0., 0., 0., 0., 0., 0., 0., 0., 0.,
          0., 0., 0., 0., 0., 0., 0., 0., 0., 0., 0., 0., 0., 0., 0., 0.,
          0., 0., 0., 0., 0., 0., 0., 0., 0., 0., 0., 0., 0., 0., 0., 0.,
          0., 0., 0., 0., 0., 0., 0., 0., 0., 0., 0., 0., 0., 0., 0., 0.,
          0., 0., 0., 0., 0., 0., 0., 0., 0., 0., 0., 0.,
          8.78605933e-004, 0., 0., 0., 0., 0., 0., 0., 0.,
          4.39302967e-004, 0., 0., 0., 0., 0., 0., 0., 0., 0.,
          1.90364616e-003, 0., 0., 0., 0., 0., 0., 0., 2.92868644e-004,
          5.85737289e-004, 0., 0., 0., 0., 0., 0., 0., 0., 0., 0., 0.,
          0., 0., 0., 0., 0., 0., 0., 0., 0., 0., 0., 0., 0., 0., 0., 0.,
          0., 0., 0., 0., 0., 0., 0., 0., 0., 0., 0., 0., 0., 0., 0., 0.,
          0., 0., 0., 0., 0., 0., 0., 0., 0., 0., 0., 0., 0., 0., 0., 0.,
          0., 0., 0., 0., 0., 0., 0., 0., 0., 0., 0., 0., 0., 0., 0., 0.,
          0., 0., 0., 0., 0., 0., 0., 0., 0., 0., 0., 0., 0., 0., 0., 0.,
          0., 0., 0., 2.92868644e-004, 0., 0., 0., 2.92868644e-004, 0.,
          0., 0., 0., 0., 0., 0., 0., 0., 0., 0., 1.46434322e-004,
          4.39302967e-004, 0., 0., 0., 0., 7.32171582e-004,
          4.39302967e-004, 0., 0., 0., 1.31790887e-003, 0., 0., 0., 0.,
          0., 0., 0., 0., 4.39302967e-004, 0., 0., 0., 0., 0., 0., 0.,
          0., 0., 4.39302967e-004, 1.46434322e-004, 0., 0., 0., 0.,
          1.46434322e-004, 1.46434322e-004, 0., 0., 0., 3.07512074e-003,
          1.61077757e-003, 0., 0., 0., 0., 0., 0., 0., 0., 0.,
          2.19651475e-003, 0., 0., 1.02504028e-003, 0., 0., 0., 0., 0.,
          0., 0., 0., 0., 0., 0., 0., 0., 0., 0., 0., 0., 0., 0., 0., 0.,
          0., 0., 0., 0., 0., 0., 0., 0., 0., 0., 0., 0., 0., 0., 0., 0.,
          0., 0., 0., 0., 0., 0., 0., 0., 0., 0., 0., 0., 0., 0., 0., 0.,
          0., 0., 0., 0., 0., 0., 0., 0., 0., 0., 0., 0., 0., 0., 0., 0.,
          0., 0., 0., 0., 0., 0., 0., 0., 0., 0., 0., 0., 0., 0., 0., 0.,
          0., 0., 0., 5.85737289e-004, 0., 1.46434322e-004, 0., 0., 0.,
          0., 0., 0., 0., 0., 0., 0., 7.32171582e-004, 0., 0., 0., 0.,
          0., 0., 0., 0., 0., 0., 0., 0., 0., 0., 0., 0., 0., 0., 0., 0.,
          0., 0., 0., 0., 0., 0., 0., 0., 0., 0., 0., 0.,
          2.92868644e-004, 0., 0., 4.39302967e-004, 2.92868644e-004, 0.,
          7.32171582e-004, 0., 5.85737289e-004, 0., 1.46434322e-004, 0.,
          0., 0., 0., 0., 0., 0., 0., 0., 0., 0., 0., 0., 0., 0., 0., 0.,
          0., 0., 0., 0., 0., 0., 0., 0., 0., 0., 0., 0., 0., 0., 0., 0.,
          0., 0., 0., 0., 0., 0., 0., 0., 0., 0., 0., 0., 0., 0., 0., 0.,
          0., 0., 0., 0., 0., 0., 0., 0., 0., 0., 0., 0., 0., 0., 0., 0.,
          0., 0., 0., 0., 0., 0., 0., 0., 0., 0., 0., 0., 0., 0., 0., 0.,
          0., 0., 0., 0., 0., 0., 0., 0., 0., 0., 0., 0., 0., 0., 0., 0.,
          0., 0., 1.46434322e-004, 0., 0., 0., 0., 0., 0., 0., 0., 0.,
          0., 2.05008057e-003, 2.92868644e-004, 0., 0., 0., 0., 0., 0.,
          0., 0., 0., 0., 0., 0., 0., 0., 0., 0., 0., 0., 0., 0., 0., 0.,
          1.46434322e-004, 0., 0., 0., 1.46434322e-004, 0., 0., 0., 0.,
          0., 0., 0., 0., 0., 0., 0., 0., 0., 2.92868644e-004, 0., 0.,
          0., 0., 0., 0., 0., 0., 0., 0., 0., 0., 0., 0., 0., 0., 0., 0.,
          0., 0., 0., 0., 0., 0., 0., 0., 0., 0., 0., 0., 0., 0., 0., 0.,
          0., 0., 0., 0., 0., 0., 0., 0., 0., 0., 0., 0., 0., 0., 0., 0.,
          0., 0., 0., 0., 0., 0., 0., 0., 0., 0., 0., 0., 0., 0., 0., 0.,
          0., 0., 0., 0., 0., 0., 0., 0., 0., 0., 0., 0., 0., 0., 0., 0.,
          0., 0., 0., 0., 0., 0., 0., 0., 0., 0., 0., 0., 0., 0., 0., 0.,
          0., 0., 0., 0., 0., 0., 0., 0., 0., 0., 0., 0., 0., 0.,
          5.85737289e-004, 0., 0., 0., 0., 1.46434322e-004, 0., 0., 0.,
          0., 0., 1.46434322e-004, 2.92868644e-004, 0., 0., 0., 0.,
          4.39302967e-004, 8.78605933e-004, 0., 0., 1.46434322e-004, 0.,
          2.63581774e-003, 0., 0., 5.85737289e-004, 0., 0.,
          1.46434322e-004, 0., 0., 7.32171582e-004, 0., 0., 0., 0.,
          2.92868644e-004, 0., 0., 0., 0., 0., 0., 0., 0., 0., 0., 0.,
          0., 0., 0., 0., 0., 0., 0., 0., 0., 0., 0., 0., 0., 0., 0., 0.,
          0., 0., 0., 0., 0., 0., 0., 0., 0., 0., 0., 0., 0., 0., 0., 0.,
          0., 0., 0., 0., 0., 0., 0., 0., 0., 0., 0., 0., 0., 0., 0., 0.,
          0., 0., 0., 0., 0., 0., 0., 0., 0., 0., 0., 0., 0., 0., 0., 0.,
          0., 0., 0., 0., 0., 0., 0., 0., 0., 0., 0., 0., 0., 0., 0., 0.,
          0., 0., 0., 0., 0., 0., 1.46434322e-004, 0., 0., 0., 0., 0.,
          0., 0., 0., 0., 0., 0., 0., 0., 0., 0., 0., 0., 0., 0., 0.,
          2.92868644e-004, 0., 0., 7.32171582e-004, 0., 0., 0., 0.,
          5.85737289e-004, 0., 1.17147458e-003, 0., 0., 0., 0., 0., 0.,
          0., 0., 0., 1.46434322e-004, 0., 2.34294916e-003, 0.,
          1.46434322e-004, 0., 0., 0., 0., 0., 2.92868644e-004, 0., 0.,
          0., 0., 0., 0., 0., 0., 0., 0., 0., 0., 0., 0., 0., 0., 0., 0.,
          0., 0., 0., 0., 0., 0., 0., 0., 0., 0., 0., 0., 0., 0., 0., 0.,
          0., 0., 0., 0., 0., 0., 0., 0., 0., 1.46434322e-004, 0., 0.,
          0., 0., 0., 0., 0., 0., 0., 0., 0., 0., 0., 0., 0., 0., 0., 0.,
          0., 0., 0., 0., 0., 0., 0., 0., 0., 0., 0., 0., 0., 0., 0., 0.,
          0., 0., 0., 0., 0., 0., 0., 0., 0., 0., 0., 0., 0., 0., 0., 0.,
          0., 0., 0., 0., 1.46434322e-004, 0., 7.32171582e-004, 0., 0.,
          0., 0., 0., 0., 0., 0., 0., 0., 0., 0., 0., 1.46434322e-004,
          0., 0., 0., 1.46434322e-004, 0., 0., 0., 0., 0., 0., 0., 0.,
          0., 8.78605933e-004, 4.39302967e-004, 0., 0., 7.32171582e-004,
          0., 1.02504028e-003, 8.78605933e-004, 4.39302967e-004, 0., 0.,
          0., 0., 0., 0., 0., 1.46434322e-004, 0., 0., 0., 0., 0., 0.,
          0., 0., 0., 0., 0., 0., 0., 0., 0., 0., 0., 0., 0., 0., 0., 0.,
          0., 0., 0., 0., 0., 0., 0., 0., 0., 0., 0., 0., 0., 0., 0., 0.,
          0., 0., 0., 0., 0., 0., 0., 0., 0., 0., 0., 0., 0.,
          1.46434322e-004, 0., 0., 0., 0., 0., 0., 0., 0., 0., 0., 0.,
          0., 0., 0., 0., 0., 0., 0., 0., 0., 0., 0., 0., 0., 0., 0., 0.,
          0., 0., 0., 0., 0., 0., 0., 0., 0., 0., 0., 0., 0., 0., 0., 0.,
          0., 0., 0., 0., 0., 0., 0., 0., 0., 0., 0., 0., 0., 0., 0., 0.,
          0., 0., 0., 1.46434322e-004, 0., 0., 0., 0., 0., 0., 0., 0.,
          0., 0., 0., 0., 0., 0., 0., 0., 0., 0., 0., 0., 0., 0., 0., 0.,
          0., 0., 0., 0., 0., 0., 0., 1.90364616e-003, 0.,
          1.46434322e-004, 0., 0., 1.17147458e-003, 0., 4.39302949e-003,
          0., 0., 0., 4.39302967e-004, 0., 0., 0., 0., 0., 0., 0., 0.,
          0., 0., 0., 0., 0., 0., 0., 0., 0., 0., 0., 0., 0., 0., 0., 0.,
          0., 0., 0., 0., 0., 0., 0., 0., 0., 0., 0., 0., 0., 0., 0., 0.,
          0., 0., 0., 0., 0., 0., 0., 0., 0., 0., 0., 0., 0., 0., 0., 0.,
          0., 0., 0., 0., 0., 0., 0., 0., 0., 0., 0., 0., 0., 0., 0., 0.,
          0., 0., 0., 0., 0., 0., 0., 0., 0., 0., 0., 0., 0., 0., 0., 0.,
          0., 0., 0., 0., 0., 0., 0., 0., 0., 0., 0., 0., 0., 0., 0., 0.,
          0., 0., 0., 0., 0., 1.46434322e-004, 0., 0., 0., 0., 0.,
          1.46434322e-004, 0., 0., 0., 1.02504028e-003, 0., 0., 0., 0.,
          1.46434316e-003, 0., 0., 2.48938357e-003, 0., 0.,
          3.80729232e-003, 0., 0., 0., 0., 0., 0., 0., 0., 0., 0.,
          4.39302967e-004, 0., 5.85737289e-004, 0., 0., 0., 0., 0., 0.,
          0., 0., 0., 0., 0., 0., 0., 0., 0., 0., 0., 0., 0., 0., 0., 0.,
          0., 0., 0., 0., 0., 0., 0., 0., 0., 0., 0., 0., 0., 0., 0., 0.,
          0., 0., 0., 0., 0., 0., 0., 0., 0., 0., 0., 0., 0., 0., 0., 0.,
          0., 0., 0., 0., 0., 0., 0., 1.46434322e-004, 0., 0., 0., 0.,
          0., 0., 0., 0., 0., 0., 0., 0., 0., 0., 0., 0., 0., 0., 0., 0.,
          0., 0., 0., 0., 0., 0., 0., 0., 0., 0., 1.46434322e-004, 0.,
          0., 0., 0., 0., 0., 0., 0., 2.92868644e-004, 0., 0., 0., 0.,
          0., 0., 0., 0., 0., 0., 1.46434322e-004, 0., 0., 0., 0., 0.,
          1.46434316e-003, 0., 0., 0., 0., 0., 0., 0., 0., 0., 0., 0.,
          0., 0., 0., 0., 0., 0., 0., 0., 0., 0., 8.78605933e-004, 0.,
          0., 0., 1.46434322e-004, 0., 0., 0., 0., 0., 0.,
          1.46434322e-004, 0., 0., 0., 0., 0., 0., 0., 0., 0., 0., 0.,
          0., 0., 0., 0., 0., 0., 0., 0., 0., 0., 0., 0., 0., 0., 0., 0.,
          0., 0., 0., 0., 0., 0., 2.92868644e-004, 0., 0., 0., 0., 0.,
          0., 0., 0., 0., 0., 0., 0., 0., 0., 0., 0., 0.,
          4.39302967e-004, 0., 0., 0., 0., 0., 0., 0., 0., 0., 0., 0.,
          0., 0., 0., 0., 0., 0., 0., 0., 0., 0., 0., 0.,
          1.46434322e-004, 0., 0., 0., 0., 0., 0., 0., 0., 0., 0., 0.,
          0., 5.85737289e-004, 0., 0., 0., 0., 0., 1.75721187e-003, 0.,
          0., 0., 0., 0., 0., 4.39302967e-004, 0., 0., 0., 0., 0., 0.,
          0., 0., 0., 0., 0., 0., 0., 0., 0., 0., 5.85737289e-004, 0.,
          0., 0., 1.46434322e-004, 0., 0., 0., 1.17147458e-003, 0., 0.,
          2.63581774e-003, 0., 0., 0., 0., 0., 0., 0., 0., 0., 0., 0.,
          4.39302967e-004, 0., 0., 0., 0., 2.48938357e-003,
          1.17147458e-003, 0., 0., 0., 0., 0., 0., 0., 0., 0., 0., 0.,
          0., 0., 0., 0., 0., 0., 0., 0., 0., 0., 0., 0., 0., 0., 0., 0.,
          0., 0., 0., 0., 0., 0., 0., 0., 0., 0., 0., 0., 0., 0., 0., 0.,
          0., 0., 0., 0., 0., 0., 2.92868644e-004, 5.85737289e-004, 0.,
          0., 0., 0., 0., 0., 0., 0., 0., 4.39302967e-004, 0., 0., 0.,
          0., 0., 0., 0., 0., 0., 4.39302967e-004, 0., 0., 0., 0., 0.,
          0., 0., 0., 0., 0., 0., 0., 0., 0., 0., 0., 0.,
          1.46434322e-004, 0., 0., 0., 0., 0., 2.92868644e-004, 0., 0.,
          0., 0., 0., 0., 0., 0., 0., 0., 0., 0., 0., 0., 0., 0., 0., 0.,
          0., 0., 0., 0., 1.17147458e-003, 0., 0., 0., 0., 0., 0., 0.,
          1.46434322e-004, 0., 0., 0., 0., 0., 0., 0., 4.39302967e-004,
          0., 0., 0., 0., 1.46434322e-004, 0., 0., 0., 0.,
          5.85737289e-004, 0., 0., 0., 0., 0., 0., 0., 0.,
          4.39302967e-004, 0., 0., 0., 0., 0., 0., 0., 0., 0., 0., 0.,
          0., 0., 0., 0., 0., 0., 0., 0., 0., 0., 0., 0., 0., 0., 0., 0.,
          0., 0., 0., 0., 0., 0., 0., 2.92868644e-004, 0., 0., 0., 0.,
          0., 0., 0., 0., 0., 0., 0., 0., 0., 0., 0., 0., 0., 0., 0., 0.,
          0., 0., 0., 0., 0., 0., 0., 0., 0., 0., 0., 1.46434322e-004,
          0., 0., 0., 0., 0., 0., 0., 0., 0., 0., 0., 0., 0., 0., 0., 0.,
          0., 0., 0., 1.02504028e-003, 0., 0., 5.85737289e-004, 0., 0.,
          0., 0., 0., 0., 0., 0., 0., 0., 0., 0., 0., 0., 0., 0., 0., 0.,
          0., 0., 0., 0., 0., 0., 0., 2.92868644e-004, 0., 0., 0., 0.,
          2.34294916e-003, 0., 0., 0., 0., 2.92868644e-004,
          1.75721187e-003, 2.92868644e-004, 0., 0., 0., 0., 0., 0., 0.,
          8.78605933e-004, 0., 1.46434322e-004, 0., 0., 0., 0., 0.,
          2.92868644e-004, 0., 0., 2.92868644e-004, 0., 0., 0., 0., 0.,
          0., 0., 0., 0., 0., 0., 0., 0., 0., 0., 0., 0., 0., 0., 0., 0.,
          0., 0., 0., 0., 0., 0., 0., 0., 0., 0., 0., 0., 0., 0., 0., 0.,
          0., 0., 0., 0., 0., 0., 0., 0., 0., 0., 0., 0., 0., 0., 0., 0.,
          0., 0., 0., 0., 0., 0., 0., 0., 0., 0., 0., 0., 0., 0., 0., 0.,
          0., 0., 0., 0., 0., 0., 0., 0., 0., 0., 0., 0., 0., 0., 0., 0.,
          0., 0., 0., 0., 0., 0., 0., 0., 0., 0., 0., 0., 0., 0., 0., 0.,
          8.78605933e-004, 0., 0., 0., 0., 0., 0., 0., 0., 0., 0., 0.,
          0., 0., 0., 0., 1.46434322e-004, 7.32171582e-004, 0., 0., 0.,
          0., 0., 0., 0., 0., 0., 0., 0., 0., 0., 2.92868644e-004,
          1.90364616e-003, 0., 1.46434322e-004, 1.02504028e-003, 0.,
          8.78605933e-004, 2.78225215e-003, 0., 0., 0., 0.,
          5.85737289e-004, 0., 0., 0., 2.92868644e-004, 0., 0., 0.,
          2.92868644e-004, 0., 0., 0., 0., 0., 0., 0., 0., 0., 0., 0.,
          0., 0., 0., 0., 0., 0., 0., 0., 0., 0., 0., 0., 0., 0., 0., 0.,
          0., 0., 0., 0., 0., 0., 0., 0., 0., 0., 0., 0., 0., 0., 0., 0.,
          0., 0., 4.39302967e-004, 0., 0., 0., 1.46434322e-004, 0., 0.,
          0., 0., 0., 0., 0., 0., 1.46434322e-004, 0., 0., 0., 0., 0.,
          0., 0., 0., 0., 0., 0., 0., 0., 0., 0., 0., 0., 0., 0., 0., 0.,
          0., 0., 0., 2.92868644e-004, 0., 0., 0., 0., 0., 0., 0., 0.,
          2.92868644e-004, 0., 0., 0., 0., 0., 0., 0., 0.,
          7.32171582e-004, 0., 2.92868644e-004, 0., 0., 5.85737289e-004,
          0., 0., 0., 0., 0., 0., 0., 4.39302967e-004, 0., 0., 0., 0.,
          0., 0., 0., 0., 0., 2.05008057e-003, 2.92868644e-004, 0., 0.,
          0., 0., 5.85737289e-004, 0., 0., 2.92868644e-004, 0., 0., 0.,
          0., 0., 0., 0., 0., 0., 0., 0., 0., 0., 0., 0., 0., 0., 0.,
          1.46434322e-004, 0., 0., 0., 0., 0., 0., 0., 0., 0., 0., 0.,
          0., 0., 0., 0., 0., 0., 0., 0., 0., 0., 0., 0., 0., 0., 0., 0.,
          0., 0., 0., 0., 1.46434322e-004, 0., 0., 0., 0., 0., 0.,
          1.46434322e-004, 0., 0., 0., 0., 0., 0., 0., 0., 0., 0., 0.,
          0., 0., 0., 0., 0., 0., 0., 0., 0., 0., 0., 0., 0., 0., 0., 0.,
          0., 0., 0., 0., 0., 0., 0., 0., 0., 0., 0., 0., 0., 0., 0., 0.,
          0., 0., 0., 0., 0., 0., 0., 0., 0., 0., 0., 0., 0., 0., 0.,
          1.46434322e-004, 0., 0., 0., 0., 0., 0., 0., 0., 0., 0., 0.,
          0., 0., 0., 0., 1.02504028e-003, 0., 1.46434322e-004, 0., 0.,
          0., 0., 0., 0., 0., 0., 0., 1.90364616e-003, 0., 0., 0., 0.,
          0., 1.02504028e-003, 0., 0., 6.73597865e-003, 0., 0., 0., 0.,
          3.22155515e-003, 0., 0., 0., 0., 0., 0., 4.39302967e-004, 0.,
          0., 0., 0., 0., 0., 0., 0., 0., 0., 0., 1.46434322e-004, 0.,
          0., 0., 0., 0., 0., 0., 0., 0., 0., 0., 0., 0., 0., 0., 0., 0.,
          0., 0., 0., 0., 0., 0., 0., 0., 0., 0., 0., 0., 0., 0., 0., 0.,
          0., 0., 0., 0., 0., 0., 0., 0., 0., 0., 0., 0., 0., 0., 0., 0.,
          0., 0., 0., 0., 0., 0., 0., 0., 0., 0., 0., 0., 0., 0., 0., 0.,
          0., 0., 0., 0., 0., 0., 0., 0., 0., 0., 0., 0., 0., 0., 0., 0.,
          0., 1.46434322e-004, 0., 0., 0., 0., 1.46434322e-004, 0.,
          1.46434322e-004, 0., 0., 8.78605933e-004, 0., 0., 0.,
          2.92868644e-004, 0., 0., 0., 0., 0., 1.46434322e-004, 0., 0.,
          0., 0., 1.90364616e-003, 0., 0., 0., 0., 0., 1.17147458e-003,
          0., 7.32171582e-004, 0., 0., 1.46434322e-004, 2.48938357e-003,
          2.19651475e-003, 0., 0., 2.92868644e-004, 0., 0., 0., 0., 0.,
          1.17147458e-003, 0., 0., 2.92868633e-003, 0., 5.85737289e-004,
          0., 0., 2.92868644e-004, 1.46434322e-004, 0., 0., 0., 0., 0.,
          0., 0., 0., 0., 0., 0., 0., 0., 0., 0., 0., 0., 0., 0., 0., 0.,
          0., 0., 0., 0., 0., 0., 0., 0., 0., 0., 0., 0., 0., 0., 0., 0.,
          0., 0., 0., 0., 0., 0., 0., 0., 0., 0., 0., 0., 0., 0., 0., 0.,
          0., 0., 0., 0., 0., 0., 0., 0., 0., 0., 0., 0., 0., 0., 0., 0.,
          0., 0., 0., 0., 0., 0., 0., 0., 0., 0., 0., 4.39302967e-004,
          0., 0., 0., 0., 0., 0., 0., 0., 0., 0., 0., 0.,
          2.92868644e-004, 0., 0., 0., 0., 8.78605933e-004, 0., 0., 0.,
          8.78605933e-004, 0., 0., 0., 0., 7.32171582e-004,
          2.92868644e-004, 0., 0., 0., 1.46434316e-003, 0., 0., 0., 0.,
          0., 0., 0., 0., 0., 0., 0., 0., 0., 1.17147458e-003, 0.,
          1.46434322e-004, 4.39302967e-004, 0., 5.85737289e-004, 0., 0.,
          1.46434322e-004, 2.34294916e-003, 3.95372650e-003, 0., 0., 0.,
          0., 2.78225215e-003, 0., 0., 0., 0., 0., 0., 0.,
          2.92868644e-004, 0., 0., 0., 0., 0., 0., 0., 0., 0., 0., 0.,
          0., 0., 0., 0., 0., 0., 0., 0., 0., 0., 0., 0., 0., 0., 0., 0.,
          0., 0., 0., 0., 0., 0., 0., 0., 0., 0., 0., 0., 0., 0., 0., 0.,
          0., 0., 0., 0., 0., 0., 0., 0., 0., 0., 1.46434322e-004, 0.,
          0., 0., 0., 0., 0., 0., 0., 0., 0., 0., 0., 0., 0., 0., 0., 0.,
          0., 0., 0., 0., 0., 0., 0., 0., 0., 0., 0., 0.,
          2.92868644e-004, 0., 0., 1.46434322e-004, 0., 0., 0., 0., 0.,
          0., 0., 0., 0., 1.46434322e-004, 0., 0., 0., 0., 0., 0., 0.,
          0., 0., 0., 0., 0., 0., 1.46434316e-003, 0., 0., 0., 0., 0.,
          0., 1.75721187e-003, 2.92868644e-004, 0., 0., 0., 0.,
          4.39302967e-004, 0., 0., 0., 0., 0., 0., 0., 0.,
          4.39302967e-004, 1.46434322e-004, 0., 0., 0., 0., 0., 0., 0.,
          8.78605933e-004, 0., 0., 0., 0., 0., 0., 0., 0., 0., 0., 0.,
          0., 0., 0., 0., 0., 0., 0., 0., 0., 0., 0., 0., 0., 0., 0., 0.,
          0., 0., 0., 0., 0., 0., 0., 0., 0., 0., 0., 0., 0., 0., 0., 0.,
          0., 0., 0., 2.92868644e-004, 0., 0., 0., 0., 0., 0., 0., 0.,
          0., 0., 0., 0., 0., 0., 0., 0., 0., 0., 0., 0., 0., 0., 0. ]
   ntrees: 58
   is_classifier: 1
   var_all: 15000
   var_count: 15000
   ord_var_count: 15000
   cat_var_count: 0
   training_params:
      use_surrogates: 0
      max_categories: 15
      max_depth: 9
      min_sample_count: 10
      cross_validation_folds: 0
      priors: !!opencv-matrix
         rows: 1
         cols: 8
         dt: d
         data: [ 1., 1., 1., 1., 1., 1., 1., 1. ]
   var_type: [ 0, 0, 0, 0, 0, 0, 0, 0, 0, 0, 0, 0, 0, 0, 0, 0, 0, 0, 0,
       0, 0, 0, 0, 0, 0, 0, 0, 0, 0, 0, 0, 0, 0, 0, 0, 0, 0, 0, 0, 0, 0,
       0, 0, 0, 0, 0, 0, 0, 0, 0, 0, 0, 0, 0, 0, 0, 0, 0, 0, 0, 0, 0, 0,
       0, 0, 0, 0, 0, 0, 0, 0, 0, 0, 0, 0, 0, 0, 0, 0, 0, 0, 0, 0, 0, 0,
       0, 0, 0, 0, 0, 0, 0, 0, 0, 0, 0, 0, 0, 0, 0, 0, 0, 0, 0, 0, 0, 0,
       0, 0, 0, 0, 0, 0, 0, 0, 0, 0, 0, 0, 0, 0, 0, 0, 0, 0, 0, 0, 0, 0,
       0, 0, 0, 0, 0, 0, 0, 0, 0, 0, 0, 0, 0, 0, 0, 0, 0, 0, 0, 0, 0, 0,
       0, 0, 0, 0, 0, 0, 0, 0, 0, 0, 0, 0, 0, 0, 0, 0, 0, 0, 0, 0, 0, 0,
       0, 0, 0, 0, 0, 0, 0, 0, 0, 0, 0, 0, 0, 0, 0, 0, 0, 0, 0, 0, 0, 0,
       0, 0, 0, 0, 0, 0, 0, 0, 0, 0, 0, 0, 0, 0, 0, 0, 0, 0, 0, 0, 0, 0,
       0, 0, 0, 0, 0, 0, 0, 0, 0, 0, 0, 0, 0, 0, 0, 0, 0, 0, 0, 0, 0, 0,
       0, 0, 0, 0, 0, 0, 0, 0, 0, 0, 0, 0, 0, 0, 0, 0, 0, 0, 0, 0, 0, 0,
       0, 0, 0, 0, 0, 0, 0, 0, 0, 0, 0, 0, 0, 0, 0, 0, 0, 0, 0, 0, 0, 0,
       0, 0, 0, 0, 0, 0, 0, 0, 0, 0, 0, 0, 0, 0, 0, 0, 0, 0, 0, 0, 0, 0,
       0, 0, 0, 0, 0, 0, 0, 0, 0, 0, 0, 0, 0, 0, 0, 0, 0, 0, 0, 0, 0, 0,
       0, 0, 0, 0, 0, 0, 0, 0, 0, 0, 0, 0, 0, 0, 0, 0, 0, 0, 0, 0, 0, 0,
       0, 0, 0, 0, 0, 0, 0, 0, 0, 0, 0, 0, 0, 0, 0, 0, 0, 0, 0, 0, 0, 0,
       0, 0, 0, 0, 0, 0, 0, 0, 0, 0, 0, 0, 0, 0, 0, 0, 0, 0, 0, 0, 0, 0,
       0, 0, 0, 0, 0, 0, 0, 0, 0, 0, 0, 0, 0, 0, 0, 0, 0, 0, 0, 0, 0, 0,
       0, 0, 0, 0, 0, 0, 0, 0, 0, 0, 0, 0, 0, 0, 0, 0, 0, 0, 0, 0, 0, 0,
       0, 0, 0, 0, 0, 0, 0, 0, 0, 0, 0, 0, 0, 0, 0, 0, 0, 0, 0, 0, 0, 0,
       0, 0, 0, 0, 0, 0, 0, 0, 0, 0, 0, 0, 0, 0, 0, 0, 0, 0, 0, 0, 0, 0,
       0, 0, 0, 0, 0, 0, 0, 0, 0, 0, 0, 0, 0, 0, 0, 0, 0, 0, 0, 0, 0, 0,
       0, 0, 0, 0, 0, 0, 0, 0, 0, 0, 0, 0, 0, 0, 0, 0, 0, 0, 0, 0, 0, 0,
       0, 0, 0, 0, 0, 0, 0, 0, 0, 0, 0, 0, 0, 0, 0, 0, 0, 0, 0, 0, 0, 0,
       0, 0, 0, 0, 0, 0, 0, 0, 0, 0, 0, 0, 0, 0, 0, 0, 0, 0, 0, 0, 0, 0,
       0, 0, 0, 0, 0, 0, 0, 0, 0, 0, 0, 0, 0, 0, 0, 0, 0, 0, 0, 0, 0, 0,
       0, 0, 0, 0, 0, 0, 0, 0, 0, 0, 0, 0, 0, 0, 0, 0, 0, 0, 0, 0, 0, 0,
       0, 0, 0, 0, 0, 0, 0, 0, 0, 0, 0, 0, 0, 0, 0, 0, 0, 0, 0, 0, 0, 0,
       0, 0, 0, 0, 0, 0, 0, 0, 0, 0, 0, 0, 0, 0, 0, 0, 0, 0, 0, 0, 0, 0,
       0, 0, 0, 0, 0, 0, 0, 0, 0, 0, 0, 0, 0, 0, 0, 0, 0, 0, 0, 0, 0, 0,
       0, 0, 0, 0, 0, 0, 0, 0, 0, 0, 0, 0, 0, 0, 0, 0, 0, 0, 0, 0, 0, 0,
       0, 0, 0, 0, 0, 0, 0, 0, 0, 0, 0, 0, 0, 0, 0, 0, 0, 0, 0, 0, 0, 0,
       0, 0, 0, 0, 0, 0, 0, 0, 0, 0, 0, 0, 0, 0, 0, 0, 0, 0, 0, 0, 0, 0,
       0, 0, 0, 0, 0, 0, 0, 0, 0, 0, 0, 0, 0, 0, 0, 0, 0, 0, 0, 0, 0, 0,
       0, 0, 0, 0, 0, 0, 0, 0, 0, 0, 0, 0, 0, 0, 0, 0, 0, 0, 0, 0, 0, 0,
       0, 0, 0, 0, 0, 0, 0, 0, 0, 0, 0, 0, 0, 0, 0, 0, 0, 0, 0, 0, 0, 0,
       0, 0, 0, 0, 0, 0, 0, 0, 0, 0, 0, 0, 0, 0, 0, 0, 0, 0, 0, 0, 0, 0,
       0, 0, 0, 0, 0, 0, 0, 0, 0, 0, 0, 0, 0, 0, 0, 0, 0, 0, 0, 0, 0, 0,
       0, 0, 0, 0, 0, 0, 0, 0, 0, 0, 0, 0, 0, 0, 0, 0, 0, 0, 0, 0, 0, 0,
       0, 0, 0, 0, 0, 0, 0, 0, 0, 0, 0, 0, 0, 0, 0, 0, 0, 0, 0, 0, 0, 0,
       0, 0, 0, 0, 0, 0, 0, 0, 0, 0, 0, 0, 0, 0, 0, 0, 0, 0, 0, 0, 0, 0,
       0, 0, 0, 0, 0, 0, 0, 0, 0, 0, 0, 0, 0, 0, 0, 0, 0, 0, 0, 0, 0, 0,
       0, 0, 0, 0, 0, 0, 0, 0, 0, 0, 0, 0, 0, 0, 0, 0, 0, 0, 0, 0, 0, 0,
       0, 0, 0, 0, 0, 0, 0, 0, 0, 0, 0, 0, 0, 0, 0, 0, 0, 0, 0, 0, 0, 0,
       0, 0, 0, 0, 0, 0, 0, 0, 0, 0, 0, 0, 0, 0, 0, 0, 0, 0, 0, 0, 0, 0,
       0, 0, 0, 0, 0, 0, 0, 0, 0, 0, 0, 0, 0, 0, 0, 0, 0, 0, 0, 0, 0, 0,
       0, 0, 0, 0, 0, 0, 0, 0, 0, 0, 0, 0, 0, 0, 0, 0, 0, 0, 0, 0, 0, 0,
       0, 0, 0, 0, 0, 0, 0, 0, 0, 0, 0, 0, 0, 0, 0, 0, 0, 0, 0, 0, 0, 0,
       0, 0, 0, 0, 0, 0, 0, 0, 0, 0, 0, 0, 0, 0, 0, 0, 0, 0, 0, 0, 0, 0,
       0, 0, 0, 0, 0, 0, 0, 0, 0, 0, 0, 0, 0, 0, 0, 0, 0, 0, 0, 0, 0, 0,
       0, 0, 0, 0, 0, 0, 0, 0, 0, 0, 0, 0, 0, 0, 0, 0, 0, 0, 0, 0, 0, 0,
       0, 0, 0, 0, 0, 0, 0, 0, 0, 0, 0, 0, 0, 0, 0, 0, 0, 0, 0, 0, 0, 0,
       0, 0, 0, 0, 0, 0, 0, 0, 0, 0, 0, 0, 0, 0, 0, 0, 0, 0, 0, 0, 0, 0,
       0, 0, 0, 0, 0, 0, 0, 0, 0, 0, 0, 0, 0, 0, 0, 0, 0, 0, 0, 0, 0, 0,
       0, 0, 0, 0, 0, 0, 0, 0, 0, 0, 0, 0, 0, 0, 0, 0, 0, 0, 0, 0, 0, 0,
       0, 0, 0, 0, 0, 0, 0, 0, 0, 0, 0, 0, 0, 0, 0, 0, 0, 0, 0, 0, 0, 0,
       0, 0, 0, 0, 0, 0, 0, 0, 0, 0, 0, 0, 0, 0, 0, 0, 0, 0, 0, 0, 0, 0,
       0, 0, 0, 0, 0, 0, 0, 0, 0, 0, 0, 0, 0, 0, 0, 0, 0, 0, 0, 0, 0, 0,
       0, 0, 0, 0, 0, 0, 0, 0, 0, 0, 0, 0, 0, 0, 0, 0, 0, 0, 0, 0, 0, 0,
       0, 0, 0, 0, 0, 0, 0, 0, 0, 0, 0, 0, 0, 0, 0, 0, 0, 0, 0, 0, 0, 0,
       0, 0, 0, 0, 0, 0, 0, 0, 0, 0, 0, 0, 0, 0, 0, 0, 0, 0, 0, 0, 0, 0,
       0, 0, 0, 0, 0, 0, 0, 0, 0, 0, 0, 0, 0, 0, 0, 0, 0, 0, 0, 0, 0, 0,
       0, 0, 0, 0, 0, 0, 0, 0, 0, 0, 0, 0, 0, 0, 0, 0, 0, 0, 0, 0, 0, 0,
       0, 0, 0, 0, 0, 0, 0, 0, 0, 0, 0, 0, 0, 0, 0, 0, 0, 0, 0, 0, 0, 0,
       0, 0, 0, 0, 0, 0, 0, 0, 0, 0, 0, 0, 0, 0, 0, 0, 0, 0, 0, 0, 0, 0,
       0, 0, 0, 0, 0, 0, 0, 0, 0, 0, 0, 0, 0, 0, 0, 0, 0, 0, 0, 0, 0, 0,
       0, 0, 0, 0, 0, 0, 0, 0, 0, 0, 0, 0, 0, 0, 0, 0, 0, 0, 0, 0, 0, 0,
       0, 0, 0, 0, 0, 0, 0, 0, 0, 0, 0, 0, 0, 0, 0, 0, 0, 0, 0, 0, 0, 0,
       0, 0, 0, 0, 0, 0, 0, 0, 0, 0, 0, 0, 0, 0, 0, 0, 0, 0, 0, 0, 0, 0,
       0, 0, 0, 0, 0, 0, 0, 0, 0, 0, 0, 0, 0, 0, 0, 0, 0, 0, 0, 0, 0, 0,
       0, 0, 0, 0, 0, 0, 0, 0, 0, 0, 0, 0, 0, 0, 0, 0, 0, 0, 0, 0, 0, 0,
       0, 0, 0, 0, 0, 0, 0, 0, 0, 0, 0, 0, 0, 0, 0, 0, 0, 0, 0, 0, 0, 0,
       0, 0, 0, 0, 0, 0, 0, 0, 0, 0, 0, 0, 0, 0, 0, 0, 0, 0, 0, 0, 0, 0,
       0, 0, 0, 0, 0, 0, 0, 0, 0, 0, 0, 0, 0, 0, 0, 0, 0, 0, 0, 0, 0, 0,
       0, 0, 0, 0, 0, 0, 0, 0, 0, 0, 0, 0, 0, 0, 0, 0, 0, 0, 0, 0, 0, 0,
       0, 0, 0, 0, 0, 0, 0, 0, 0, 0, 0, 0, 0, 0, 0, 0, 0, 0, 0, 0, 0, 0,
       0, 0, 0, 0, 0, 0, 0, 0, 0, 0, 0, 0, 0, 0, 0, 0, 0, 0, 0, 0, 0, 0,
       0, 0, 0, 0, 0, 0, 0, 0, 0, 0, 0, 0, 0, 0, 0, 0, 0, 0, 0, 0, 0, 0,
       0, 0, 0, 0, 0, 0, 0, 0, 0, 0, 0, 0, 0, 0, 0, 0, 0, 0, 0, 0, 0, 0,
       0, 0, 0, 0, 0, 0, 0, 0, 0, 0, 0, 0, 0, 0, 0, 0, 0, 0, 0, 0, 0, 0,
       0, 0, 0, 0, 0, 0, 0, 0, 0, 0, 0, 0, 0, 0, 0, 0, 0, 0, 0, 0, 0, 0,
       0, 0, 0, 0, 0, 0, 0, 0, 0, 0, 0, 0, 0, 0, 0, 0, 0, 0, 0, 0, 0, 0,
       0, 0, 0, 0, 0, 0, 0, 0, 0, 0, 0, 0, 0, 0, 0, 0, 0, 0, 0, 0, 0, 0,
       0, 0, 0, 0, 0, 0, 0, 0, 0, 0, 0, 0, 0, 0, 0, 0, 0, 0, 0, 0, 0, 0,
       0, 0, 0, 0, 0, 0, 0, 0, 0, 0, 0, 0, 0, 0, 0, 0, 0, 0, 0, 0, 0, 0,
       0, 0, 0, 0, 0, 0, 0, 0, 0, 0, 0, 0, 0, 0, 0, 0, 0, 0, 0, 0, 0, 0,
       0, 0, 0, 0, 0, 0, 0, 0, 0, 0, 0, 0, 0, 0, 0, 0, 0, 0, 0, 0, 0, 0,
       0, 0, 0, 0, 0, 0, 0, 0, 0, 0, 0, 0, 0, 0, 0, 0, 0, 0, 0, 0, 0, 0,
       0, 0, 0, 0, 0, 0, 0, 0, 0, 0, 0, 0, 0, 0, 0, 0, 0, 0, 0, 0, 0, 0,
       0, 0, 0, 0, 0, 0, 0, 0, 0, 0, 0, 0, 0, 0, 0, 0, 0, 0, 0, 0, 0, 0,
       0, 0, 0, 0, 0, 0, 0, 0, 0, 0, 0, 0, 0, 0, 0, 0, 0, 0, 0, 0, 0, 0,
       0, 0, 0, 0, 0, 0, 0, 0, 0, 0, 0, 0, 0, 0, 0, 0, 0, 0, 0, 0, 0, 0,
       0, 0, 0, 0, 0, 0, 0, 0, 0, 0, 0, 0, 0, 0, 0, 0, 0, 0, 0, 0, 0, 0,
       0, 0, 0, 0, 0, 0, 0, 0, 0, 0, 0, 0, 0, 0, 0, 0, 0, 0, 0, 0, 0, 0,
       0, 0, 0, 0, 0, 0, 0, 0, 0, 0, 0, 0, 0, 0, 0, 0, 0, 0, 0, 0, 0, 0,
       0, 0, 0, 0, 0, 0, 0, 0, 0, 0, 0, 0, 0, 0, 0, 0, 0, 0, 0, 0, 0, 0,
       0, 0, 0, 0, 0, 0, 0, 0, 0, 0, 0, 0, 0, 0, 0, 0, 0, 0, 0, 0, 0, 0,
       0, 0, 0, 0, 0, 0, 0, 0, 0, 0, 0, 0, 0, 0, 0, 0, 0, 0, 0, 0, 0, 0,
       0, 0, 0, 0, 0, 0, 0, 0, 0, 0, 0, 0, 0, 0, 0, 0, 0, 0, 0, 0, 0, 0,
       0, 0, 0, 0, 0, 0, 0, 0, 0, 0, 0, 0, 0, 0, 0, 0, 0, 0, 0, 0, 0, 0,
       0, 0, 0, 0, 0, 0, 0, 0, 0, 0, 0, 0, 0, 0, 0, 0, 0, 0, 0, 0, 0, 0,
       0, 0, 0, 0, 0, 0, 0, 0, 0, 0, 0, 0, 0, 0, 0, 0, 0, 0, 0, 0, 0, 0,
       0, 0, 0, 0, 0, 0, 0, 0, 0, 0, 0, 0, 0, 0, 0, 0, 0, 0, 0, 0, 0, 0,
       0, 0, 0, 0, 0, 0, 0, 0, 0, 0, 0, 0, 0, 0, 0, 0, 0, 0, 0, 0, 0, 0,
       0, 0, 0, 0, 0, 0, 0, 0, 0, 0, 0, 0, 0, 0, 0, 0, 0, 0, 0, 0, 0, 0,
       0, 0, 0, 0, 0, 0, 0, 0, 0, 0, 0, 0, 0, 0, 0, 0, 0, 0, 0, 0, 0, 0,
       0, 0, 0, 0, 0, 0, 0, 0, 0, 0, 0, 0, 0, 0, 0, 0, 0, 0, 0, 0, 0, 0,
       0, 0, 0, 0, 0, 0, 0, 0, 0, 0, 0, 0, 0, 0, 0, 0, 0, 0, 0, 0, 0, 0,
       0, 0, 0, 0, 0, 0, 0, 0, 0, 0, 0, 0, 0, 0, 0, 0, 0, 0, 0, 0, 0, 0,
       0, 0, 0, 0, 0, 0, 0, 0, 0, 0, 0, 0, 0, 0, 0, 0, 0, 0, 0, 0, 0, 0,
       0, 0, 0, 0, 0, 0, 0, 0, 0, 0, 0, 0, 0, 0, 0, 0, 0, 0, 0, 0, 0, 0,
       0, 0, 0, 0, 0, 0, 0, 0, 0, 0, 0, 0, 0, 0, 0, 0, 0, 0, 0, 0, 0, 0,
       0, 0, 0, 0, 0, 0, 0, 0, 0, 0, 0, 0, 0, 0, 0, 0, 0, 0, 0, 0, 0, 0,
       0, 0, 0, 0, 0, 0, 0, 0, 0, 0, 0, 0, 0, 0, 0, 0, 0, 0, 0, 0, 0, 0,
       0, 0, 0, 0, 0, 0, 0, 0, 0, 0, 0, 0, 0, 0, 0, 0, 0, 0, 0, 0, 0, 0,
       0, 0, 0, 0, 0, 0, 0, 0, 0, 0, 0, 0, 0, 0, 0, 0, 0, 0, 0, 0, 0, 0,
       0, 0, 0, 0, 0, 0, 0, 0, 0, 0, 0, 0, 0, 0, 0, 0, 0, 0, 0, 0, 0, 0,
       0, 0, 0, 0, 0, 0, 0, 0, 0, 0, 0, 0, 0, 0, 0, 0, 0, 0, 0, 0, 0, 0,
       0, 0, 0, 0, 0, 0, 0, 0, 0, 0, 0, 0, 0, 0, 0, 0, 0, 0, 0, 0, 0, 0,
       0, 0, 0, 0, 0, 0, 0, 0, 0, 0, 0, 0, 0, 0, 0, 0, 0, 0, 0, 0, 0, 0,
       0, 0, 0, 0, 0, 0, 0, 0, 0, 0, 0, 0, 0, 0, 0, 0, 0, 0, 0, 0, 0, 0,
       0, 0, 0, 0, 0, 0, 0, 0, 0, 0, 0, 0, 0, 0, 0, 0, 0, 0, 0, 0, 0, 0,
       0, 0, 0, 0, 0, 0, 0, 0, 0, 0, 0, 0, 0, 0, 0, 0, 0, 0, 0, 0, 0, 0,
       0, 0, 0, 0, 0, 0, 0, 0, 0, 0, 0, 0, 0, 0, 0, 0, 0, 0, 0, 0, 0, 0,
       0, 0, 0, 0, 0, 0, 0, 0, 0, 0, 0, 0, 0, 0, 0, 0, 0, 0, 0, 0, 0, 0,
       0, 0, 0, 0, 0, 0, 0, 0, 0, 0, 0, 0, 0, 0, 0, 0, 0, 0, 0, 0, 0, 0,
       0, 0, 0, 0, 0, 0, 0, 0, 0, 0, 0, 0, 0, 0, 0, 0, 0, 0, 0, 0, 0, 0,
       0, 0, 0, 0, 0, 0, 0, 0, 0, 0, 0, 0, 0, 0, 0, 0, 0, 0, 0, 0, 0, 0,
       0, 0, 0, 0, 0, 0, 0, 0, 0, 0, 0, 0, 0, 0, 0, 0, 0, 0, 0, 0, 0, 0,
       0, 0, 0, 0, 0, 0, 0, 0, 0, 0, 0, 0, 0, 0, 0, 0, 0, 0, 0, 0, 0, 0,
       0, 0, 0, 0, 0, 0, 0, 0, 0, 0, 0, 0, 0, 0, 0, 0, 0, 0, 0, 0, 0, 0,
       0, 0, 0, 0, 0, 0, 0, 0, 0, 0, 0, 0, 0, 0, 0, 0, 0, 0, 0, 0, 0, 0,
       0, 0, 0, 0, 0, 0, 0, 0, 0, 0, 0, 0, 0, 0, 0, 0, 0, 0, 0, 0, 0, 0,
       0, 0, 0, 0, 0, 0, 0, 0, 0, 0, 0, 0, 0, 0, 0, 0, 0, 0, 0, 0, 0, 0,
       0, 0, 0, 0, 0, 0, 0, 0, 0, 0, 0, 0, 0, 0, 0, 0, 0, 0, 0, 0, 0, 0,
       0, 0, 0, 0, 0, 0, 0, 0, 0, 0, 0, 0, 0, 0, 0, 0, 0, 0, 0, 0, 0, 0,
       0, 0, 0, 0, 0, 0, 0, 0, 0, 0, 0, 0, 0, 0, 0, 0, 0, 0, 0, 0, 0, 0,
       0, 0, 0, 0, 0, 0, 0, 0, 0, 0, 0, 0, 0, 0, 0, 0, 0, 0, 0, 0, 0, 0,
       0, 0, 0, 0, 0, 0, 0, 0, 0, 0, 0, 0, 0, 0, 0, 0, 0, 0, 0, 0, 0, 0,
       0, 0, 0, 0, 0, 0, 0, 0, 0, 0, 0, 0, 0, 0, 0, 0, 0, 0, 0, 0, 0, 0,
       0, 0, 0, 0, 0, 0, 0, 0, 0, 0, 0, 0, 0, 0, 0, 0, 0, 0, 0, 0, 0, 0,
       0, 0, 0, 0, 0, 0, 0, 0, 0, 0, 0, 0, 0, 0, 0, 0, 0, 0, 0, 0, 0, 0,
       0, 0, 0, 0, 0, 0, 0, 0, 0, 0, 0, 0, 0, 0, 0, 0, 0, 0, 0, 0, 0, 0,
       0, 0, 0, 0, 0, 0, 0, 0, 0, 0, 0, 0, 0, 0, 0, 0, 0, 0, 0, 0, 0, 0,
       0, 0, 0, 0, 0, 0, 0, 0, 0, 0, 0, 0, 0, 0, 0, 0, 0, 0, 0, 0, 0, 0,
       0, 0, 0, 0, 0, 0, 0, 0, 0, 0, 0, 0, 0, 0, 0, 0, 0, 0, 0, 0, 0, 0,
       0, 0, 0, 0, 0, 0, 0, 0, 0, 0, 0, 0, 0, 0, 0, 0, 0, 0, 0, 0, 0, 0,
       0, 0, 0, 0, 0, 0, 0, 0, 0, 0, 0, 0, 0, 0, 0, 0, 0, 0, 0, 0, 0, 0,
       0, 0, 0, 0, 0, 0, 0, 0, 0, 0, 0, 0, 0, 0, 0, 0, 0, 0, 0, 0, 0, 0,
       0, 0, 0, 0, 0, 0, 0, 0, 0, 0, 0, 0, 0, 0, 0, 0, 0, 0, 0, 0, 0, 0,
       0, 0, 0, 0, 0, 0, 0, 0, 0, 0, 0, 0, 0, 0, 0, 0, 0, 0, 0, 0, 0, 0,
       0, 0, 0, 0, 0, 0, 0, 0, 0, 0, 0, 0, 0, 0, 0, 0, 0, 0, 0, 0, 0, 0,
       0, 0, 0, 0, 0, 0, 0, 0, 0, 0, 0, 0, 0, 0, 0, 0, 0, 0, 0, 0, 0, 0,
       0, 0, 0, 0, 0, 0, 0, 0, 0, 0, 0, 0, 0, 0, 0, 0, 0, 0, 0, 0, 0, 0,
       0, 0, 0, 0, 0, 0, 0, 0, 0, 0, 0, 0, 0, 0, 0, 0, 0, 0, 0, 0, 0, 0,
       0, 0, 0, 0, 0, 0, 0, 0, 0, 0, 0, 0, 0, 0, 0, 0, 0, 0, 0, 0, 0, 0,
       0, 0, 0, 0, 0, 0, 0, 0, 0, 0, 0, 0, 0, 0, 0, 0, 0, 0, 0, 0, 0, 0,
       0, 0, 0, 0, 0, 0, 0, 0, 0, 0, 0, 0, 0, 0, 0, 0, 0, 0, 0, 0, 0, 0,
